id,es_total_ps
14351,1556.472082828116
14352,1112.621641497018
14353,723.9432476307937
14354,590.290780830623
14355,568.7300408976283
14356,623.9756901947379
14357,1083.9224245882192
14358,1649.8812914734365
14359,1509.2990409339432
14360,661.945343272502
14361,-238.7139793221593
14362,-717.5456934569421
14363,-1031.7637177892
14364,-1162.4689254447555
14365,-1441.803007347183
14366,-1427.6045463562302
14367,-1739.5950826278042
14368,-1905.008486148896
14369,-871.0301877894251
14370,87.52202980378496
14371,1534.696368942403
14372,2766.946347254108
14373,2604.875854132767
14374,2150.715545625977
14375,1335.8336561536353
14376,1029.2509484448792
14377,708.0169257875058
14378,560.9512155817922
14379,514.8077537215299
14380,498.56592359078843
14381,888.5966292024756
14382,1543.8821755300014
14383,1388.0731249644907
14384,384.96502206307855
14385,-1034.5291922245556
14386,-1585.3298884384994
14387,-2015.539467178621
14388,-2270.725370823551
14389,-2451.1707709628286
14390,-2743.9924524915928
14391,-2831.8234159107533
14392,-2723.0159210551446
14393,-1928.664890265855
14394,-184.9668476220044
14395,1279.2052897444216
14396,2643.89507380206
14397,2561.0572911902896
14398,2191.372379175162
14399,1431.1967718580993
14400,1139.7357762669508
14401,767.280970396797
14402,505.29980994591597
14403,479.47064977344786
14404,390.7596662445868
14405,543.2781690612416
14406,718.7999697172644
14407,492.75144152327925
14408,-1265.9136416424997
14409,-2819.3805579294535
14410,-3024.2267196157986
14411,-3353.8555770785983
14412,-3322.2804918758115
14413,-3327.3539465576177
14414,-3305.4585038643318
14415,-3343.206894800406
14416,-3063.1949451067353
14417,-2620.819455907007
14418,-673.2016100446284
14419,1326.8144004987435
14420,2605.7774795540045
14421,2702.7420762874685
14422,2353.6272350535955
14423,1609.5461894131279
14424,1181.1765552248132
14425,585.1621766305401
14426,489.38635537601283
14427,479.65944325019535
14428,378.65522148555726
14429,527.0038205109157
14430,726.3432480066377
14431,260.811111900372
14432,-1676.185934756486
14433,-3168.4467454359133
14434,-3150.073252512457
14435,-3384.0092801297046
14436,-3341.13425814916
14437,-3015.51673549453
14438,-2967.4844050772213
14439,-2881.6894547326524
14440,-2832.2976436048466
14441,-2069.1570167445625
14442,-448.0033562523287
14443,1452.9877357370676
14444,2641.563869844573
14445,2711.634177174199
14446,2462.819648248671
14447,1920.6912006766613
14448,1515.5795338849155
14449,836.1312903961903
14450,673.0874714116902
14451,624.7079239773238
14452,816.7025281863334
14453,1192.4980902220452
14454,1715.6382330661338
14455,1800.0301357673216
14456,851.7870759963997
14457,-580.0069456481114
14458,-1267.8216570614134
14459,-1618.0945505973348
14460,-1435.579061028831
14461,-1185.8956815253644
14462,-1785.6828071187822
14463,-1594.281389197466
14464,-1259.21236323583
14465,-760.4456951890292
14466,294.76005500817377
14467,1611.6834322871725
14468,2847.3817609167445
14469,2844.9765372410534
14470,2443.3986727855827
14471,1500.2028683672536
14472,1155.656618608254
14473,723.6749017727138
14474,614.8294431782007
14475,567.6983721329829
14476,656.985432258159
14477,1040.181577287024
14478,1487.7772994010058
14479,1509.0613667293158
14480,717.4880483590504
14481,-314.48510227021626
14482,-997.2030740530525
14483,-1214.7070775313841
14484,-1401.588269900835
14485,-1354.0101953581382
14486,-1703.1734631425911
14487,-1774.7938536359222
14488,-1410.3396111126528
14489,-795.8310721695815
14490,260.9439700986082
14491,1620.2497712227134
14492,2818.5528732519965
14493,2485.7714948411563
14494,2050.047189012327
14495,1420.5243086510832
14496,1064.6007727517106
14497,565.0051322274501
14498,280.39926854072706
14499,179.97339624139315
14500,171.56724854563438
14501,604.0970487849985
14502,1079.06645162107
14503,1160.1145026925335
14504,321.4002315140116
14505,-862.0024825267502
14506,-1521.4729851442814
14507,-1349.7272915815563
14508,-1531.6527046567955
14509,-1662.2080635146292
14510,-1526.6043718003025
14511,-1617.7000200000887
14512,-1622.7131957195068
14513,-787.2891980262342
14514,596.5494430357475
14515,1755.0459294254667
14516,2844.7166929220452
14517,2545.3146782208983
14518,2129.5134746212675
14519,1480.5094184722636
14520,1216.3659161543421
14521,670.8763952896858
14522,567.1474387641191
14523,426.5876997650163
14524,434.80436803731277
14525,751.9681440692168
14526,1319.4916402787737
14527,1296.0610587182325
14528,265.53809164607117
14529,-1440.6428728269718
14530,-1924.651584197621
14531,-2034.9679411632749
14532,-2105.4850528547463
14533,-2296.8576398186106
14534,-2407.670563300761
14535,-2167.224557818933
14536,-1804.3325911358133
14537,-608.833343625568
14538,456.51154412060254
14539,1646.9295333399702
14540,2801.233394723788
14541,2721.2765631027614
14542,2256.2189134816163
14543,1731.5112050430419
14544,1369.9746990901363
14545,1002.7934898199733
14546,780.9701044700761
14547,725.6746277641527
14548,754.7860549217595
14549,1098.8819566398226
14550,1613.636562842559
14551,1549.5319181978964
14552,541.7782837164798
14553,-947.2068026334928
14554,-1256.1241663311546
14555,-1582.9261244282313
14556,-1821.2928586954679
14557,-1757.0559791563858
14558,-2307.3214595633904
14559,-2054.220850622264
14560,-1664.6259407656196
14561,-507.34482823005703
14562,512.0624398082447
14563,1600.4550508102736
14564,2691.4241309037375
14565,2396.8303303597163
14566,1944.6860052323734
14567,1444.3629124857957
14568,1056.7617548863811
14569,641.3891097783509
14570,428.7835501155848
14571,292.3627739168325
14572,116.49462338090764
14573,384.18621161823285
14574,579.4497618843426
14575,284.41084123296804
14576,-963.5494931486345
14577,-2715.862047360391
14578,-2922.183328777002
14579,-3112.3020615309442
14580,-3135.6412615969243
14581,-3256.5478193263193
14582,-3268.8824685437185
14583,-3253.3197692413864
14584,-3049.509702399067
14585,-2022.31299856582
14586,-174.64622612550315
14587,1504.6160258500183
14588,2674.583515559721
14589,2653.93301380135
14590,2265.975504220481
14591,1437.545177563879
14592,1042.820295014091
14593,653.8579287864135
14594,467.2871827616512
14595,407.93186765960024
14596,332.8386153520973
14597,318.9235014289455
14598,424.4946869725249
14599,-452.1047493425949
14600,-2309.252162933885
14601,-3313.8661485510906
14602,-3386.249933116344
14603,-3561.4198776292537
14604,-3504.0213573352144
14605,-3477.0898457343014
14606,-3503.683380691255
14607,-3538.155586957587
14608,-3407.7106555990563
14609,-2753.9344200026544
14610,-580.0709741006452
14611,1569.3856256978638
14612,2541.005789622906
14613,2652.89926699679
14614,2391.3348448060005
14615,1538.1256407440565
14616,1232.591337783978
14617,641.0051377510831
14618,487.2742629709895
14619,529.0842087016053
14620,642.0404106431832
14621,1132.2974686718746
14622,1572.4679630355865
14623,1860.2209758601084
14624,1207.0871318725963
14625,-145.51126832968868
14626,-1180.5401090877613
14627,-2019.4847743466096
14628,-1632.9685377873786
14629,-1567.1930873770677
14630,-2094.9921779556676
14631,-2253.3108499463547
14632,-1912.0271670875763
14633,-770.0563624325007
14634,278.8561906716635
14635,1598.7276485262225
14636,2708.2519888330667
14637,2647.208135531109
14638,2139.07816373878
14639,1552.1971115988797
14640,1176.9764390568744
14641,855.3822142533749
14642,660.8607115184501
14643,623.6433979847953
14644,632.3104649793173
14645,993.3361373307631
14646,1607.7211179352328
14647,1817.7282345493372
14648,1156.492464120654
14649,60.05802381694993
14650,-493.00319674201876
14651,-1151.5934441433556
14652,-1716.5114313162032
14653,-2167.264687221422
14654,-2507.1459111821714
14655,-2572.203832898108
14656,-2320.8781400864987
14657,-1022.312735231494
14658,185.2953151375437
14659,1544.855770959251
14660,2479.6413457090503
14661,2413.198584252328
14662,1864.7687474730985
14663,1409.7231633183083
14664,1099.0321022037729
14665,673.1227576603153
14666,426.59340280481615
14667,386.3502951989308
14668,453.2584717433553
14669,622.6804279024419
14670,1143.3007349284767
14671,1039.043549890253
14672,-24.1544695182021
14673,-1631.7546470106006
14674,-2120.730658779657
14675,-2534.0528287345664
14676,-2644.633410511849
14677,-2772.4462230428303
14678,-2853.918695066705
14679,-2948.910182828005
14680,-2797.3876075826506
14681,-2005.9203626415099
14682,-239.27544396057735
14683,1314.101669757193
14684,2454.844845392482
14685,2156.329674974056
14686,1758.145444331681
14687,1110.4286943647983
14688,908.401780151483
14689,401.54819236338574
14690,216.86621233505676
14691,47.13383962925162
14692,149.3151244948319
14693,216.0581617635431
14694,372.89196663775226
14695,-1003.6875929797576
14696,-2380.633513060518
14697,-3140.5016167535423
14698,-3195.210274703637
14699,-3237.779940175608
14700,-3273.4544978746158
14701,-3307.337674134378
14702,-3328.3634504858805
14703,-3359.55225903162
14704,-3341.193718932483
14705,-2884.063236579605
14706,-1073.2431793521114
14707,1315.7782203423264
14708,2532.896393709286
14709,2498.2904537395198
14710,2229.8291739541046
14711,1610.4414331332116
14712,1313.9561752141262
14713,683.473029456539
14714,378.1934838279698
14715,345.3438196130924
14716,347.68095962515986
14717,731.9035796013295
14718,1276.3969248890282
14719,1440.4226585496037
14720,55.97250925599706
14721,-2240.928268041033
14722,-2626.5597910419133
14723,-2980.039862495381
14724,-3026.29814647028
14725,-3053.232614410334
14726,-3039.733262348914
14727,-2939.152494950368
14728,-2752.9494151401464
14729,-1823.036781721529
14730,302.7432464396333
14731,1909.6011348458735
14732,2739.669059866063
14733,2776.8241613653877
14734,2409.780918718899
14735,1735.0815095973392
14736,1428.766156734863
14737,934.1705101502761
14738,796.8803289247403
14739,720.4622564860462
14740,704.2819335462981
14741,756.101871993172
14742,886.541731538543
14743,618.5999213682134
14744,-696.8621881395622
14745,-2353.45962605024
14746,-2751.2797419991325
14747,-2978.6825961078152
14748,-2959.1622592693757
14749,-3145.6602676154894
14750,-3123.2915284603
14751,-3128.101009163975
14752,-3078.5207673412574
14753,-2221.1886239696596
14754,-767.8736777209554
14755,1324.3489735391252
14756,2621.9517929157387
14757,2576.243356563949
14758,2160.4397181050313
14759,1652.362826387416
14760,1262.0188600073213
14761,812.205939193322
14762,596.3233113822719
14763,335.1601166210819
14764,371.84216106421104
14765,427.38529242426364
14766,511.96898153071095
14767,24.853983872565337
14768,-2038.0575911015642
14769,-3157.4534947534416
14770,-3280.0929962121368
14771,-3402.1346493002916
14772,-3316.249540397972
14773,-3337.710416865489
14774,-3331.9266444381997
14775,-3371.2982432356907
14776,-3318.511829287992
14777,-2848.7778811366356
14778,-1187.383540555548
14779,992.5571403569945
14780,2316.895249343132
14781,2420.7075937766203
14782,1985.585808380508
14783,1288.9423817628046
14784,801.5080447680451
14785,219.50693281172383
14786,-25.477322870676552
14787,-59.048123355609455
14788,-23.70840671287346
14789,627.9670849532125
14790,1340.2204833281837
14791,1553.672010234783
14792,440.8582952345482
14793,-1766.7377474717025
14794,-2591.296067945845
14795,-2352.962159719022
14796,-2436.519164681586
14797,-2464.0215070764566
14798,-2686.110003177976
14799,-2919.997167604343
14800,-2402.00861018855
14801,-1576.1257292758814
14802,563.1412350501955
14803,1994.2801575172255
14804,2833.5835524488657
14805,2812.212573622404
14806,2524.045037842369
14807,1767.8505967623748
14808,1402.4288701634466
14809,945.9334163695042
14810,835.6782480441001
14811,759.7295089906892
14812,874.2517511731143
14813,1256.694653904
14814,1758.8922966174043
14815,1794.5084381797367
14816,789.1382836126808
14817,-1256.1791594956153
14818,-2107.854008870451
14819,-2690.5282845458887
14820,-2792.2782305249207
14821,-2741.215302564008
14822,-2572.1612600733365
14823,-2639.916778051641
14824,-2419.178834451543
14825,-1432.9057033587096
14826,62.82576593963783
14827,1529.717483261862
14828,2649.976587382415
14829,2378.168264533032
14830,1804.2003405530797
14831,1188.4314781963296
14832,685.8791245364611
14833,329.1245374966128
14834,22.70016750924851
14835,-157.80658379864096
14836,-187.61988265362004
14837,369.77540030566536
14838,1015.4704932262167
14839,1179.9590595028114
14840,24.181796119848684
14841,-1681.9438417294261
14842,-2230.840794212902
14843,-2650.6686714044818
14844,-2660.2684469101546
14845,-2405.002387008092
14846,-2301.879404795796
14847,-2325.231908279706
14848,-1804.547636388946
14849,-11.576539348927291
14850,952.7861957045149
14851,2129.805504010776
14852,2865.4825739247
14853,2834.385553452168
14854,2632.769672677895
14855,2128.9208517831735
14856,1888.925989674876
14857,1315.0536131405916
14858,1039.153296098047
14859,964.2839856263437
14860,1001.3139816939232
14861,1438.7971795092642
14862,1852.4239456035832
14863,1942.325415190029
14864,1302.3446282132948
14865,-388.115593013493
14866,-1264.1240855784315
14867,-1977.4664179901192
14868,-2252.211986792115
14869,-2267.150427829044
14870,-2514.251995492986
14871,-2476.1973574401477
14872,-1640.1334380255323
14873,-462.07449667604476
14874,832.4862902898446
14875,2170.150526637706
14876,2904.537324220639
14877,2594.4246252225735
14878,2120.6005992051264
14879,1388.1188615635235
14880,1017.2917214472434
14881,822.588138023377
14882,741.3006300341859
14883,736.0810242504585
14884,763.7044620611377
14885,1107.1543705286408
14886,1616.148242174671
14887,1720.6993584622085
14888,1002.9346349051958
14889,-389.4171528510767
14890,-992.4143848479595
14891,-2061.234144461682
14892,-2005.2621098750262
14893,-2062.0790596017982
14894,-2463.602303047129
14895,-2391.8166204860554
14896,-1595.3866060685966
14897,-273.26164157036237
14898,559.3107237372607
14899,1857.7274492495583
14900,2543.426521087927
14901,2306.7458402055217
14902,1899.6630614924172
14903,1484.9512638939357
14904,1017.9861299917399
14905,566.481182759897
14906,288.63032841877435
14907,71.74349492154252
14908,24.14492278216155
14909,352.4799038079425
14910,491.705257467823
14911,229.2863014912576
14912,-1150.0248683565785
14913,-2674.2548617555153
14914,-2951.835052594661
14915,-3308.5105325406375
14916,-3350.6182202987998
14917,-3325.365727047773
14918,-3362.0958870584627
14919,-3351.965906987756
14920,-3197.1676591741093
14921,-2224.2002874332156
14922,-84.284321034334
14923,1360.1437199787488
14924,2388.232973345355
14925,2246.8039867972384
14926,1932.6830763440971
14927,1276.7904484462686
14928,936.4230852187749
14929,378.14271746863017
14930,130.4276060827735
14931,-112.08653286652483
14932,-425.83179254560423
14933,-129.21408337850073
14934,-174.4096978044657
14935,-834.6193584527542
14936,-2204.2316490896856
14937,-2988.663234423269
14938,-3232.017739536262
14939,-3374.7384464427755
14940,-3366.1564570207715
14941,-3332.1445025450744
14942,-3329.3067201233584
14943,-3271.2724199819063
14944,-2931.5832009574447
14945,-1866.9906930717898
14946,132.24572282647327
14947,1564.1257764719596
14948,2224.3651910288627
14949,2173.5490203192753
14950,1828.2825919386792
14951,1099.6597509167013
14952,703.4406770100289
14953,78.17463193098271
14954,-110.82842022705117
14955,-149.9140629048163
14956,-111.4517099191695
14957,534.0139206023994
14958,1262.0969057051188
14959,1544.6158975817061
14960,999.8018537701201
14961,-1059.2209484742782
14962,-2279.1127135353354
14963,-2571.7827091981717
14964,-2517.172927579262
14965,-2477.9829743521245
14966,-2418.8066950766506
14967,-2254.6560334714045
14968,-1046.9296716553604
14969,235.58255682884837
14970,1135.6623583707071
14971,2168.1515534038517
14972,2773.4393962702366
14973,2720.751933911612
14974,2445.368686930323
14975,1794.302351738728
14976,1458.2837505891628
14977,1069.945047372847
14978,901.1623078249387
14979,740.1605418904123
14980,827.2382395475535
14981,1208.0897770047266
14982,1727.906225837931
14983,1899.552666511589
14984,1183.9020627932869
14985,-329.9435386592369
14986,-1697.0396810761229
14987,-2160.3745864259504
14988,-2242.646391287131
14989,-1995.9002880609971
14990,-1853.8192401320932
14991,-1595.9306111255044
14992,-1215.164741369518
14993,-39.26643398493223
14994,808.4249767588785
14995,2351.6854691329963
14996,2936.420794444637
14997,2766.9300366603015
14998,2241.691087364093
14999,1519.7794041520294
15000,1257.6002798624738
15001,739.9146965395511
15002,533.123183269525
15003,568.98918249531
15004,601.6132022886214
15005,963.4876963790472
15006,1484.155268122843
15007,1697.8123252568382
15008,966.2725780627944
15009,-163.6404973929857
15010,-1069.6812216969377
15011,-1480.818678593216
15012,-2060.0364739642796
15013,-2069.53225180278
15014,-2214.8884949403537
15015,-2128.7368027480634
15016,-1749.1819338623538
15017,-496.7540642728028
15018,577.0070589135942
15019,2087.531748937054
15020,2610.2811374725165
15021,2265.512530698785
15022,1804.4797881798993
15023,1120.472805962968
15024,724.2868079984698
15025,348.5204320984338
15026,227.20169051476816
15027,320.9063725725796
15028,209.12802660070454
15029,687.2095334015028
15030,1357.2431669817372
15031,1792.1342697942412
15032,1643.6979761344776
15033,1137.6884687843014
15034,247.30001727913447
15035,-206.87626747019775
15036,-451.6869306300199
15037,-708.1213251762871
15038,-809.8725407072515
15039,-541.1837767607702
15040,-282.4188569508029
15041,130.94248478358784
15042,872.7802662037637
15043,1970.6295029792232
15044,2503.6636647996697
15045,2265.4278275124407
15046,1854.1917785989988
15047,1112.7302123371026
15048,802.6427856698969
15049,274.4986764567245
15050,176.27779260733033
15051,156.54808726616304
15052,170.65392173503076
15053,539.0306258468735
15054,1127.4227942277669
15055,1480.0668962567872
15056,1149.480564386193
15057,521.7703477535799
15058,-202.84948783025757
15059,-656.5487641935016
15060,-842.1357931023314
15061,-1707.760009484957
15062,-1858.9668697590375
15063,-1844.902162286482
15064,-811.7302712429793
15065,-35.72788002042909
15066,886.61224429735
15067,2136.4422699736897
15068,2441.4922091820586
15069,2179.6925025097867
15070,1694.385042344474
15071,1102.3950452119207
15072,772.774883896078
15073,364.3414310445844
15074,216.8012735139198
15075,44.05427625711244
15076,54.73565263386223
15077,260.7362326341511
15078,408.98507790089195
15079,555.0663698017644
15080,472.69042594956545
15081,-265.3402478492716
15082,-1718.3563140371664
15083,-2021.48984383521
15084,-2003.4606530834883
15085,-2416.1741395832314
15086,-2477.905834851234
15087,-2408.6041834703537
15088,-1582.6664226392656
15089,-384.09008849906445
15090,854.3783397393441
15091,2140.491825571233
15092,2440.029943551763
15093,2408.4098696686465
15094,2086.503417670257
15095,1460.9104666531546
15096,955.7779926589054
15097,299.75865137599624
15098,199.45495968602552
15099,85.60568747682836
15100,24.537955194805185
15101,67.5655601420567
15102,265.927094061986
15103,319.8745727175692
15104,-260.9076960124985
15105,-1455.4124616826057
15106,-2656.8993903699647
15107,-2956.1798516604895
15108,-3061.1925335742512
15109,-3172.560976650491
15110,-3275.5873553818406
15111,-3311.678152114053
15112,-3070.4617137903388
15113,-1711.126654604006
15114,356.6288725013064
15115,2094.1455087996906
15116,2608.6312397590996
15117,2528.2744896469444
15118,2103.443967377397
15119,1435.2666639997524
15120,969.285267175817
15121,477.5033566896261
15122,241.8437803146949
15123,121.64296099264917
15124,262.23549465437986
15125,885.6948295471942
15126,1617.1191168778346
15127,1960.374716435432
15128,1609.5702348768743
15129,182.02541968958948
15130,-744.81650609716
15131,-1254.7926211832803
15132,-1706.1151174757151
15133,-2129.9667828044467
15134,-2191.667591008743
15135,-2118.864768038746
15136,-1610.7210926221626
15137,-355.09882500208755
15138,659.9484681312847
15139,2033.1246341625613
15140,2428.3931441917907
15141,2064.675658069571
15142,1488.5298164939948
15143,831.4164558240321
15144,406.58682322876814
15145,157.72001896800197
15146,12.148305620221414
15147,-5.341413097926441
15148,61.94055757323229
15149,729.2584241243175
15150,1392.6444389160224
15151,1779.237406460775
15152,1114.156022077715
15153,-8.981371107399106
15154,-1219.433635331774
15155,-1771.7456107790224
15156,-1967.9705374521056
15157,-2058.0822698311295
15158,-2134.3321199471966
15159,-2108.333050781915
15160,-1979.3018243266
15161,-715.5843147369534
15162,432.3343198495858
15163,2028.5693675955697
15164,2417.0133896557313
15165,1811.1515465343102
15166,1303.9029532837633
15167,749.3167574482619
15168,432.01049719485206
15169,-1.5723113065948695
15170,-130.74023043576713
15171,-104.39336554944313
15172,-78.33435768749797
15173,515.7452658506486
15174,1154.9856926214713
15175,1445.472431796552
15176,854.1961397222698
15177,-815.7647785927978
15178,-1648.115463970276
15179,-2302.165848709229
15180,-2456.609379126046
15181,-2584.734854403683
15182,-2658.108916220052
15183,-2598.324271891895
15184,-2522.634488932717
15185,-1910.3829313953638
15186,-118.58257693818825
15187,1869.3003354288423
15188,2352.342014258055
15189,1970.0465303787653
15190,1525.061275082819
15191,1115.7032816308263
15192,655.5148091342179
15193,8.601969081051713
15194,-83.31276680192954
15195,-29.09769758258866
15196,221.3501480738716
15197,609.8412486242105
15198,1378.973404583682
15199,1823.7840325411023
15200,1274.6893457997337
15201,-903.5631900796898
15202,-1577.9993368453106
15203,-1918.9504493302218
15204,-1974.904414484189
15205,-1980.1712466064646
15206,-1823.0551224554522
15207,-1802.491821470483
15208,-955.2255413632494
15209,248.27343781129278
15210,1086.274237943692
15211,2369.651661254709
15212,2629.5433865795762
15213,2403.5805604189172
15214,1718.0175908869307
15215,904.705872215387
15216,679.7789867520121
15217,273.9315401505219
15218,-63.736186011600516
15219,-256.9467903142885
15220,-217.21582013437435
15221,233.45693595668635
15222,1139.3918031105638
15223,1590.4041509483611
15224,928.9414799967375
15225,-927.9450558328122
15226,-1721.6109820168701
15227,-2189.0509095788125
15228,-2556.8776389330724
15229,-2733.930730178218
15230,-2940.0602717298357
15231,-2947.518416631416
15232,-2587.3234194282873
15233,-1684.3812667619566
15234,155.25482984448567
15235,2268.004615951963
15236,2663.963028022632
15237,2309.7154502903113
15238,1759.2266591983894
15239,1307.2910250211448
15240,1028.1534211271946
15241,442.92543325837005
15242,281.753402239531
15243,217.2012826775955
15244,195.86156983768927
15245,380.567016012597
15246,701.4101417873214
15247,457.2240540262254
15248,-590.9618907811156
15249,-2522.651398460493
15250,-3030.73693165355
15251,-3130.342230574958
15252,-3283.19222818384
15253,-3329.689481546609
15254,-3335.052486734347
15255,-3331.1311594884387
15256,-3122.985144935821
15257,-1284.96749611293
15258,856.3450878739377
15259,2356.9205515444996
15260,2649.027233037786
15261,2568.2924372143384
15262,2325.1063655119847
15263,1639.4463410105918
15264,1243.7380905631321
15265,684.4997696949766
15266,543.2973363217274
15267,418.151012592027
15268,369.7850094366049
15269,425.00168564386695
15270,526.7839917740372
15271,503.27724974963485
15272,-927.1001930580732
15273,-2664.6434220834312
15274,-3065.0583569232917
15275,-3317.4692836597724
15276,-3362.0351917825487
15277,-3389.1696229370195
15278,-3379.1101312359265
15279,-3390.5097296828485
15280,-3335.855541976053
15281,-2800.3688970892044
15282,-713.5673850225832
15283,1870.602195104919
15284,2334.733866367986
15285,2143.2007341137096
15286,1668.579229518366
15287,529.8821014865582
15288,199.01739256645274
15289,-102.52594889348899
15290,-304.97093419407275
15291,-181.12556387794595
15292,-77.52438058860292
15293,506.5566462433412
15294,1519.10710175266
15295,1987.4375473627101
15296,1294.3534522374005
15297,-1188.4342859728745
15298,-2214.763176029747
15299,-2617.850192105451
15300,-2794.720489943426
15301,-3019.2230465899343
15302,-3083.2873572310323
15303,-3120.5218532712647
15304,-2781.028489927318
15305,-1457.5851141686776
15306,639.6777372949938
15307,2475.7554179382714
15308,2618.552208534388
15309,2303.2926455692577
15310,1956.74902251621
15311,1226.331808827865
15312,876.699899447858
15313,371.213121229926
15314,233.4812870103594
15315,202.468860879789
15316,240.94728145953007
15317,776.0764370203048
15318,1644.4685476857082
15319,2039.9952388391328
15320,942.8441796494168
15321,-1448.5263695630408
15322,-2432.866447691406
15323,-2810.496109139706
15324,-2921.9103640344815
15325,-2900.561630423947
15326,-2860.588983833914
15327,-2985.174388172539
15328,-2928.661274960416
15329,-1815.085692393566
15330,347.4565736630095
15331,2329.110395851573
15332,2662.221618772013
15333,2336.4822639117124
15334,1866.8937280441316
15335,1118.7704573167484
15336,857.8862929339824
15337,342.6295882437564
15338,222.20918520217438
15339,169.29320116025423
15340,150.4868444336412
15341,653.090943544053
15342,1580.5960447017908
15343,1943.9855139615438
15344,837.0624364799331
15345,-1370.1750400030846
15346,-2343.7984542535264
15347,-2558.729507921694
15348,-2632.9005532551528
15349,-2776.2439332260988
15350,-2990.017376143654
15351,-3004.663029930965
15352,-2759.443433893967
15353,-1562.5727934161553
15354,345.9230341085957
15355,2003.0306092405658
15356,2512.5176094725994
15357,2428.7576815378816
15358,1830.2802527451533
15359,1198.6188271391327
15360,837.4022672265412
15361,440.18340855701456
15362,253.40226512998092
15363,116.0776771218149
15364,404.55782028743624
15365,861.3357551843187
15366,1688.701290549014
15367,1953.6107685904542
15368,1248.2187482995143
15369,-737.6055027561969
15370,-1910.6209784235969
15371,-2448.390072097639
15372,-2587.308136799806
15373,-2985.1162953890744
15374,-3001.2611701613155
15375,-2949.3725284317647
15376,-2764.226978094351
15377,-1763.8115380153365
15378,99.14959184670025
15379,2136.2461183973132
15380,2541.8138738673842
15381,2032.0303806085224
15382,1540.6043475180497
15383,1114.0409428086593
15384,781.2477393206603
15385,310.5755101788882
15386,40.68527382891173
15387,-209.61005184961667
15388,-181.8681581941306
15389,358.0544819723706
15390,1205.6647703715169
15391,1457.9775544730412
15392,91.21034683240734
15393,-1876.665101904803
15394,-2552.3549205500644
15395,-2746.6574040798137
15396,-2852.566973778647
15397,-3067.3673087127804
15398,-3096.153378943977
15399,-3091.3382872320312
15400,-3017.485093681926
15401,-2132.8149839331068
15402,-171.81278905314437
15403,1772.4208782660246
15404,2127.9314244343113
15405,1570.506899961683
15406,889.0177325338049
15407,411.41023969736284
15408,308.82871542584957
15409,-131.5286101192281
15410,-464.24380446053544
15411,-503.399119231815
15412,-519.8566217119678
15413,-15.172446749669
15414,453.02235645222976
15415,549.3142649286423
15416,-422.5868140588687
15417,-2401.346431790169
15418,-3056.412603798051
15419,-3178.1470511696575
15420,-3229.169122885811
15421,-3227.151105215458
15422,-3205.0154414432545
15423,-3199.2050192285938
15424,-3121.30253737917
15425,-1762.2649564736437
15426,425.50343994665616
15427,2133.130027711949
15428,2332.413010199233
15429,1957.6192738870034
15430,1613.5703317092778
15431,839.5521471008702
15432,537.5361781359067
15433,123.43610532583867
15434,-128.79751668386132
15435,-254.34897081184758
15436,-305.492653516013
15437,-279.1881439947023
15438,8.475839425091273
15439,-467.02818225838143
15440,-1799.9875182717265
15441,-3081.1847334439403
15442,-3189.6983213918197
15443,-3307.9532921886243
15444,-3313.8721665146727
15445,-3310.64719455576
15446,-3316.308394307493
15447,-3336.530958380671
15448,-3299.521223746747
15449,-2634.494706546646
15450,-451.0181062085088
15451,1894.6119072724416
15452,2262.3610480796674
15453,1982.1685716983718
15454,1617.301745161534
15455,523.9046576950394
15456,170.0602635960341
15457,-613.5958933140048
15458,-835.5294158090195
15459,-913.51652605827
15460,-668.3528142062002
15461,64.21090985070673
15462,1190.9147991980087
15463,1709.2695883804802
15464,126.12201649748721
15465,-2352.046704772885
15466,-2618.9581495004445
15467,-2764.11330807334
15468,-2866.253029564213
15469,-2907.67628296009
15470,-2988.634169321906
15471,-2986.418606396405
15472,-2793.7782163126562
15473,-1939.835595201199
15474,420.1884232098892
15475,2213.936501911669
15476,2245.456594071705
15477,1807.8607918257
15478,1267.7468415304045
15479,436.918930751345
15480,171.88343732469238
15481,-564.9080517263405
15482,-826.1392836178926
15483,-829.0001123575136
15484,-799.0789208459329
15485,-113.51063435279488
15486,955.7889907479263
15487,1506.2199135021654
15488,295.88885427567595
15489,-1782.4014476694776
15490,-2607.7692314311525
15491,-2903.104569716351
15492,-2927.740516260595
15493,-3021.5332405926333
15494,-3050.1155393728714
15495,-2995.3866986335747
15496,-2810.180469019624
15497,-1465.0089114156701
15498,512.0554365472206
15499,2166.554341269855
15500,2333.730535549635
15501,1747.508113697477
15502,1240.0115297646973
15503,602.2056967479408
15504,467.5040765450451
15505,52.36703899769932
15506,-16.717069186564977
15507,-128.14557933745832
15508,-0.9312941471160414
15509,803.7520672459297
15510,1589.8112013217296
15511,2039.789511656515
15512,1670.8769628394928
15513,393.3703381253232
15514,-1176.8151205522904
15515,-1905.1734648694842
15516,-2019.9479845776416
15517,-2208.506656893954
15518,-1971.8169386098728
15519,-1896.7261131885796
15520,-1010.7822156800593
15521,293.00637657432975
15522,1228.714881323139
15523,2439.6877589688434
15524,2511.251276782768
15525,1903.6033828558636
15526,1337.611286773943
15527,740.9309630150512
15528,536.679465333087
15529,53.71014174225591
15530,24.346181737282812
15531,-24.057525931859054
15532,88.32872367600766
15533,646.4623294885027
15534,1662.9539155830141
15535,2114.944707557848
15536,2044.9978440927534
15537,1280.1363728374413
15538,329.7730414160579
15539,-305.7501910687296
15540,-609.2532253655091
15541,-897.0018799375642
15542,-970.4833995208847
15543,-1083.9485303987412
15544,-562.2984118461568
15545,427.3251029449272
15546,1590.5304227920517
15547,2516.7245755369727
15548,2548.606731481026
15549,2115.442292845126
15550,1568.4327403243897
15551,922.1144065683262
15552,645.2265541436815
15553,292.8023444082123
15554,117.0545879148361
15555,-0.8730495130315106
15556,140.26127147658246
15557,622.9349873242744
15558,1535.6881235282835
15559,1950.3778931127006
15560,1806.9796327444994
15561,918.5505197115355
15562,321.9211473944199
15563,-354.8224465777871
15564,-1037.298564619162
15565,-1776.8713670651825
15566,-1824.3375742047251
15567,-1760.228454493142
15568,-1240.302138117656
15569,-239.92901199579788
15570,975.8729033919614
15571,2302.031266949453
15572,2351.4379849574875
15573,1779.7780074801365
15574,1307.947979985008
15575,573.2011014916415
15576,314.2700064908075
15577,12.002981368359478
15578,-124.35936079337117
15579,-171.03291490129413
15580,-134.563198683054
15581,7.521202868378886
15582,311.1157274246662
15583,704.1662551327682
15584,761.6277104653711
15585,572.3564122612933
15586,-24.186325684845592
15587,-1213.806525170475
15588,-1832.9119877076744
15589,-2231.0544506650554
15590,-2649.2696058816628
15591,-2718.3668341064536
15592,-2501.1431833862894
15593,-1044.968833514647
15594,342.3777839578838
15595,2050.8157548063473
15596,2310.372781036016
15597,1936.3688356416812
15598,1611.542850424327
15599,955.4711351272922
15600,745.9005060332867
15601,223.87791716576717
15602,134.23817930398292
15603,-52.13151393330366
15604,-266.0823015949702
15605,-128.5826539353997
15606,94.81974059103081
15607,239.07056680128468
15608,108.58506256298003
15609,-417.07121313985664
15610,-1627.0137227511198
15611,-2622.768756157431
15612,-2806.4068790631823
15613,-3134.448876336914
15614,-3243.3708787167075
15615,-3220.564351672584
15616,-2910.47856323837
15617,-837.6041043267895
15618,313.7408313937534
15619,1745.8378386099562
15620,2020.0645941463438
15621,1651.6598338661768
15622,1265.1267784701668
15623,732.1492583250985
15624,369.6828518229278
15625,4.0019492979650835
15626,-250.49699162097775
15627,-376.34783321610246
15628,-330.5063803843932
15629,292.0194302521374
15630,1331.6084356412127
15631,2020.2200228938952
15632,1535.0493028506473
15633,-140.0285810781036
15634,-1617.035743448609
15635,-2011.187365424348
15636,-2208.6190267418337
15637,-2595.8219186204715
15638,-2753.3889799637386
15639,-2639.8423844196654
15640,-2288.701850365757
15641,-559.2330548219169
15642,1095.4612241929326
15643,2508.740348481216
15644,2555.1476333723917
15645,2362.1789305403545
15646,1744.1581170702368
15647,1012.6855698660536
15648,493.59414840282426
15649,228.60350411183754
15650,92.402505649316
15651,2.541325947342962
15652,80.69460301056357
15653,627.1019882542329
15654,1580.3980493438905
15655,2076.1883315963937
15656,1862.831704338159
15657,915.0840634314003
15658,-55.18585595399389
15659,-488.7704287846583
15660,-1237.8614382313085
15661,-1944.8948610110795
15662,-2005.328135863909
15663,-1656.4345461921591
15664,-570.8764909348006
15665,109.49109767246176
15666,1292.0520282322907
15667,2317.9413048542597
15668,2267.321025831463
15669,1682.998108389793
15670,867.9476943094086
15671,603.8545252809196
15672,220.1015687593373
15673,-206.80205400937066
15674,-497.3905010879856
15675,-539.2240283584805
15676,-435.74942491405227
15677,44.25610111510916
15678,925.3721992535313
15679,1453.064555010459
15680,1312.3352275117388
15681,650.6840762246433
15682,142.52908035787726
15683,-1034.554533496456
15684,-1609.1310580088718
15685,-1878.8634756360457
15686,-2222.0063026173007
15687,-1988.056327279857
15688,-1613.7124413681183
15689,-538.0312376941903
15690,298.178942760165
15691,1414.7261839799564
15692,1457.2569618404268
15693,767.1525575070739
15694,-27.098649273461966
15695,-711.7635663065705
15696,-1340.1327592641273
15697,-1941.42743268537
15698,-2224.9158572009214
15699,-2491.215568974653
15700,-2340.5894934139237
15701,-1455.5501052887032
15702,115.28364367454932
15703,1193.7883886783359
15704,727.9058325508801
15705,-733.9019357017213
15706,-1666.1088348119565
15707,-2369.7426010327663
15708,-2595.366442377485
15709,-2821.574032065301
15710,-2917.8787092243274
15711,-2790.054756579715
15712,-2462.674382972951
15713,-946.0677831983173
15714,708.9135286976376
15715,1843.2212470842435
15716,1883.000012551033
15717,1502.0116282103124
15718,939.6788149538303
15719,-499.8741976766547
15720,-828.0168915734624
15721,-1810.2689203695984
15722,-1845.615377657453
15723,-2136.451009781614
15724,-2015.8356917100389
15725,-1320.8916577979332
15726,483.9952709668164
15727,1409.1285484397451
15728,471.20367653749577
15729,-1750.4368726228006
15730,-2669.331656649139
15731,-3065.952366311573
15732,-3144.3848985166546
15733,-3308.6456633412477
15734,-3257.3185763003517
15735,-3256.9243717720005
15736,-3124.98230714632
15737,-1924.2665812311486
15738,267.24773869447125
15739,2098.2784288524067
15740,2235.287314460283
15741,2025.555867450383
15742,1702.9235469709317
15743,905.7723881027936
15744,478.8807395010728
15745,-143.05415308374822
15746,-265.52501866094656
15747,-386.8688018569985
15748,-357.60292126143605
15749,-143.34540654067806
15750,237.65597212223918
15751,320.9455509799832
15752,-619.3251452325432
15753,-2490.991079920399
15754,-2954.7704186740443
15755,-3124.9789939333273
15756,-3229.3391052937945
15757,-3307.008365910863
15758,-3372.0064765808415
15759,-3369.1104850700685
15760,-3243.486085773828
15761,-1645.856283364729
15762,762.6956620770625
15763,2443.1529996311187
15764,2571.6988734196134
15765,2377.256471812452
15766,1883.067491253664
15767,1338.8571233060584
15768,766.6287762368822
15769,118.99820507926239
15770,-14.477664094250265
15771,-168.78725842536986
15772,-284.85668559941945
15773,-308.99105013998866
15774,-2.2645204226790483
15775,46.227152111922095
15776,-1518.5760237488237
15777,-2881.7412039012233
15778,-3197.13163980742
15779,-3312.565446166355
15780,-3372.160050622338
15781,-3408.753020538181
15782,-3404.423014488385
15783,-3393.1640974621637
15784,-3342.677378352737
15785,-2423.4075960083674
15786,274.6666437048891
15787,2309.059766116745
15788,2414.442342963069
15789,2096.922274234338
15790,1564.1729205200888
15791,513.5246687856593
15792,247.36183313361792
15793,-35.8700825761916
15794,27.971397850985305
15795,56.78871004793381
15796,187.62206285936918
15797,845.4924038671771
15798,1616.775373481035
15799,2206.527517865197
15800,1920.8849189561108
15801,-323.0638463492809
15802,-1988.6036536561408
15803,-2488.3033946969863
15804,-2363.203705192145
15805,-2433.600144298634
15806,-2571.1675323971963
15807,-2431.2136394034474
15808,-1821.3588989766702
15809,-20.6833663890828
15810,1414.9015263352837
15811,2772.921261424743
15812,2772.3867095404835
15813,2573.405138841824
15814,2119.862522178733
15815,1406.8838626028878
15816,869.9723653181267
15817,342.409899108039
15818,167.1160075506055
15819,49.51502571412159
15820,191.18966766186276
15821,630.0428269358795
15822,1702.6347665958947
15823,2290.891354646777
15824,1763.254586964402
15825,827.2157219971118
15826,-738.4571850848831
15827,-1686.5663935330551
15828,-2049.080598979805
15829,-2111.1299295097165
15830,-2508.692111570305
15831,-2400.2956636078206
15832,-1615.9351265503594
15833,-46.95019446336122
15834,1554.2403781860114
15835,2798.60408195791
15836,2801.451475131295
15837,2464.12543268749
15838,1764.7430858158189
15839,884.8161729007724
15840,467.3515123510024
15841,111.42103390514251
15842,-83.93349047016684
15843,-259.6362167247072
15844,-97.87500441010599
15845,476.6852432986344
15846,1483.2286408152206
15847,2124.779697361768
15848,1552.4177399609148
15849,675.8380946093645
15850,-1003.5304884418161
15851,-1839.2755398319407
15852,-2167.063132417917
15853,-2051.656295431282
15854,-2144.7960968420316
15855,-2057.773963947497
15856,-833.4394918911964
15857,360.15246779392174
15858,1480.6598025746243
15859,2571.7746368689363
15860,2448.389805637699
15861,1843.2982765797062
15862,1213.5467739133671
15863,209.72348787345607
15864,-48.66068008758236
15865,-481.00713214798486
15866,-859.9927001762494
15867,-1040.4377322665305
15868,-758.513854255608
15869,42.71374704953081
15870,1067.8421101774907
15871,1600.2379331896088
15872,973.1272366881409
15873,-559.0278803341408
15874,-2055.4270484901494
15875,-2560.1876228218816
15876,-2503.839289968454
15877,-2731.1566498314237
15878,-2577.4678537550058
15879,-2631.6281089373374
15880,-1738.4759030062808
15881,105.14280799055066
15882,1467.7431924731993
15883,2700.1836756914545
15884,2739.2223357596945
15885,2563.7794691839335
15886,2150.0091352938625
15887,1583.0028974183986
15888,1290.0210761380288
15889,524.5617699271642
15890,462.8885120246662
15891,285.66307922350217
15892,344.3971893590946
15893,831.6326138735495
15894,1739.0650721653321
15895,2171.887923016745
15896,1505.9448268900421
15897,-160.26807701829054
15898,-1359.0539650578683
15899,-1865.838681634075
15900,-2167.2827780736748
15901,-2623.104825532092
15902,-2689.404988525608
15903,-2408.5911446633954
15904,-1911.5571513271816
15905,-121.01592783970287
15906,1451.5594345418883
15907,2740.782412931029
15908,2790.6053891089978
15909,2579.4704235457157
15910,2116.6029016683615
15911,1572.8380530791374
15912,1100.0948341696817
15913,790.6524848301777
15914,446.27713365637055
15915,319.36600422909095
15916,229.06646475983334
15917,293.7821927390637
15918,631.2187695286378
15919,777.5295625542
15920,456.81915329444286
15921,-648.4702106750474
15922,-2286.3737396718993
15923,-2955.2905140161715
15924,-3156.9587076829976
15925,-3260.2186549091416
15926,-3329.422227841855
15927,-3355.628761430155
15928,-3211.484867108865
15929,-1588.0939048122918
15930,547.074999010348
15931,1900.5458433341066
15932,1874.7713685160622
15933,1438.4837861434075
15934,985.5351150872967
15935,-569.139740759624
15936,-869.5434940442871
15937,-1426.339514481089
15938,-1829.9517953215855
15939,-1899.5110349304289
15940,-1827.3415595750714
15941,-1483.718129787662
15942,-1318.4820976318122
15943,-1088.767978461549
15944,-1008.7252724040601
15945,-1716.8214468657013
15946,-2104.3792153290083
15947,-2986.181880898753
15948,-3144.3747293375095
15949,-3195.101317346218
15950,-3277.0308799316654
15951,-3254.4473560373594
15952,-2856.4096522369796
15953,-1203.8562291748758
15954,697.3721975178364
15955,2165.741495707159
15956,2169.4733265520767
15957,1941.8879992391392
15958,1460.376530886944
15959,504.549135784273
15960,-210.4360296943045
15961,-1155.9617152414064
15962,-1348.3429631035629
15963,-1420.49456262247
15964,-1266.9917909981484
15965,-132.74962151827535
15966,1220.08464059301
15967,1854.1813215597083
15968,1849.4876518241824
15969,1077.6738752537467
15970,-294.18708145680466
15971,-1163.8753453272898
15972,-1511.8967627974585
15973,-1950.3547811472993
15974,-1892.1859953784005
15975,-1953.7230227598372
15976,-1381.6857403559086
15977,-652.9443300833609
15978,681.2737817745975
15979,1888.9722188044286
15980,1780.6640035717048
15981,968.0509603767439
15982,-225.2854763906591
15983,-985.3021058322053
15984,-1761.4450833431158
15985,-2439.288009859552
15986,-2665.293143792003
15987,-2737.6818478045366
15988,-2579.6175281513038
15989,-1473.0221202103926
15990,531.1653834152604
15991,1333.1017089470768
15992,885.2506615658814
15993,-784.5007925320389
15994,-1956.9529335954346
15995,-2522.318495231018
15996,-2673.5268327442836
15997,-2849.585430900324
15998,-3031.054946052543
15999,-2995.441378887965
16000,-2432.188927682694
16001,-572.1595026764326
16002,1132.831289360252
16003,2065.30593354196
16004,2099.9284930593412
16005,1524.1866063668137
16006,573.8039895062537
16007,-416.8102424324241
16008,-1306.265473432744
16009,-2028.778633031611
16010,-2022.2134166756434
16011,-1765.6164293760933
16012,-1810.9128745816818
16013,-885.5267078584568
16014,583.5651995723872
16015,1364.7766739521314
16016,1043.8519640199772
16017,316.5001104792771
16018,-639.7308514520881
16019,-1430.2638569043158
16020,-1842.3573056475077
16021,-1972.9004602764878
16022,-2121.923781215651
16023,-2159.2106404499987
16024,-1847.793055789464
16025,-894.449971264867
16026,504.56061596846223
16027,1649.0835074550157
16028,1729.4626121759554
16029,1080.3435362253801
16030,627.019737855947
16031,-190.81962342347532
16032,-401.6650326127273
16033,-1081.813128964872
16034,-983.9080336741928
16035,-1135.1428210155907
16036,-789.3490059662333
16037,210.32962379197292
16038,1625.557121943418
16039,2247.169693672085
16040,2067.9788522309864
16041,671.7059618406994
16042,-1202.233755529394
16043,-1953.280209846511
16044,-2223.9210670532543
16045,-2362.507344164526
16046,-2256.2680287652975
16047,-1813.8736055349373
16048,-1114.7859497138468
16049,783.0240531106363
16050,2126.6426445415127
16051,2840.2253743955544
16052,2871.0022663534974
16053,2814.2348224557754
16054,2531.5568056640386
16055,2010.8954040527233
16056,1756.5563391690002
16057,1087.1601912406325
16058,791.0150981624002
16059,584.0144286691449
16060,649.3316114151881
16061,1007.6079945421394
16062,1942.7323963277995
16063,2297.5370743215594
16064,2111.970497059927
16065,1517.8915662086208
16066,702.5968618473645
16067,245.16715253904314
16068,-86.80898764932292
16069,-1085.9124553794957
16070,-1113.1666749295985
16071,-765.8453738795157
16072,-350.30565006885627
16073,183.79008669041278
16074,760.5324589122087
16075,1556.5449589226541
16076,1351.7324370509973
16077,709.5585482793821
16078,254.89275462566633
16079,-439.4621565513311
16080,-770.0210076614998
16081,-1426.0575626218729
16082,-1628.0165573543732
16083,-1786.5159480245393
16084,-1556.5519133801365
16085,-1165.4428478483428
16086,-430.4711385660529
16087,64.27480289504604
16088,784.7209536098513
16089,397.0400103319977
16090,92.43045655824795
16091,-177.86936868999052
16092,-314.5406210076919
16093,-430.8975947347524
16094,-989.0473326292109
16095,-815.5553113773102
16096,-116.10339866037353
16097,703.1495664071454
16098,1740.3310027038908
16099,2467.656474134997
16100,2407.445648781104
16101,2171.505072667921
16102,1736.2007379699153
16103,856.8055012783244
16104,197.27033819731653
16105,-598.3006149172256
16106,-894.1668271599534
16107,-1059.12236647575
16108,-1193.4640939082803
16109,-1163.43787631498
16110,-870.3944731127239
16111,-581.3961876729921
16112,-667.0378625847392
16113,-1108.6237529233645
16114,-1366.162939624739
16115,-2457.23719363489
16116,-2804.160408444301
16117,-3055.4819283733045
16118,-3173.251285682862
16119,-3017.8230860872495
16120,-2078.4407012516554
16121,-235.00887566807037
16122,1344.0041813739708
16123,2427.1729380872875
16124,2372.2240302494884
16125,2038.743532635427
16126,1677.4280438262697
16127,965.536008006896
16128,540.168796879165
16129,-25.092276468443124
16130,-48.14072054342042
16131,11.554792514908762
16132,254.52512526513794
16133,1081.6907883601507
16134,1983.1177428204717
16135,2367.1177922074426
16136,2469.721556865092
16137,2067.6545477255368
16138,780.2120755588811
16139,-277.0635515322442
16140,-911.6321228332475
16141,-1371.167076111187
16142,-1607.338459680271
16143,-1313.742032910415
16144,-220.66948213991074
16145,1091.243890626702
16146,2028.1378380906178
16147,2663.5096739593205
16148,2409.9713162943276
16149,1774.0071242098077
16150,1132.9026348500481
16151,599.8073111543497
16152,135.53183630849725
16153,-355.0918609418711
16154,-517.7412238163682
16155,-647.9018387693794
16156,-506.05230398596507
16157,254.43247366680686
16158,1527.3817458642766
16159,2211.2068444086685
16160,2114.2517786377716
16161,1576.905260973999
16162,951.0733599357286
16163,285.5733504301614
16164,137.14950474781065
16165,-169.6525471024484
16166,-300.4385213776721
16167,-244.70927893621595
16168,243.30282652142816
16169,913.2297247908447
16170,1990.6477003116502
16171,2616.6741534069256
16172,2364.2526591765695
16173,1590.20406260496
16174,787.3339984588229
16175,-57.5005373467255
16176,-611.327961726968
16177,-1416.1608500243008
16178,-1957.8456473907106
16179,-2032.397784176769
16180,-1881.097393602289
16181,-1203.9112406108113
16182,311.7621966042061
16183,1254.1449593944672
16184,1284.0722720017538
16185,446.5856099953675
16186,-742.6346710941074
16187,-1446.9853399083631
16188,-2067.527993538834
16189,-2504.8985389520517
16190,-2712.336024583384
16191,-2558.064812257921
16192,-2049.4775589982105
16193,-220.53548089604269
16194,1853.920690917891
16195,2636.623412042562
16196,2586.1462244991326
16197,2326.561082740653
16198,1730.111704794246
16199,966.3716730100547
16200,360.64257784304624
16201,-228.9700803808071
16202,-625.5095440515263
16203,-615.1555181081143
16204,-575.9541188677882
16205,-0.2772539779262857
16206,975.626263784649
16207,1611.8751137061038
16208,1481.7545518577815
16209,111.54515317676811
16210,-1372.2814262119555
16211,-2249.779984280179
16212,-2487.856765145692
16213,-2615.7068164448297
16214,-2876.5599437924243
16215,-2970.675709237898
16216,-2764.117986440628
16217,-1590.9097702543997
16218,465.2941194147052
16219,1946.3709261905176
16220,1869.5113763791326
16221,1371.7716237404202
16222,767.8428449107723
16223,71.49246731106794
16224,-494.9400413379909
16225,-1064.3504687482975
16226,-982.2860196906435
16227,-1120.005553614284
16228,-901.5469922743797
16229,113.80203422999418
16230,1393.0193390683498
16231,2038.8331946467981
16232,1543.6999380902223
16233,-326.06303986845245
16234,-1846.4057592705453
16235,-2536.601854856995
16236,-2718.5318799691713
16237,-2791.6979121648596
16238,-2873.612639587806
16239,-2857.815838237751
16240,-1955.06927586586
16241,300.7393527334519
16242,2154.462722557317
16243,2653.4754307418953
16244,2599.7140154838944
16245,2289.9657341424186
16246,1786.8649461093426
16247,961.7319548767067
16248,328.59154645581594
16249,-169.8369418195846
16250,-531.6931281617539
16251,-654.3621232704992
16252,-560.2595226212137
16253,-121.43518388967311
16254,341.51126308824007
16255,913.4401994681376
16256,1038.5744744287376
16257,-28.164152544195055
16258,-1754.0769293193011
16259,-2700.402836326422
16260,-2911.9035999831135
16261,-3099.2663929710534
16262,-3119.0785049695955
16263,-2929.228870502503
16264,-2017.5378846606616
16265,116.31143370570103
16266,1707.7107857784006
16267,2564.42699909231
16268,2445.7696474683758
16269,1974.5553491809612
16270,1600.5111427114014
16271,586.7739612772924
16272,-141.88340791867077
16273,-710.9284290944723
16274,-997.999542053864
16275,-918.1441503286169
16276,-848.3115421409706
16277,-645.1472988699422
16278,-399.12212117155013
16279,-15.710497567132514
16280,-91.27820896932252
16281,-1421.4584061276005
16282,-2702.527632673227
16283,-3192.6193189071996
16284,-3222.7486642003264
16285,-3239.1022639294833
16286,-3292.551302575096
16287,-3260.2443324987694
16288,-2449.460724609068
16289,-396.0040793937315
16290,1719.7605548849926
16291,2511.482309919046
16292,2540.3777397882336
16293,2333.4128792929705
16294,1701.565510485066
16295,851.8717144852982
16296,503.3435564720488
16297,-78.17277790117427
16298,-443.9905360761823
16299,-375.78205462948995
16300,-180.82434724632694
16301,658.4130186338562
16302,1799.7798188936406
16303,2297.373881583955
16304,2335.346400503339
16305,876.7156881187826
16306,-778.8426317354897
16307,-1678.503010105583
16308,-2029.4164952639524
16309,-2226.31187065073
16310,-2173.598992047902
16311,-1786.4538993661822
16312,-536.4942586345068
16313,1020.0806289608221
16314,2271.6068986112828
16315,2891.920519049578
16316,2829.781528415939
16317,2357.4346103519124
16318,1530.7741200418347
16319,781.3295868962931
16320,474.5579229428398
16321,-1.4029452356217078
16322,-287.5256355301683
16323,-420.4515635411516
16324,-338.2759090196505
16325,134.36592151047478
16326,1259.4846863885343
16327,2003.996746872914
16328,1758.0849701306547
16329,776.5618431545596
16330,-821.0892722123691
16331,-1751.0015592219024
16332,-1977.566323895149
16333,-2072.8095058567064
16334,-2192.084589671202
16335,-2039.6633817128702
16336,-781.6459171796621
16337,453.24254312028967
16338,1828.2784889431975
16339,2624.5755213958773
16340,2371.7477845694275
16341,1809.2322542523073
16342,1123.6491149389547
16343,449.65067920779535
16344,23.595766679931124
16345,-461.26546347894043
16346,-520.0420535292191
16347,-503.34246735651584
16348,-367.60397483611496
16349,383.2890589528487
16350,1783.3222569309671
16351,2274.6267552063987
16352,2167.430423814573
16353,1149.4101423149893
16354,-273.69268261033426
16355,-1442.6507527629826
16356,-1729.8902460003394
16357,-1770.5442580348313
16358,-1999.0489715262918
16359,-1879.6698562710071
16360,-513.3167435247968
16361,909.1443933055857
16362,2276.0288957515068
16363,2810.9046244210904
16364,2826.285211101182
16365,2421.8030032072547
16366,1940.2526725656635
16367,981.3468049824406
16368,359.28977367260313
16369,-188.73381635557374
16370,-384.3541313374809
16371,-443.0298436686147
16372,-379.6882492295555
16373,252.73989405831438
16374,1488.404231207203
16375,2106.8516418669583
16376,1992.0632144414565
16377,961.7605047026615
16378,-794.4329278916617
16379,-1935.816492990509
16380,-2075.1734905739704
16381,-2450.9697048597873
16382,-2351.474603780665
16383,-2012.2180748349967
16384,-821.7199935755892
16385,814.5086320805684
16386,2172.0900862872018
16387,2702.6014556871633
16388,2664.5328678988876
16389,2028.0473131697343
16390,1291.7179306076735
16391,275.8835459548891
16392,-28.477431149835077
16393,-524.125933281507
16394,-669.3942033962184
16395,-666.5935375231566
16396,-615.0374630429094
16397,224.018207523561
16398,1371.8849828637092
16399,2120.9781828398313
16400,2172.336504780604
16401,1682.5216087067313
16402,711.490660541749
16403,-170.6181352476503
16404,-1323.5120561678668
16405,-1939.494251761478
16406,-2122.7792584190925
16407,-2036.570778778079
16408,-924.4995504535091
16409,505.0604982220481
16410,1987.8380330932223
16411,2631.7177282844887
16412,2497.685850249385
16413,2149.666357955824
16414,1509.0124275122637
16415,922.4480996159615
16416,467.4733220384721
16417,-188.24446273460157
16418,-611.4005061514544
16419,-648.7108810147005
16420,-765.1606331615517
16421,-710.7436093469349
16422,-252.70149525387993
16423,435.4904098217312
16424,584.6443522191923
16425,-231.85408167930186
16426,-1728.4439370294353
16427,-2226.515922866313
16428,-2430.6428804938614
16429,-2629.060166977142
16430,-2852.665311384203
16431,-2630.3353154806905
16432,-1743.535828474099
16433,-144.4489968013123
16434,1489.0714024090692
16435,2157.573447868975
16436,2080.8858788076036
16437,1831.4892327432235
16438,1454.3228025807005
16439,817.1834230599096
16440,736.4297225762161
16441,42.89983383002807
16442,-132.66837720989938
16443,-17.485779180584338
16444,-91.2827347545597
16445,40.05057322495378
16446,126.72126724555247
16447,343.44374803860944
16448,371.80567473724125
16449,-462.438209478571
16450,-1288.1973858933575
16451,-1936.5133676298835
16452,-2480.102393311991
16453,-2472.178524050308
16454,-2240.1525842279248
16455,-2216.297566407296
16456,-1709.6973038240562
16457,-15.837159801716744
16458,1400.2005141732868
16459,1930.7661025167972
16460,1750.5341325312827
16461,1668.8288403236368
16462,1202.605433855347
16463,288.92117714442264
16464,-552.5299399720369
16465,-1570.1060905001004
16466,-1909.8284173793502
16467,-2090.8611502623667
16468,-2113.6189607106453
16469,-1884.1763985035832
16470,-587.5424930925484
16471,991.6021020419433
16472,1654.6721685643658
16473,644.0980326540442
16474,-1153.6066509894958
16475,-1749.7916871348689
16476,-1929.2214280755345
16477,-2130.107876327181
16478,-1993.6991245730594
16479,-1853.5973332378828
16480,-891.0204969295696
16481,882.8439904688498
16482,1932.602275795811
16483,2418.488145176551
16484,2420.778688225465
16485,2233.5937710081266
16486,1637.444959446523
16487,725.4330017702374
16488,208.56248229738256
16489,-636.8296240745684
16490,-944.3666458711297
16491,-1209.7462424807668
16492,-1335.0581009600646
16493,-1192.0000413359626
16494,-509.1827177299069
16495,850.6266048686579
16496,1450.4236305582467
16497,1243.2235716453854
16498,745.3589394210161
16499,178.33133779295258
16500,-322.25725201737185
16501,-526.6923257414835
16502,-334.2532075461496
16503,-123.86149806081806
16504,243.719046185323
16505,840.299760679835
16506,1201.6856051586665
16507,1665.3601305547745
16508,1869.8940922316312
16509,1706.532660261288
16510,960.9506926267653
16511,14.452928153902647
16512,-1130.2093375570328
16513,-1784.2398968155537
16514,-1940.9262856878845
16515,-1974.4235240810724
16516,-1880.5302141154234
16517,-1288.7319069690218
16518,-637.4258572918278
16519,748.2609147714224
16520,1544.0255383748288
16521,1054.5721334309865
16522,484.20554010252795
16523,-473.86568193785536
16524,-1142.6385868024895
16525,-1156.81153899153
16526,-844.6491519940381
16527,-550.5168103629403
16528,283.2383693258348
16529,1303.126236136481
16530,2071.8830151223433
16531,2438.188133749014
16532,2541.301361561413
16533,2416.348905230964
16534,2065.8153330123773
16535,1246.1499245482253
16536,367.11079879246813
16537,-311.1506651689874
16538,-846.6546781896885
16539,-956.3969038669914
16540,-935.7954576216968
16541,-774.5693488049988
16542,136.77895548188155
16543,1419.3181117809957
16544,1743.0045446929269
16545,1190.6328492989878
16546,577.7518240799945
16547,4.165289761757769
16548,-244.38732250613137
16549,-477.94669580725156
16550,-564.4667266513729
16551,-376.61460018941875
16552,353.55730889681706
16553,1464.13783220324
16554,2067.088193118646
16555,2467.3406618847953
16556,2451.3678108541912
16557,2310.570759665939
16558,1800.726334568317
16559,666.2255441555577
16560,82.37678888324933
16561,-509.76963716714647
16562,-738.4036291059266
16563,-902.6142724311225
16564,-1036.464013542583
16565,-972.9874985399123
16566,-850.5499869470626
16567,-536.2378266915586
16568,-218.08048910117654
16569,-233.69305022768324
16570,-664.8074265097779
16571,-1435.3200685904828
16572,-2089.0370947040396
16573,-2247.2845050054466
16574,-1927.3248641178327
16575,-1808.2218107007036
16576,-399.71557696338357
16577,367.9198337853488
16578,1765.5950071994373
16579,2404.367400388502
16580,2558.3919900832366
16581,2501.679859155548
16582,1967.9036895960023
16583,1363.432301743499
16584,690.7319736684051
16585,-39.04279343261337
16586,-230.58851706310494
16587,-497.61275673991315
16588,-670.628855044878
16589,-543.119952019866
16590,-148.89546749731906
16591,310.65807309313413
16592,448.78097734165453
16593,41.6261728077337
16594,-1608.8522975151157
16595,-2494.8301236623315
16596,-2768.2906663262097
16597,-2611.047672407869
16598,-2506.981149341437
16599,-2521.43881737698
16600,-1332.0928691576855
16601,396.8943326557293
16602,1787.6955714611988
16603,2240.9202024218816
16604,2373.7370673851956
16605,2224.113967770401
16606,1771.5377282897432
16607,824.3772460133446
16608,297.1870461615595
16609,-368.20066145545246
16610,-707.1345886997946
16611,-981.0640423356889
16612,-1093.0749581029406
16613,-1102.199754333765
16614,-850.4501044999439
16615,-731.6059818902568
16616,-898.5186096403472
16617,-1997.2793784953608
16618,-2602.0538943036736
16619,-3026.1110353520617
16620,-3023.3610447574724
16621,-3107.562839776296
16622,-2978.8968877494376
16623,-2788.038006302575
16624,-1993.8019827320265
16625,-237.62888633845816
16626,1168.239987667231
16627,1957.9043436535615
16628,2066.1693434067865
16629,1946.3172326974254
16630,1462.1838957240668
16631,723.1955781535067
16632,190.71856560825884
16633,-716.3868003018296
16634,-1012.109783942762
16635,-1119.511145637068
16636,-1273.4885095878421
16637,-1151.5580956541735
16638,-342.01516499526315
16639,1106.9538013233762
16640,1818.8665910009156
16641,1411.5944118212763
16642,463.08975654599163
16643,-557.8599945705572
16644,-473.7897840285857
16645,-939.0063048248702
16646,-1121.878112066092
16647,-592.5350883712011
16648,67.55425353922107
16649,1377.0945191853205
16650,2078.41957064947
16651,2522.020731989814
16652,2520.6181241220743
16653,2349.6655549283782
16654,1796.9855615564409
16655,774.7168029563937
16656,423.44110811855137
16657,-285.5126055628335
16658,-576.8571241054859
16659,-642.205143724104
16660,-538.4197607769864
16661,-450.19877677862075
16662,404.5360097013459
16663,1491.8951542287311
16664,1870.747120685205
16665,1191.7441903195297
16666,137.52256983393272
16667,-423.19439233862073
16668,-456.3666489049149
16669,-402.4235692918147
16670,-602.7052636380587
16671,-509.58348215818216
16672,70.67709780278753
16673,1264.6208041548468
16674,2359.423474685253
16675,2817.842215795838
16676,2828.789815224525
16677,2692.484500292779
16678,2341.5701366548087
16679,1609.3477886488167
16680,1061.5682106970355
16681,406.03082049829413
16682,74.84503300539346
16683,-86.39332184695127
16684,-118.66032982163702
16685,-53.42940137778029
16686,653.6311966710886
16687,1696.8465450286683
16688,1868.7756500568405
16689,902.5430981487444
16690,-296.2474725562946
16691,-1007.0487102404176
16692,-1252.3033712242554
16693,-1625.116388764932
16694,-1564.9712877885265
16695,-1128.669337051047
16696,-457.74349275533484
16697,805.5050490463086
16698,2227.422387282278
16699,2678.3037776865576
16700,2731.169390646024
16701,2571.834695221926
16702,2030.4877170665147
16703,973.2698097820007
16704,681.5391287758482
16705,26.930549585736372
16706,-328.003104161838
16707,-446.3560178433298
16708,-539.708343175381
16709,-368.41172623628205
16710,267.96017368598336
16711,1375.725311308623
16712,1635.2817435274626
16713,812.2795500969568
16714,-379.3132372169066
16715,-1259.7742090933875
16716,-1254.5262338234895
16717,-1611.3398014205038
16718,-1771.6221037143562
16719,-1079.5099759823854
16720,-147.47568452088163
16721,1399.7430656037902
16722,2213.9342575015608
16723,2642.1285696091877
16724,2719.222210881451
16725,2559.04894426812
16726,1975.9714826159382
16727,1215.9472830316538
16728,582.4625163212208
16729,-69.90664912110293
16730,-178.7873824905229
16731,-250.74250632199315
16732,-364.2436646912642
16733,-189.55739958813407
16734,440.9356461776782
16735,1495.4761098747404
16736,1845.15333820956
16737,1499.6643584814244
16738,682.9492719778276
16739,-142.51325467705195
16740,-245.0105265102275
16741,-270.4375373997717
16742,-463.1151919395187
16743,-148.29402369024638
16744,222.7955810174387
16745,1231.2502771385025
16746,1958.5909803501406
16747,2359.1486282474575
16748,2335.5944772600674
16749,2144.913023161027
16750,1713.5370446257677
16751,940.4067825457836
16752,357.7770028511645
16753,-177.75905447268627
16754,-366.79215635393524
16755,-392.2445500000644
16756,-420.44089544332724
16757,-443.7116428773418
16758,-252.93102229078923
16759,-31.344654659658595
16760,253.77267443139073
16761,341.74885474355085
16762,-178.3769386478751
16763,-1369.66358605539
16764,-2563.9284334237236
16765,-2410.885002642248
16766,-2823.075778594598
16767,-2801.545282386301
16768,-2046.6375318009575
16769,-123.04059303389815
16770,1405.528373648981
16771,1892.8131937262485
16772,1973.032528063182
16773,1748.8993930013205
16774,1197.7113875825899
16775,523.8911622103611
16776,-83.77669862312027
16777,-668.6097933148238
16778,-892.2382667260111
16779,-1046.6203778776915
16780,-1271.3970252004806
16781,-1382.129141618194
16782,-1275.8123529070006
16783,-1306.0116991464565
16784,-1414.515541346905
16785,-2182.422166797897
16786,-2856.20075911799
16787,-3161.8091402424416
16788,-3175.5372635703966
16789,-3184.2539373241602
16790,-3193.928721549252
16791,-3108.9977611405025
16792,-2517.732836277819
16793,-282.05280730382526
16794,1323.8825972899388
16795,1955.810526271074
16796,2305.6925688192246
16797,2167.598226819887
16798,1625.1519775131485
16799,989.0277873125789
16800,425.2451393591572
16801,-536.0247869255089
16802,-906.6353980837349
16803,-1395.98419316275
16804,-1304.5186819311477
16805,-928.1373016508719
16806,-251.8910960911218
16807,864.8491247458946
16808,1547.329224158075
16809,338.2717981301441
16810,-1432.0838248639934
16811,-2468.1981676719674
16812,-2556.3581373662655
16813,-2702.9420761190795
16814,-2788.905584203361
16815,-2720.9656867945528
16816,-2092.775535786847
16817,167.31793741623426
16818,1670.4485738650756
16819,2369.71400401229
16820,2338.3913599453995
16821,2036.297681836633
16822,1227.0028051478976
16823,186.21243492190922
16824,-923.6963391317983
16825,-1692.6082635104915
16826,-2100.217131311478
16827,-2291.0254850514298
16828,-2636.2496385738696
16829,-2220.0952142814317
16830,-1295.1000781674127
16831,341.58280673822577
16832,957.3349335193019
16833,-909.0967711066342
16834,-2125.532101000289
16835,-2629.1779845437204
16836,-2813.8469407928374
16837,-2834.548366272713
16838,-2853.694368779274
16839,-2708.705759525981
16840,-1789.202524052833
16841,525.6901307557707
16842,1747.833286405897
16843,2265.7415212258584
16844,2421.4327645598287
16845,2196.6299445420455
16846,1676.5814058431824
16847,1126.917141452552
16848,697.3815050105858
16849,27.79397397405384
16850,-400.815001972515
16851,-554.8467408236966
16852,-700.4042705900275
16853,-541.7770273901716
16854,260.39382395176943
16855,1181.7565337404815
16856,1682.8058230548052
16857,1508.307595114312
16858,929.8137709144394
16859,412.87009871300813
16860,77.01831953223005
16861,127.89404493058225
16862,-54.537623159166664
16863,54.461570530216235
16864,477.87506380593555
16865,954.8405252764938
16866,1554.2183526463511
16867,1826.708324733608
16868,1940.450205908872
16869,1466.0134302890133
16870,995.3435750338654
16871,192.63208292307195
16872,-100.88655992143512
16873,-723.0159070543338
16874,-1097.6754502352658
16875,-1311.6667632640692
16876,-1299.2345492749166
16877,-957.0817666825814
16878,-430.3538560799102
16879,841.6887048103081
16880,1574.0342635907734
16881,1537.5036693274562
16882,1064.464985607314
16883,411.41892534981525
16884,50.36556149088599
16885,-34.55160898630876
16886,28.864271899602834
16887,157.58596733573833
16888,672.6198866347377
16889,1501.621026233495
16890,1926.158011975982
16891,2159.5172586291314
16892,2172.34259399637
16893,2025.9724260239775
16894,1632.482570467587
16895,945.4436920338206
16896,412.26374841370506
16897,-176.55052779630466
16898,-571.7605052922239
16899,-816.6817164484693
16900,-941.2083572602595
16901,-756.3109825170127
16902,-123.62902148203256
16903,1121.0265014432978
16904,1711.483536748083
16905,1697.024299233978
16906,1159.880804857096
16907,429.93745842424136
16908,-85.90071620033885
16909,-348.6879451979594
16910,-306.6760329416516
16911,-132.7559170382687
16912,239.84237389651858
16913,1113.4005590868544
16914,1780.1783552427573
16915,2090.0135137745146
16916,2060.113034771135
16917,1869.164259731629
16918,1324.351204922255
16919,592.0340730195305
16920,109.97739712231207
16921,-593.0143368282504
16922,-1012.2076760959025
16923,-1118.0035515610105
16924,-1199.3201882204537
16925,-1197.0824490048499
16926,-1002.2030097265975
16927,-619.7725584172213
16928,-173.74053526854593
16929,156.92793569795865
16930,57.16824550923054
16931,-333.80632506801476
16932,-581.7819771567752
16933,-708.3748202624073
16934,-626.7142123797456
16935,-373.7076542869648
16936,15.463830007817329
16937,1002.5737319518649
16938,1798.8635093678354
16939,2155.708896490014
16940,2248.818948665408
16941,2141.0995929817104
16942,1678.2099850051352
16943,1069.6722574820926
16944,466.1275398840345
16945,-575.6082438843945
16946,-1071.0684723989189
16947,-1271.9961394725601
16948,-1356.1519804583804
16949,-1238.8530598021464
16950,-1266.437463222509
16951,-981.188358868308
16952,-464.62224398476917
16953,-520.94647976268
16954,-1005.9206469548357
16955,-2028.9432212540266
16956,-2417.01655066586
16957,-2210.1322352642856
16958,-2100.582895066001
16959,-1590.1355604649063
16960,-624.8042262949825
16961,838.3999007106282
16962,1652.506700622742
16963,2260.9209195363596
16964,2271.1146944922334
16965,2233.7905119152138
16966,1867.26741505209
16967,1166.0843982878303
16968,706.1175467897643
16969,-236.8373677175645
16970,-616.6299133425301
16971,-836.3117237394501
16972,-773.7947079818028
16973,-550.107595924592
16974,340.715771547548
16975,1533.101161311601
16976,2175.627799713889
16977,1963.3523949965063
16978,691.4985721706007
16979,-196.90572985970883
16980,-525.4117378554038
16981,-728.4806537654778
16982,-695.5411907867689
16983,-394.2573920289234
16984,223.08269502680477
16985,1643.9043447628405
16986,2334.223689415851
16987,2849.435907081707
16988,2870.4376614263824
16989,2759.4718884713707
16990,2210.293538255763
16991,1607.5475577975105
16992,1015.757109532866
16993,201.61755174610298
16994,-269.9520819230273
16995,-551.4741694596516
16996,-497.47666909967813
16997,-375.406362337042
16998,290.40184917818823
16999,1480.0997497574842
17000,1973.3841364198572
17001,1492.4725127208114
17002,791.9052091820887
17003,-100.03016000618999
17004,-782.9847194476755
17005,-1040.559643325177
17006,-1223.0800562975594
17007,-1548.0839793147563
17008,-519.0865486186796
17009,479.1770639827874
17010,1685.6161995466912
17011,2148.0011103947168
17012,2043.91637156595
17013,1688.9216135713948
17014,982.2208598458836
17015,297.51651063471115
17016,-634.4010274605433
17017,-1364.7487037166788
17018,-1905.3870008545575
17019,-2140.641893033209
17020,-2314.2261692022753
17021,-2484.94434198145
17022,-1690.889196631688
17023,-121.8175466621993
17024,723.2511654574599
17025,-143.9930626998362
17026,-1242.752295284364
17027,-2085.2349591069674
17028,-2355.1150641894774
17029,-2536.804924962445
17030,-2635.9046818362563
17031,-2432.2548055934117
17032,-1406.0021815152238
17033,920.8692033281794
17034,1751.6812890638835
17035,2158.8927111838043
17036,2307.02852251737
17037,2319.2107826479
17038,1716.4843194675948
17039,714.2253794751256
17040,-904.8350787895791
17041,-1957.2263464760786
17042,-2408.3669396348137
17043,-2625.7708257471295
17044,-2767.726672540289
17045,-2787.355688527921
17046,-1873.5756009699016
17047,-14.103405248002694
17048,872.6725280247084
17049,515.4552319582458
17050,-989.1819231993808
17051,-1865.4686784208727
17052,-2347.336356041255
17053,-2506.6113491728106
17054,-2426.056739741018
17055,-2104.0057616654917
17056,-1420.6099010716164
17057,215.95987797011355
17058,1020.0203118928647
17059,1432.7939583381467
17060,1594.8535624752046
17061,1358.1510378961104
17062,485.06881134117805
17063,-878.1749622329306
17064,-1461.1957495647619
17065,-2409.6762762359826
17066,-2669.392447259082
17067,-2861.9113213383084
17068,-2885.0276310525755
17069,-2431.916409081028
17070,-1282.4905729468808
17071,626.5365391101114
17072,1502.3408704528485
17073,1378.329045713383
17074,797.4063796358749
17075,46.237665144251835
17076,90.74508105339186
17077,-117.20201541682943
17078,52.125643158450316
17079,299.8040620660353
17080,798.3157804148406
17081,1839.6202623235697
17082,2200.6230176419594
17083,2560.1149152713156
17084,2549.138932920015
17085,2488.7967534501454
17086,2246.4332230194746
17087,1781.073174148982
17088,1049.3544927213063
17089,14.815269827193667
17090,-796.8215522652398
17091,-1108.1244332099875
17092,-1606.9444181325578
17093,-1575.987496246969
17094,-1423.769500931422
17095,-1013.4286413229064
17096,-776.7621106062392
17097,-416.48230849557604
17098,-1323.170640016442
17099,-2090.2072662647547
17100,-2463.2134684350863
17101,-2693.3777706106885
17102,-2946.464098081441
17103,-2882.0952212822117
17104,-2094.367725652531
17105,-378.82935660776775
17106,701.5192273026295
17107,1246.0359346215726
17108,1409.2245133281797
17109,1307.6242026365412
17110,384.9558787499032
17111,-731.8915012201313
17112,-1438.030191978353
17113,-2570.264730152159
17114,-2803.909412519641
17115,-2982.820578505883
17116,-3262.1833131562757
17117,-3274.1748988137892
17118,-3086.1017468197874
17119,-2724.5311885854935
17120,-2455.1237447017124
17121,-2649.9477578086403
17122,-2736.5303721062323
17123,-2831.7888651160797
17124,-3067.598498775062
17125,-3047.046937457984
17126,-2812.809863110881
17127,-2500.315001528925
17128,-2101.576329128265
17129,-817.4465973251769
17130,698.6489186134454
17131,1235.7087636897618
17132,1418.0024883613696
17133,1228.7059293129087
17134,410.6265077724295
17135,-1149.1105065599015
17136,-2513.695667626141
17137,-3235.515259701806
17138,-3531.8076011501175
17139,-3595.1053751345985
17140,-3560.7549665760966
17141,-3348.3594815338033
17142,-2102.16730869308
17143,109.24289751349329
17144,979.9402200489728
17145,1185.887885561847
17146,947.5982802781226
17147,144.65323993456406
17148,-1035.9584876285364
17149,-1381.6348063614864
17150,-1636.0838348391314
17151,-1397.4630034379782
17152,-221.31676385004377
17153,1261.6179243858521
17154,2092.424110383347
17155,2463.895832793868
17156,2503.2310231108977
17157,2415.0601124368304
17158,2092.446604960436
17159,1238.2081088304392
17160,410.34082098493064
17161,-443.066777029567
17162,-911.9220152724998
17163,-934.4987277623263
17164,-792.2416193079434
17165,-444.71542125140695
17166,430.07013192699884
17167,1746.2692818596063
17168,2230.665571316351
17169,2286.0767112727185
17170,1457.7264212095736
17171,458.638611148968
17172,81.6774866672003
17173,-60.99512927538529
17174,-105.40800851690099
17175,154.79267124959676
17176,816.1976822992707
17177,1771.01101490992
17178,2401.627300094445
17179,2731.0160436222086
17180,2724.767055260832
17181,2599.3218390101556
17182,1967.8080663424464
17183,1143.7972641490032
17184,433.8234816952056
17185,-292.9434332248604
17186,-640.637782954185
17187,-866.1994850258014
17188,-839.325841962862
17189,-578.090397918681
17190,56.498558866863895
17191,1256.770894144441
17192,1846.9183580392685
17193,1284.1045129112981
17194,361.14819732836634
17195,-605.2582509449381
17196,-902.6706967254073
17197,-1071.9713352412161
17198,-867.5625345003144
17199,-691.2838111032987
17200,25.25860084949715
17201,1351.311829547836
17202,2465.0487413483515
17203,2965.985454387453
17204,2972.0215447291816
17205,2869.030135535281
17206,2328.2085385916084
17207,1561.6053715791918
17208,1090.6267487569096
17209,200.54186973148322
17210,-195.62569618113562
17211,-471.06226769398813
17212,-463.2203289754691
17213,-269.8429092195706
17214,496.9444037281175
17215,1775.1308279667678
17216,2196.85995263357
17217,1652.6003717333758
17218,683.7230418783263
17219,-386.40592397520805
17220,-549.9197339776169
17221,-605.2594272219256
17222,-603.5006126212401
17223,-253.40985391083305
17224,201.01252256738562
17225,1435.6394258347475
17226,2427.2693195291963
17227,2888.710559299146
17228,2912.5069861965326
17229,2755.7610252698764
17230,2056.1366056735797
17231,1211.1984616196837
17232,544.3528270192039
17233,7.1945132899055935
17234,-428.59484704957094
17235,-617.0113187748415
17236,-645.5555492498879
17237,-564.7637659057061
17238,-92.52093207917224
17239,1143.7081358936443
17240,1793.3840098638937
17241,1540.1283429003158
17242,644.4197167728718
17243,50.11086007622838
17244,-469.9863807328401
17245,-597.5810834417081
17246,-380.8351162921873
17247,-86.05483989621723
17248,595.9107854485305
17249,1783.4844473880546
17250,2290.096430450574
17251,2607.053786374207
17252,2530.484002560291
17253,2479.566276608199
17254,1936.5102005455494
17255,1238.506774258425
17256,685.8343022471386
17257,289.0032281218775
17258,-171.35840639326418
17259,-330.11330230754754
17260,-368.1930712391015
17261,-429.63253378960314
17262,-275.76835315413996
17263,112.2802769097006
17264,693.6771179200113
17265,458.2754962448986
17266,-321.670776708198
17267,-1714.782753549551
17268,-2023.559643015056
17269,-1989.666728865747
17270,-2087.759671325344
17271,-1803.106367086036
17272,-336.6613156890679
17273,1072.0143323867728
17274,1834.2402306504605
17275,2304.091428911013
17276,2282.915816166892
17277,2169.5134653235705
17278,1697.3716162159342
17279,831.1725702624882
17280,378.60353611545844
17281,-410.7133379025964
17282,-755.0658581273179
17283,-1045.48510865176
17284,-1222.4617428520946
17285,-1112.2211634334865
17286,-921.9170861237976
17287,-662.4324321275116
17288,-115.96146651851006
17289,81.98501316274204
17290,-201.4202093917153
17291,-1460.2952473287514
17292,-1562.8063801205153
17293,-1588.4202758719107
17294,-733.3417355682499
17295,-183.39127014380054
17296,443.6771458880073
17297,1314.9514355417462
17298,1985.9828004531514
17299,2454.219024698066
17300,2530.2246157869513
17301,2492.67099911573
17302,2206.706272690955
17303,1540.2811216751363
17304,674.849131537201
17305,-252.97874711522488
17306,-551.3682998528483
17307,-836.9212700314513
17308,-882.6327518411439
17309,-741.2794376676422
17310,88.42360054968712
17311,1421.4449960721156
17312,2016.9635995744297
17313,2049.29710445639
17314,1525.276323647049
17315,664.1053681973252
17316,209.5329643001316
17317,186.36576228473345
17318,130.7429948828139
17319,128.50418406664448
17320,480.2677314606717
17321,1397.9481692200518
17322,2144.1138897230953
17323,2483.4241020176737
17324,2467.1129087576687
17325,2234.206595143149
17326,1571.5703396736526
17327,965.6556241469896
17328,577.5903642805512
17329,-94.77752049721474
17330,-353.363362074192
17331,-498.66107751644415
17332,-477.7967995973204
17333,-390.7868347968713
17334,106.00241226735851
17335,1290.4636791113082
17336,1892.3756391257207
17337,1617.992468077439
17338,918.9386468116396
17339,13.895718829374225
17340,-262.37398626972424
17341,-610.5073909835727
17342,-902.221672146488
17343,-209.57523716279948
17344,300.6642275871366
17345,1283.4693846093035
17346,2072.351690558525
17347,2353.332032502363
17348,2305.3808413675247
17349,2135.755915595109
17350,1306.2549122117136
17351,643.8409184567508
17352,109.54691334186202
17353,-497.1380228970552
17354,-1014.9595243895341
17355,-1187.0873213597024
17356,-1499.4745314293632
17357,-1865.7277350945133
17358,-747.578945126177
17359,373.61607598483545
17360,1124.5326910008384
17361,1142.2799938965557
17362,234.6290731037794
17363,-1241.7310789380842
17364,-1848.826494123337
17365,-1869.3104569352513
17366,-1749.4269241462468
17367,-1529.0864387903416
17368,-408.5065268477971
17369,1130.2403509458575
17370,2195.0385594358304
17371,2628.0739072079027
17372,2648.2118653881553
17373,2614.4927292111965
17374,2236.5143144073554
17375,1432.0738928536591
17376,749.1042088783175
17377,-230.5826175491387
17378,-593.2049481354669
17379,-793.5209818380985
17380,-786.407188617988
17381,-662.3292967049016
17382,118.1753476162015
17383,1476.2435604989273
17384,1941.6448459813669
17385,1318.5504847605987
17386,114.39962227868351
17387,-1648.6936981878914
17388,-1768.4745459918352
17389,-1773.969047792383
17390,-1714.2043390683577
17391,-1461.419375210817
17392,-334.4268327857093
17393,1148.6916797205206
17394,2052.5124077430564
17395,2468.6145021135835
17396,2603.5195567753076
17397,2589.991742419047
17398,1918.7475738195
17399,916.1991198105692
17400,190.01261666227833
17401,-681.7971068250737
17402,-1617.7714057746334
17403,-2040.9208563668856
17404,-2055.3133436455964
17405,-1622.9979544190626
17406,-917.0541330938012
17407,-231.01944266250237
17408,191.5651588084941
17409,52.566368621921455
17410,-781.5740179132218
17411,-1512.9061653828815
17412,-1996.3102998976804
17413,-2109.5515768372193
17414,-2504.8220047548925
17415,-2391.6631999654805
17416,-1295.1204512947656
17417,980.2043395439348
17418,2103.441215625036
17419,2350.6538127158565
17420,2167.6934585888653
17421,2286.9463155953654
17422,1928.2655578971815
17423,912.1844043227767
17424,291.2340613980967
17425,-1507.4633523253096
17426,-2290.983395956266
17427,-2695.6164916602497
17428,-3052.353099006126
17429,-3182.3293847232185
17430,-3097.065202860205
17431,-2659.175156374263
17432,-2305.1328022467997
17433,-2265.6524729312355
17434,-2642.6986802733168
17435,-3162.794950990696
17436,-3383.559733055006
17437,-3447.958698583761
17438,-3461.224563439437
17439,-3501.810969985779
17440,-3314.0505874273563
17441,-2423.904512301015
17442,-563.7511099559875
17443,220.64325289604878
17444,620.8684146709525
17445,477.00062402816275
17446,-5.092899371849036
17447,-524.2219387174197
17448,-777.906732482981
17449,-2096.046531625305
17450,-2981.277820280399
17451,-3041.0022979417668
17452,-3190.0829279131126
17453,-3201.480033443002
17454,-3023.30347118978
17455,-2575.8220390327792
17456,-2139.845048181361
17457,-2389.873405222821
17458,-2694.3197976840374
17459,-3073.0958543038355
17460,-3103.0424260017703
17461,-3219.4485977836744
17462,-3171.036999422985
17463,-3238.609381140387
17464,-2839.0190562270413
17465,-896.4140915623249
17466,933.7373867871789
17467,1484.5273381850398
17468,1609.832146638312
17469,1530.852213840872
17470,1141.151091277293
17471,-222.11543655880646
17472,-1443.6166385074737
17473,-2664.2463411455706
17474,-3084.3906977572888
17475,-3211.604723729853
17476,-3247.1222811317957
17477,-3101.260184594055
17478,-2367.0408958456933
17479,-1124.6569974077245
17480,-187.80717773143377
17481,-544.167696968476
17482,-1889.6702419609082
17483,-2663.82241733369
17484,-2704.0887000469784
17485,-2698.3715967892026
17486,-2725.890527101006
17487,-2642.330895137941
17488,-1567.172818494555
17489,257.17847104614714
17490,1711.2217143738662
17491,2042.6070823617763
17492,2077.2016055176473
17493,2218.7021043585537
17494,1892.202578543823
17495,1376.936428523567
17496,952.3225185198569
17497,-29.920476612912346
17498,-943.7743366766817
17499,-954.1443060474936
17500,-1164.1061922935903
17501,-954.6945201841307
17502,392.64454909127943
17503,1678.5430771498511
17504,2263.401710878249
17505,2233.2220937590264
17506,1217.4785744894689
17507,-214.88466520895523
17508,-283.8952834495069
17509,-256.1457750400508
17510,-254.75346258345738
17511,-187.39824968369936
17512,528.2875410810631
17513,1704.914329929117
17514,2414.6039184881133
17515,2859.980148476936
17516,2890.439206366522
17517,2842.137426668875
17518,2470.9116273288237
17519,1719.5150841936927
17520,1122.7063844666816
17521,519.9999577569967
17522,-2.8675720815936785
17523,-140.36409839719803
17524,-156.326247936585
17525,2.8696079189282457
17526,659.1118255542231
17527,1789.8904575034014
17528,2471.479260361694
17529,2233.9540024877883
17530,1255.5257442895754
17531,448.7170016143966
17532,260.8807626729415
17533,244.47809424880603
17534,229.9632072266409
17535,259.1134640079037
17536,746.3695333505071
17537,2036.8859573485354
17538,2722.1447546871555
17539,3080.171578190016
17540,3044.2190569047284
17541,2871.468026692878
17542,2092.946044699505
17543,1239.072729565846
17544,860.0533730667959
17545,436.0831258636931
17546,30.996101674451424
17547,-115.60321251583699
17548,-171.64090820074776
17549,-120.07776526910274
17550,329.8969193905633
17551,1329.0736701545054
17552,2239.2523528374277
17553,2123.4123289609033
17554,1491.7479165274851
17555,997.7518662967528
17556,787.288359202641
17557,660.313641767833
17558,697.5321724406891
17559,807.3428110073871
17560,1128.6864626711847
17561,2110.401900800927
17562,2630.9241409240685
17563,3021.8628688839276
17564,3023.968421224234
17565,2897.1006550777643
17566,2316.2545626983638
17567,1343.088940563213
17568,871.561729325991
17569,432.60979494481654
17570,152.38947609280453
17571,-39.351383462158815
17572,-70.13744910920423
17573,10.885574328072131
17574,475.4616311658527
17575,1568.7845778608646
17576,2295.7574429600886
17577,2162.6803086112163
17578,1488.2428804610079
17579,956.6080828516443
17580,606.6325522553324
17581,456.5393060402563
17582,365.2160170924832
17583,294.17542514600683
17584,504.0761456885955
17585,1569.3762010843957
17586,2434.354754672903
17587,2828.4846575581246
17588,2803.5371884490964
17589,2691.125896158413
17590,2019.6493358741534
17591,1366.0468153606012
17592,970.0444603680348
17593,482.41681499742566
17594,110.29128732355909
17595,-135.94435858123998
17596,-219.12376789646905
17597,-226.57440483710545
17598,-4.6313780141480905
17599,293.48958424852214
17600,597.5229226812305
17601,1004.8115826567641
17602,641.6427226720733
17603,-220.9229927002713
17604,-673.0534709583691
17605,-1221.888209041667
17606,-1303.1839553940692
17607,-1066.1448262500148
17608,-277.57414284137974
17609,824.480976702063
17610,1979.4667609506657
17611,2289.2664404773373
17612,2290.2718545835214
17613,2231.302916587362
17614,1841.1571277613637
17615,934.4065168778139
17616,157.89134708923163
17617,-662.5136312988617
17618,-1194.338577093319
17619,-1378.8322988402508
17620,-1600.4709802565342
17621,-1711.650208811908
17622,-1680.9502291965484
17623,-1348.7787077331693
17624,-847.620565880008
17625,-1282.8663978363322
17626,-2281.0698837839595
17627,-2833.7406668738604
17628,-2907.731286624939
17629,-2873.0418699182214
17630,-2590.1314648295197
17631,-2710.5030527381
17632,-1562.2371881685233
17633,477.3998192266947
17634,1659.5094413020913
17635,2188.4474867205126
17636,2221.8854197380724
17637,2294.0818857587733
17638,2053.6871509461207
17639,1634.8945812566535
17640,1045.8388887648484
17641,7.5252216328618005
17642,-749.8129663399171
17643,-1102.8589785019685
17644,-1123.6094774001028
17645,-699.3330432787922
17646,500.8727305555418
17647,1516.5905163179202
17648,2043.3655396635086
17649,1994.5385255666677
17650,701.8425861367076
17651,-534.6826503601833
17652,-720.1610351790679
17653,-787.1660359743895
17654,-911.1222326386942
17655,-403.12514431842266
17656,112.89362439940592
17657,1286.342786649261
17658,2251.652449342603
17659,2645.0902297014363
17660,2699.708144735834
17661,2693.54621329905
17662,2026.0477753325188
17663,1139.5333747166765
17664,673.8000270968336
17665,107.84192689950797
17666,-276.7202080917875
17667,-843.6783232012407
17668,-867.0087995595603
17669,-805.6763565428206
17670,-38.712299239714916
17671,1210.5120455166227
17672,2252.113773065192
17673,2281.618106231183
17674,1533.147168563911
17675,621.4275891399149
17676,185.77726711517647
17677,-68.71235061143705
17678,-54.95654421755598
17679,98.41122288461389
17680,611.0821742602981
17681,1785.587371324665
17682,2339.924893924279
17683,2648.793434888666
17684,2634.6439952342726
17685,2393.3943367406987
17686,1557.2894348836128
17687,813.0607615078646
17688,368.24996195203204
17689,-119.82502114761894
17690,-787.8091331944626
17691,-952.0969935791924
17692,-1080.3137451391422
17693,-944.5029097512889
17694,-273.45434632962474
17695,1055.6464962153366
17696,1808.138102434961
17697,1675.0438966330069
17698,816.0617574849208
17699,-225.71274834197342
17700,-488.3154961466299
17701,-654.3318017092786
17702,-699.263177252549
17703,-226.98051849726087
17704,422.9032980152058
17705,1654.4026631239751
17706,1991.6817223223522
17707,2293.100450775655
17708,2207.142911263792
17709,1837.8370399037822
17710,1079.1334823699333
17711,188.01738894680196
17712,-723.4958819086868
17713,-2350.3337401230015
17714,-2779.8030883159304
17715,-3125.251288812344
17716,-3297.7860529335167
17717,-3163.7725945719867
17718,-1892.6476796670852
17719,-55.281063098242974
17720,881.1038905472719
17721,938.3277024642551
17722,485.23808188811415
17723,-493.518916147804
17724,-1298.763713885315
17725,-1463.4117088089608
17726,-1467.140845373698
17727,-1523.4793257011536
17728,-548.4385106014955
17729,604.1732079403183
17730,1369.504018551939
17731,1841.7500203198683
17732,2050.053985868644
17733,1951.1739588240118
17734,1351.8678694617033
17735,714.3138210890271
17736,197.4618657972861
17737,-606.8401506925335
17738,-1328.389137394395
17739,-1611.5790994347528
17740,-1671.8559597034907
17741,-1482.7466330259147
17742,-136.93479651699803
17743,1297.57868674197
17744,1924.5309167726448
17745,1626.626662832569
17746,222.958512251835
17747,-964.0812731508896
17748,-1163.8157947537004
17749,-1433.503325685547
17750,-1843.1370293250081
17751,-1895.250949636264
17752,-525.4625925872306
17753,987.1864408193892
17754,2141.116330678436
17755,2568.6551227370105
17756,2575.0509941030223
17757,2478.192982357515
17758,1987.3458758452127
17759,1133.332961095507
17760,316.6949553188751
17761,-569.0053751962081
17762,-1143.6028365311245
17763,-1484.1537399258634
17764,-1678.790562170864
17765,-1562.1567929484681
17766,-1313.3501109112683
17767,-699.4964574037228
17768,242.59180839983068
17769,-44.87828162305794
17770,-1173.5412374070313
17771,-2535.043967075192
17772,-2941.294212196546
17773,-2991.795214936485
17774,-2958.7184352465306
17775,-2935.3575956644454
17776,-1695.1249824084828
17777,686.5784239339832
17778,2081.926559690266
17779,2557.268322437189
17780,2597.637983073007
17781,2544.806512640879
17782,2259.332964827543
17783,1513.8473911598503
17784,674.4080699241698
17785,-256.11772067628687
17786,-1469.1087247982855
17787,-2179.299890666472
17788,-2484.557277509142
17789,-2535.8205623803074
17790,-2398.1936357445993
17791,-2014.8986684964518
17792,-875.7415947491833
17793,-615.930349037994
17794,-2233.466829625597
17795,-3060.271889592993
17796,-3168.8175053738305
17797,-3184.238520252366
17798,-3269.1426168448975
17799,-3388.8466621422444
17800,-3216.300508832714
17801,-2082.24031971411
17802,634.9388390197319
17803,992.0579581174409
17804,1328.8071561458057
17805,1187.807159027942
17806,422.0199416472162
17807,-286.55382330458326
17808,-1683.0536347107334
17809,-2667.8634437064393
17810,-3289.25298399122
17811,-3517.1775333684923
17812,-3559.5568675464497
17813,-3359.851412489103
17814,-2309.824089966432
17815,-832.6932537060494
17816,438.29044085417917
17817,384.9190766664614
17818,-2015.840629646357
17819,-2925.6075922751074
17820,-3078.6436645580047
17821,-3139.007331185026
17822,-3157.012081334489
17823,-3154.7657269465008
17824,-2495.9485618245967
17825,-207.21358453362657
17826,1474.8198290742578
17827,2031.223893597746
17828,2113.4238307363207
17829,2078.0445751305465
17830,1715.569596937091
17831,876.3843282037922
17832,-462.89607946820024
17833,-1814.8650995302285
17834,-2697.929332159444
17835,-2958.2740325468117
17836,-3006.9968799420903
17837,-2952.8192111705825
17838,-2654.124010968251
17839,-1307.7719621867213
17840,-57.286361245698295
17841,206.4110786249769
17842,-1792.8598878344008
17843,-2876.746818987022
17844,-3078.9855584122847
17845,-2989.816267214846
17846,-3087.8779439682316
17847,-2906.2308286173798
17848,-2429.0810618986075
17849,95.42581356660256
17850,1441.1255104438076
17851,1971.4451526160276
17852,1918.5008271488725
17853,1511.590212569399
17854,395.7854840303607
17855,-718.3243024772125
17856,-1145.2202894147958
17857,-1931.8770804050384
17858,-2006.3179818604638
17859,-2189.6735704607913
17860,-2361.994089987369
17861,-2475.6951781968874
17862,-2268.3097026006267
17863,-1538.2237606139502
17864,-571.3648831808301
17865,-1671.277977258367
17866,-2553.4023610663526
17867,-3165.6016501474173
17868,-3270.0570918798617
17869,-3293.2999179656144
17870,-3247.8239140771107
17871,-3300.843421585749
17872,-2325.671839269515
17873,187.35727681078114
17874,1746.5896831401474
17875,2416.9931343601943
17876,2502.0329026367294
17877,2425.7427638158288
17878,2261.9407701669006
17879,1509.390862799133
17880,1045.9232236280557
17881,2.5954515611395124
17882,-344.1324511667686
17883,-533.241790488256
17884,-594.3093413563555
17885,-567.8450633641733
17886,-43.885390481427486
17887,762.6468802287612
17888,1621.4436339529063
17889,1672.4032093377334
17890,811.4713655018071
17891,-541.4620409518699
17892,-1025.074437813958
17893,-972.2125266363672
17894,-898.784116230957
17895,-868.042828354219
17896,-154.49696152009554
17897,1020.1173923052974
17898,2188.440913575561
17899,2649.1657802426075
17900,2553.20809272832
17901,2488.960301357547
17902,2215.8202897538304
17903,1509.89136085543
17904,671.8896151110525
17905,-28.924825542190497
17906,-478.50325470271423
17907,-786.1480167263882
17908,-757.0206127810446
17909,-600.7505328312161
17910,-191.5250126420747
17911,737.605840284229
17912,1638.085285897126
17913,1627.279276942112
17914,603.6252619189303
17915,-629.3567740427566
17916,-1448.189507781599
17917,-1534.4870004500924
17918,-1860.5609976351918
17919,-1460.830311698488
17920,-310.2419772188687
17921,993.6852950637063
17922,2242.0361507475545
17923,2654.0935706856026
17924,2751.2655969328703
17925,2690.222808581337
17926,2404.3347782132328
17927,1739.337414107076
17928,1122.159812833602
17929,271.957148097858
17930,-203.203589053439
17931,-391.51240661739564
17932,-399.8777302383166
17933,-369.73712777439016
17934,-97.95162943239998
17935,364.35769628596057
17936,941.9139614929485
17937,1082.1263753569972
17938,341.43215786100393
17939,-734.9359273637891
17940,-1414.4445085135965
17941,-1712.409415878684
17942,-2196.0190598055515
17943,-2046.247457450492
17944,-649.7443452667866
17945,773.9167400214701
17946,2234.8817386463356
17947,2728.986063926336
17948,2801.952554966867
17949,2773.2351799638645
17950,2399.4892781219664
17951,1606.5929093199752
17952,1017.9300902305712
17953,-127.21746282212067
17954,-641.9356725221356
17955,-732.8534580011828
17956,-775.021870078058
17957,-828.9256155197036
17958,-712.1614383186762
17959,-320.26230282773304
17960,90.3089049772669
17961,-30.530990920030284
17962,-1039.9104937831078
17963,-2337.070453990239
17964,-2435.957071474132
17965,-2147.819868995631
17966,-2432.066870223535
17967,-2383.5020193820387
17968,-1090.1443539266172
17969,787.4235339027072
17970,2123.012015449691
17971,2703.6543032291684
17972,2762.7260172600922
17973,2801.2379797847543
17974,2603.7668799600583
17975,1829.156361574771
17976,1207.3702850306286
17977,-44.625400122301194
17978,-323.8402532454755
17979,-639.7987490376173
17980,-662.672801743794
17981,-622.717213961014
17982,-187.39228583037982
17983,766.2501991738918
17984,1598.8335532617787
17985,1638.3985567296459
17986,659.1007053677828
17987,-494.48194447324147
17988,-1325.8654381397207
17989,-1357.4535771004041
17990,-1398.769240579545
17991,-1195.3662582362986
17992,-308.1079377630909
17993,1093.589933975793
17994,2437.9189378786623
17995,3020.36339076855
17996,3026.4197968421026
17997,2966.9044138783315
17998,2666.9788548193565
17999,1812.3923252954953
18000,1089.89483167395
18001,111.84480549390798
18002,-395.7153174890733
18003,-615.1481433859498
18004,-699.2030714302688
18005,-673.0476274958753
18006,-178.51839951185528
18007,470.0727561067814
18008,1091.734439126542
18009,1560.2388626521054
18010,719.2557047454718
18011,-157.1318183811865
18012,-959.9668898873755
18013,-1269.5635664649142
18014,-1220.1998382423656
18015,-1148.94670790269
18016,-254.63781416659018
18017,940.551180286601
18018,2273.8594017167215
18019,2737.8136222256117
18020,2727.4948000312133
18021,2559.6476492143784
18022,1797.4864201260964
18023,673.7154242984211
18024,183.1407170318173
18025,-326.6418376276317
18026,-824.0071573074978
18027,-1339.892966222031
18028,-1569.9542355758792
18029,-1574.1778727453955
18030,-1540.9588449959253
18031,-1388.4895622226707
18032,-1146.3498867947599
18033,-2156.3626341138593
18034,-2954.7936028799218
18035,-3441.354425649811
18036,-3473.303380361994
18037,-3234.875326970891
18038,-3222.522597335332
18039,-3130.1695071381623
18040,-2004.5803546599243
18041,102.62824007958281
18042,1907.2626791861378
18043,2498.9573840716753
18044,2622.0591425286707
18045,2483.192295837498
18046,2200.7539306988747
18047,1215.031517286359
18048,471.55459853725597
18049,-671.689963668777
18050,-1393.4710259382452
18051,-1570.7066841744465
18052,-1603.5479785877417
18053,-1533.998834005581
18054,-604.9090747393162
18055,736.0761949310789
18056,1605.36659970985
18057,1843.1593125202214
18058,844.9522986257015
18059,-613.4766615349821
18060,-1553.8029090964817
18061,-1754.888046893672
18062,-1280.2308271777608
18063,-1036.0495126363594
18064,-240.0606141335522
18065,1182.3355385340708
18066,2191.2961504242726
18067,2628.4710127113776
18068,2705.13265603593
18069,2598.505381221524
18070,2189.8043470422895
18071,1302.9820929973669
18072,577.2565950131423
18073,-220.19904342421856
18074,-1063.1288942149654
18075,-1790.2297526293808
18076,-2022.860907021184
18077,-2064.9812042960157
18078,-1190.5717533916745
18079,-214.09413271178713
18080,784.8778039432503
18081,1175.5959668422242
18082,584.3804611146705
18083,-615.5979370041349
18084,-1241.0070966320657
18085,-1116.036530154983
18086,-856.269468924782
18087,-797.8958141512757
18088,-117.0999782099677
18089,1037.7727250154028
18090,1750.3645794570307
18091,2245.195486164239
18092,2376.7811522408533
18093,2336.082803689282
18094,2045.878725744384
18095,1080.6900832935378
18096,225.82789280676317
18097,-668.5735261438764
18098,-1458.0237167414068
18099,-2109.4130460335914
18100,-2284.5429383482683
18101,-2159.4152539579222
18102,-1964.9182763220513
18103,-961.9895176650008
18104,-202.4835137308044
18105,443.32532981594045
18106,-196.25993651845184
18107,-1368.299245877071
18108,-1815.1991837510088
18109,-2007.1833952898053
18110,-2186.5262779043214
18111,-2011.0318730577994
18112,-664.5530846745334
18113,806.2912794349991
18114,1674.7054574603117
18115,2008.5824810617717
18116,2106.173139811366
18117,2119.6975330761666
18118,1758.633119966709
18119,653.8386442420198
18120,-128.4976612506629
18121,-1886.0453419568769
18122,-2689.5815971296493
18123,-2840.6777000826046
18124,-3003.6243575300236
18125,-3225.033182223739
18126,-2974.7635497187325
18127,-2747.9132579976867
18128,-2626.4062963041342
18129,-2175.3971766703507
18130,-1936.215748573305
18131,-1830.2972445493651
18132,-2086.468204586395
18133,-2309.397660251047
18134,-2321.7675237595327
18135,-2397.9049874623356
18136,-2029.046873099063
18137,-1197.7240879226226
18138,365.0119761733359
18139,669.7236746683158
18140,911.021198778656
18141,584.4552016934675
18142,46.42069935600669
18143,-1123.3539020609596
18144,-2495.301008610003
18145,-3334.43806663193
18146,-3734.84552478707
18147,-3961.2791047923756
18148,-3988.476503150189
18149,-3903.4913701291375
18150,-3584.091057009405
18151,-2525.326335238094
18152,-1702.7731219170505
18153,-1141.481599266621
18154,-1758.138920190366
18155,-2306.002955046354
18156,-2652.945398153556
18157,-2779.3406798400215
18158,-2979.3042636389337
18159,-3105.2742352498653
18160,-2611.222780809528
18161,-53.92390409931652
18162,1313.1776369524362
18163,1992.2731688771935
18164,1994.592699370442
18165,1881.6408569076978
18166,1615.8600723804477
18167,877.5032941222731
18168,-261.49353957358306
18169,-2119.145047648172
18170,-2806.8148647956973
18171,-3264.0535695798003
18172,-3212.515910073593
18173,-3004.4756579084456
18174,-1793.9471723250479
18175,219.23720750097698
18176,1084.2743206615628
18177,1137.6270769537693
18178,-359.6147239157525
18179,-1557.1639339008887
18180,-2440.860471854309
18181,-2116.1967245357228
18182,-1882.1013121441022
18183,-1899.2001635735994
18184,-799.1860010169626
18185,1112.4846167923963
18186,1811.2247607034699
18187,2325.2269772679633
18188,2371.747203278062
18189,2288.6507347024967
18190,1518.7178284009906
18191,238.80367797987302
18192,-707.9345154617414
18193,-1626.659974850056
18194,-2015.8450073783968
18195,-2192.983850569753
18196,-2216.6877126875793
18197,-1742.3893687859102
18198,-403.52544459411547
18199,1171.8155753426531
18200,1796.2238769221683
18201,1790.4550964979517
18202,973.2938348979018
18203,-313.2703258762907
18204,-1249.2114323526318
18205,-1260.788384235647
18206,-1247.162577703314
18207,-716.0695362631637
18208,-9.144531087230227
18209,961.0146651978656
18210,1473.3562726789896
18211,1892.5159790623627
18212,2055.1253636176702
18213,1922.5680612733784
18214,1051.7907677549229
18215,-507.478959581866
18216,-1399.2807449787208
18217,-2240.454058195848
18218,-2761.0013612701446
18219,-2910.4844885235225
18220,-3022.905601763607
18221,-2955.118249653624
18222,-1893.7323573495285
18223,335.34684680042693
18224,1392.4588181315157
18225,1473.3163730014996
18226,698.6157131438309
18227,-1001.7376923998341
18228,-1970.782560362655
18229,-2264.183839685739
18230,-2107.8067223289518
18231,-1869.7482758506537
18232,-995.2265348280436
18233,669.6972851934491
18234,1964.125500087718
18235,2530.52882794764
18236,2592.685430679004
18237,2544.475303789287
18238,2113.1542859440983
18239,1097.8778651368978
18240,436.3858964093174
18241,-657.4263456283456
18242,-1609.7235142523014
18243,-1899.0649760445415
18244,-1941.9595138622303
18245,-1747.331581872674
18246,-278.8293129357545
18247,1319.932670563244
18248,1950.428162883716
18249,1972.9411352478253
18250,912.1590203369565
18251,-491.6470851907857
18252,-1420.0914499449218
18253,-1669.934337020384
18254,-1706.8612246669466
18255,-1865.564562241247
18256,-678.933004798785
18257,785.2912936173151
18258,1772.457508513997
18259,2245.704362555742
18260,2401.8210294577634
18261,2168.6074920239603
18262,1631.4365304659661
18263,987.4891877495685
18264,108.1164927854975
18265,-913.6754086361819
18266,-1710.2370249318403
18267,-2078.998716335695
18268,-2159.6060278831396
18269,-2063.3176646685993
18270,-1959.2633842434163
18271,-1337.4178482580542
18272,-238.70919097070689
18273,192.89845717891274
18274,-312.31621764699923
18275,-1362.1203905767713
18276,-2332.304533795414
18277,-2528.9701259170993
18278,-2726.247396546283
18279,-2791.4204015591126
18280,-2415.7954652596272
18281,-596.3464596483067
18282,1098.0454497482463
18283,2157.923709247243
18284,2179.354921782439
18285,2130.9430481858567
18286,1809.1609958489978
18287,763.6481762990938
18288,-508.772190808834
18289,-1525.993447481265
18290,-2082.599539109869
18291,-2270.2301437304723
18292,-2384.0946436527515
18293,-2443.202238435975
18294,-2267.02079310928
18295,-1998.4857219308321
18296,-1717.7881627419504
18297,-1656.163680926056
18298,-2114.556701268775
18299,-2766.484254020467
18300,-3016.1130390024086
18301,-3206.2914395224257
18302,-3161.1694626713474
18303,-3269.8359232450107
18304,-2997.4074832025212
18305,-1143.4016332224776
18306,1406.0064170314524
18307,2187.36471225806
18308,2390.6092713693774
18309,2334.728617568848
18310,2015.3582678479836
18311,950.4294696560081
18312,-168.61573330955102
18313,-1345.7425620296383
18314,-1759.0600027838743
18315,-1516.6307167729994
18316,-1991.8321450334308
18317,-1461.8212087522072
18318,79.3745053840989
18319,1412.5161007714898
18320,1976.9546951751088
18321,2056.26769593595
18322,460.9688732180582
18323,-988.5413637634662
18324,-1810.5800394493524
18325,-1975.9511456019015
18326,-1950.874485168191
18327,-2131.2747681810506
18328,-1106.0074737070147
18329,294.18584682601806
18330,2033.3883834657397
18331,2818.474573117501
18332,2911.767357601553
18333,2888.5390022524775
18334,2448.3200378591596
18335,1651.0549206432677
18336,1087.831913792977
18337,252.39983564036092
18338,-152.83795871112707
18339,-352.30419057968913
18340,-338.4980299754211
18341,-154.0678361195104
18342,663.231765221418
18343,1840.7385285893713
18344,2341.4727283145153
18345,2347.472874800519
18346,1174.6876825286158
18347,-164.82494227158273
18348,-383.2481369371944
18349,-534.9224895754568
18350,-504.4460273976407
18351,-541.9970798085715
18352,-224.5970944940009
18353,939.304495408542
18354,2400.099234949064
18355,3193.9403796746524
18356,3286.852337088311
18357,3291.015747935612
18358,2876.3076544407127
