id,es_total_ps
14351,1598.9183409030356
14352,1209.705887652361
14353,761.4510867591994
14354,593.402391274668
14355,560.1747214568345
14356,623.6950888539793
14357,1118.3639845867613
14358,1673.1651881328094
14359,1509.2113408086748
14360,652.1916442739072
14361,-245.82419882910298
14362,-715.84901892284
14363,-1064.785021252763
14364,-1126.8295388281635
14365,-1397.1741959995954
14366,-1309.6825512921462
14367,-1600.3126614147964
14368,-1779.3784781418428
14369,-714.0492198670253
14370,45.496732881192536
14371,1503.6309650680998
14372,2687.0029186190964
14373,2588.397937606886
14374,2163.0895700567794
14375,1315.6077723659746
14376,1006.0024167944766
14377,618.4860305287764
14378,456.0856192186395
14379,390.2763594775044
14380,389.44767177517383
14381,861.6893553115087
14382,1537.0564376510615
14383,1312.9616057908825
14384,463.32131357263074
14385,-1065.5831035720735
14386,-1571.7613095459703
14387,-1950.7914782548526
14388,-2224.6045217026513
14389,-2418.458994930583
14390,-2734.5038674701764
14391,-2830.565477731507
14392,-2653.2852084614656
14393,-1922.8278549108625
14394,-185.8552262739053
14395,1240.1941650358567
14396,2551.232399179366
14397,2538.775134881128
14398,2221.5878648048547
14399,1411.5810822620867
14400,1078.3266170501834
14401,652.342675123369
14402,367.70304774520855
14403,347.9093773706322
14404,246.60987008889722
14405,471.8716514785926
14406,707.3474550685967
14407,443.3691418050279
14408,-1256.980287802972
14409,-2750.0624891147218
14410,-2983.14166089297
14411,-3283.2404772855884
14412,-3305.2574037788754
14413,-3321.290933701355
14414,-3299.5755348614407
14415,-3320.2027267620265
14416,-3005.9999617428953
14417,-2592.928432289918
14418,-642.456359152845
14419,1297.2188550802355
14420,2475.567469094393
14421,2581.659949409031
14422,2302.5831909739754
14423,1593.880437894202
14424,1188.7190704258937
14425,571.1587431695417
14426,458.5985523905299
14427,451.03851287638435
14428,391.397356680366
14429,578.9255337080788
14430,708.1602932043281
14431,207.04162297209612
14432,-1658.2551797671217
14433,-3172.0040794504885
14434,-3138.0826609759247
14435,-3353.9179312460865
14436,-3287.7409271948886
14437,-2982.8681414446314
14438,-2925.511948493379
14439,-2865.1956560441354
14440,-2819.564588069801
14441,-2197.0858702575756
14442,-377.7831397603395
14443,1349.9584703212383
14444,2565.1498453885692
14445,2639.715916898675
14446,2449.80900946569
14447,1865.0613392741711
14448,1484.5893997549495
14449,804.0664026829438
14450,620.596806228333
14451,549.29860438222
14452,724.4044614779986
14453,1129.3022159856516
14454,1636.5630933223333
14455,1779.9944037138343
14456,930.5394615630594
14457,-451.4624945852365
14458,-1134.4949465976626
14459,-1438.2348609513917
14460,-1245.8254538289532
14461,-1020.6109328784343
14462,-1647.4344987734496
14463,-1417.5854684777678
14464,-1129.0073829555895
14465,-674.291576818271
14466,277.0837280667913
14467,1484.9872155750134
14468,2772.455696624206
14469,2760.7274699217965
14470,2485.634592211965
14471,1549.21495647599
14472,1179.0328169323886
14473,729.1816421999662
14474,592.304003396093
14475,543.7722428223184
14476,550.0755304839781
14477,1015.5971559109506
14478,1469.3112962919015
14479,1476.1773195024757
14480,694.3873102719432
14481,-202.20621596920373
14482,-869.0479281169322
14483,-1083.8526708494776
14484,-1271.0443789770725
14485,-1168.1597117859212
14486,-1556.9562473751344
14487,-1603.3298287996424
14488,-1245.1137746462705
14489,-663.6426027275439
14490,215.57758083429212
14491,1602.6426713111382
14492,2746.153652921525
14493,2490.521497762062
14494,2083.177636523964
14495,1443.5222613550773
14496,1098.2637045709014
14497,553.1051970721819
14498,278.0760875991398
14499,125.94754051795195
14500,136.2688171986855
14501,548.6099216409148
14502,1107.0348444075526
14503,1114.3075957663932
14504,417.46283325281547
14505,-762.7374200330856
14506,-1569.7507518434147
14507,-1405.9364177746047
14508,-1532.5495196193835
14509,-1615.7840010517764
14510,-1376.1023794801606
14511,-1598.8784960993864
14512,-1554.5236608349187
14513,-616.7269069520879
14514,522.7840131109579
14515,1704.430257380222
14516,2804.452685745549
14517,2535.237875689293
14518,2189.914824584592
14519,1517.7776770133125
14520,1233.8436914052795
14521,598.9911108277707
14522,478.0358453572443
14523,295.7361693440259
14524,303.87367232618004
14525,710.4222061209849
14526,1283.5614321119606
14527,1249.172816800046
14528,369.1686498817543
14529,-1388.6697855217756
14530,-1909.4601300021168
14531,-2004.9709867583995
14532,-2047.8919129616477
14533,-2230.891159140377
14534,-2342.4375056987005
14535,-2100.3636258493575
14536,-1730.6730516937362
14537,-501.4193542653786
14538,415.9441617763319
14539,1618.5028772124865
14540,2733.4342756476167
14541,2663.703460878374
14542,2333.9929920565683
14543,1743.2446701245226
14544,1371.8996908224563
14545,969.375416863178
14546,745.8197167745867
14547,705.0213983063587
14548,708.9106281244646
14549,1061.9232956816786
14550,1613.5637880399559
14551,1515.3501311811697
14552,570.084218141643
14553,-818.8674789999016
14554,-1204.8904290118749
14555,-1601.434406226151
14556,-1776.922557873074
14557,-1709.8803897878765
14558,-2322.530855917508
14559,-1984.8184664947069
14560,-1612.5267337615794
14561,-486.48215731616654
14562,439.3018507236875
14563,1572.1741680118255
14564,2654.314607648532
14565,2434.2130091629265
14566,2022.2918680281641
14567,1505.4543748997137
14568,1068.8992319058211
14569,634.7247763787215
14570,430.07815870219264
14571,303.0515219029056
14572,132.76335154128387
14573,342.0197874137699
14574,538.6333500979306
14575,308.9912236652049
14576,-1010.2297694859427
14577,-2651.8261793633287
14578,-2883.78824643238
14579,-3071.445757313429
14580,-3106.215920433578
14581,-3232.147840148292
14582,-3244.0278636044923
14583,-3245.5765537489365
14584,-3151.886144004405
14585,-2029.5083995580496
14586,-153.738027079634
14587,1527.3993875308192
14588,2618.6522692021267
14589,2577.731473207026
14590,2303.932337192709
14591,1453.4392697787152
14592,1089.6002563853542
14593,612.4256358978813
14594,445.8395938775111
14595,408.4812906337596
14596,343.898296487993
14597,335.4578434201985
14598,449.94152267949124
14599,-456.5948702888171
14600,-2216.1641799838535
14601,-3332.3555630088067
14602,-3405.1701845546004
14603,-3543.0796225770323
14604,-3490.5350301990493
14605,-3469.846046702287
14606,-3487.0824790777897
14607,-3546.0670848837563
14608,-3457.1744136509546
14609,-2786.2349733896112
14610,-557.4038807337462
14611,1522.9750637468628
14612,2503.4595825515007
14613,2600.6520066458575
14614,2435.4421164219734
14615,1586.7072998875453
14616,1310.785329756496
14617,641.1269886802957
14618,456.7448547231387
14619,540.1758686951425
14620,655.7366268685031
14621,1101.824270741448
14622,1557.0622185800257
14623,1875.264990766929
14624,1172.1798683554666
14625,-183.340963803928
14626,-1246.4826294593058
14627,-1950.944990479182
14628,-1686.0078045056089
14629,-1596.4262073549594
14630,-2101.884879644295
14631,-2213.1812236770234
14632,-1931.298204068474
14633,-668.9984695877544
14634,272.4138279522162
14635,1595.286462149879
14636,2651.965382981151
14637,2606.9110104158735
14638,2225.864723539157
14639,1526.8017308410526
14640,1218.308623059949
14641,760.654131029941
14642,550.4203656176901
14643,473.9092153080874
14644,494.2488725922149
14645,911.7858752243492
14646,1589.826223175517
14647,1838.1798949292504
14648,1134.9681096597649
14649,62.57594808548228
14650,-428.8844005855001
14651,-1181.2338133537799
14652,-1639.4162614698162
14653,-2013.050351976606
14654,-2369.544127465227
14655,-2473.392041757951
14656,-2181.5352176815436
14657,-900.8630884183839
14658,169.29697707138126
14659,1557.3980487694705
14660,2478.025012892837
14661,2432.765571297766
14662,1968.5401058442499
14663,1449.064318245621
14664,1067.3282175081852
14665,527.3629037316368
14666,271.585993316013
14667,241.62608537538406
14668,302.76228359595507
14669,530.9087366570071
14670,1086.5314125020848
14671,1034.4629452873855
14672,-44.35975818736096
14673,-1834.4090655305483
14674,-2306.123592468447
14675,-2592.027588216359
14676,-2681.3326931989654
14677,-2802.9398797331646
14678,-2855.553147146909
14679,-2945.139490148325
14680,-2795.1240009118133
14681,-2013.8771500045857
14682,-195.96137863330958
14683,1313.9676187159648
14684,2409.241837549922
14685,2176.498556128228
14686,1779.991812096184
14687,1070.8286855752137
14688,837.2793312861256
14689,266.9753423553342
14690,132.16502005890678
14691,-9.076019590585638
14692,90.14909015363583
14693,154.87686474658028
14694,276.1950431928994
14695,-948.1414486524621
14696,-2212.090223065361
14697,-3116.933747792138
14698,-3185.013814572414
14699,-3249.9352136472003
14700,-3284.023641603804
14701,-3334.1069422034966
14702,-3356.873036424242
14703,-3356.170748852366
14704,-3350.512215955888
14705,-2849.023838192591
14706,-1158.0695341278345
14707,1298.6530244735693
14708,2496.694117613473
14709,2498.6528393647673
14710,2213.3088911542973
14711,1662.3102004444256
14712,1360.1864793601474
14713,752.8041950380048
14714,505.76293405384
14715,452.0565308404648
14716,431.8521194880703
14717,841.0692364378092
14718,1308.5554058807168
14719,1428.6834628020385
14720,14.421354711585131
14721,-2235.1217081021923
14722,-2598.0485498950256
14723,-2901.401918500214
14724,-2977.7783893999135
14725,-3009.527538781607
14726,-2973.6705064962716
14727,-2897.861553799704
14728,-2751.3933158052764
14729,-1891.5345531791913
14730,232.24590881443876
14731,1730.8051505678322
14732,2738.321761830947
14733,2738.8219026518345
14734,2433.9987990667946
14735,1710.875985252567
14736,1395.129234718503
14737,885.6669898194875
14738,758.7925627116823
14739,671.6370512648235
14740,641.1498014693444
14741,753.0217382855443
14742,877.4340579731125
14743,585.380997485008
14744,-872.9522153588886
14745,-2404.5585719269307
14746,-2776.5923831658474
14747,-2988.4594222756514
14748,-2997.6730592385316
14749,-3169.449368170722
14750,-3134.324917517258
14751,-3135.8076965950145
14752,-3088.363544108428
14753,-2268.2499089143544
14754,-663.331412310605
14755,1374.4485807840283
14756,2611.3835973656883
14757,2576.264221284046
14758,2196.0181069211726
14759,1673.0190593844086
14760,1282.0156326906979
14761,744.4241269992782
14762,481.04629894104664
14763,314.50199139794057
14764,316.12383943420537
14765,419.6601799113296
14766,488.2962094131169
14767,-10.554112537403675
14768,-1962.0242235549856
14769,-3181.2963906422815
14770,-3304.9222080950617
14771,-3405.254469648202
14772,-3304.1014010728063
14773,-3357.794639033478
14774,-3375.6146481093215
14775,-3407.380993619465
14776,-3366.3794075801866
14777,-2966.535953295092
14778,-1217.0227164980301
14779,972.0569037779375
14780,2275.463477784235
14781,2375.4758974217425
14782,2065.0899954955707
14783,1326.807515376681
14784,843.7581732501017
14785,79.69349796939778
14786,-75.84660715185154
14787,-118.0556937184283
14788,-72.07400641003545
14789,650.694457287224
14790,1355.9020987563688
14791,1545.121254572203
14792,497.0129044312189
14793,-1886.10255862707
14794,-2490.417215183877
14795,-2334.0899089903073
14796,-2375.819971883242
14797,-2449.9455641807685
14798,-2658.3053866430773
14799,-2859.195123675466
14800,-2457.8045163607703
14801,-1600.4811035167381
14802,425.6816546551179
14803,1916.8499716268395
14804,2783.9926456589305
14805,2770.474079492671
14806,2563.068468770945
14807,1779.0657890736766
14808,1422.4387110100922
14809,868.3199259983352
14810,768.4039159426444
14811,688.8298872001709
14812,806.9294935385718
14813,1206.0229248855017
14814,1703.2618558812749
14815,1716.1365974075713
14816,782.1307919981396
14817,-1282.1851840418024
14818,-2070.3636029877325
14819,-2635.2034082532114
14820,-2719.209005641296
14821,-2662.316719442618
14822,-2542.6733741755293
14823,-2643.583975111262
14824,-2485.3251347689516
14825,-1382.9985698031312
14826,23.29093115227471
14827,1546.3505531414621
14828,2607.537816172628
14829,2374.5951078405224
14830,1844.3208075375576
14831,1162.5002056653054
14832,726.5966902158767
14833,302.57908067344914
14834,87.03680219237071
14835,-97.84515174499123
14836,-98.28463910362143
14837,358.16795345672733
14838,1013.8069359094677
14839,1187.2106189376807
14840,-1.374029867215036
14841,-1607.1517998046693
14842,-2241.126726352228
14843,-2625.4530063781162
14844,-2603.2931142579664
14845,-2354.850012361212
14846,-2229.2417443761174
14847,-2221.381042531625
14848,-1788.3239679813944
14849,-65.33281088019774
14850,995.4106694529937
14851,2151.311091085752
14852,2827.3662122400947
14853,2798.1542741818525
14854,2685.290803317309
14855,2169.717542026195
14856,1953.2347999353985
14857,1280.443578411669
14858,1009.2922899690263
14859,899.7562532450476
14860,942.9047171341035
14861,1368.8782662635047
14862,1865.9467724872
14863,1983.0944686087391
14864,1304.4371057714004
14865,-180.73639182083335
14866,-1164.072368017016
14867,-1926.6321117252787
14868,-2220.037280618332
14869,-2107.9186048544084
14870,-2410.4705785518204
14871,-2355.3976985080776
14872,-1533.0089419917188
14873,-458.18353177116876
14874,847.7066870905801
14875,2166.9059987205
14876,2841.2656579158056
14877,2623.844306524655
14878,2217.1450278070115
14879,1440.932289999573
14880,1062.2591454278881
14881,777.3707611511716
14882,741.5476711101616
14883,673.0911757982702
14884,728.9827807323483
14885,1106.8285366731257
14886,1656.517602861838
14887,1683.9773793236134
14888,985.1843750123872
14889,-302.0789961824822
14890,-964.2405791074353
14891,-1980.3768110400174
14892,-1934.145634511351
14893,-2006.5516958270666
14894,-2368.569572199112
14895,-2316.638196487269
14896,-1476.661481986086
14897,-260.38084934177556
14898,630.6970133886131
14899,1824.8654622929757
14900,2562.4479851850615
14901,2377.0821943896885
14902,2007.4188553732479
14903,1475.522823064103
14904,1069.8544856971068
14905,531.8071736428134
14906,258.0899865530314
14907,103.28842825680925
14908,52.5710369680235
14909,292.23459667971787
14910,470.99904276613785
14911,242.0278658341301
14912,-1139.7089769707075
14913,-2595.3361505196426
14914,-2925.3836752596135
14915,-3260.588479472845
14916,-3276.315252329403
14917,-3273.3894888039704
14918,-3325.085953320679
14919,-3330.486721850246
14920,-3213.0328499544503
14921,-2281.8523288831034
14922,-99.50758157981466
14923,1453.901508139236
14924,2395.8674618951195
14925,2288.5838681559094
14926,2005.2861481995005
14927,1282.1588994722704
14928,1010.9066878982554
14929,277.55047198008066
14930,22.557203652245953
14931,-145.60476038419583
14932,-525.8643134654604
14933,-223.93381733580904
14934,-135.24825728764742
14935,-864.0100721409912
14936,-2229.6287370249534
14937,-2978.330667415047
14938,-3233.5029791011834
14939,-3364.3301067674797
14940,-3326.0026842447737
14941,-3320.063394097362
14942,-3334.1598626127434
14943,-3268.0140618573255
14944,-2999.2540399641266
14945,-1929.273319196702
14946,202.8372238648897
14947,1630.6262118792818
14948,2253.98152897766
14949,2252.769802274777
14950,1944.643303413893
14951,1190.3966740135909
14952,810.322499351289
14953,126.46022881853924
14954,-47.734083099285975
14955,-54.25736576136557
14956,-26.976515165691943
14957,588.0725667935941
14958,1290.8725269625136
14959,1574.0823368341669
14960,1049.434934229557
14961,-1163.5190897888372
14962,-2188.253776950579
14963,-2546.9721334685955
14964,-2448.966789855674
14965,-2473.663044953078
14966,-2453.6159470576986
14967,-2270.2474947807973
14968,-1054.0467373976128
14969,196.4649692853409
14970,1146.0051742244084
14971,2138.8236981410346
14972,2741.94200680953
14973,2687.7187326718727
14974,2483.0503249621693
14975,1822.478762861651
14976,1495.894241008096
14977,1010.2879992813378
14978,857.8257899564151
14979,675.198549213038
14980,763.3803975450002
14981,1203.0837505180941
14982,1765.5542146848425
14983,1921.0834304028374
14984,1230.0740912078652
14985,-245.31415675416426
14986,-1626.8801145635844
14987,-2075.2767460725477
14988,-2128.523342524329
14989,-1901.0815065773716
14990,-1741.6284266587318
14991,-1452.9580551035574
14992,-1040.146558959192
14993,-103.22400009611758
14994,839.9000291124559
14995,2319.5539160457947
14996,2903.783984284613
14997,2740.7330690524745
14998,2320.757662685396
14999,1531.0482330867123
15000,1290.5339843753961
15001,689.1841569280497
15002,455.7008151812984
15003,500.41143912259065
15004,534.6038333775427
15005,940.8906252819794
15006,1475.2913859553653
15007,1665.392949738565
15008,980.5341149544812
15009,-56.45727492221709
15010,-1072.1458334075853
15011,-1533.1959119172839
15012,-2053.9674149231305
15013,-2020.726299201309
15014,-2183.643728387199
15015,-2085.1444366909336
15016,-1759.9436649921324
15017,-479.4791088445844
15018,526.0435797440033
15019,2064.4891401424175
15020,2552.729391769661
15021,2305.4076970998512
15022,1891.5754894218642
15023,1112.5171825266195
15024,703.2949719273273
15025,236.97115705823492
15026,169.19692362344043
15027,249.452234917333
15028,176.33095133215392
15029,656.1806849010087
15030,1344.4423826033405
15031,1840.3864773912203
15032,1685.8040820381545
15033,1165.6945119888617
15034,300.0186540861943
15035,-148.76113910649664
15036,-414.1458647581001
15037,-670.0085750940307
15038,-782.8632651021019
15039,-513.357830547541
15040,-272.7698166244596
15041,187.16191830720624
15042,928.1776526100213
15043,2075.756112805944
15044,2552.8463619803156
15045,2373.54237907005
15046,2008.2172295494267
15047,1242.0891549150522
15048,880.2309788195034
15049,336.7702029799307
15050,226.4498996236939
15051,190.7464587697278
15052,264.449289423931
15053,605.5698553752442
15054,1170.9407772120214
15055,1542.280096970277
15056,1203.9823036660878
15057,513.9486643256719
15058,-140.76045623181196
15059,-708.7649914637565
15060,-910.3623019507186
15061,-1705.275843056459
15062,-1858.16705230318
15063,-1843.9627178823255
15064,-793.927666481369
15065,-12.632296496357178
15066,891.7623700439582
15067,2153.261374771335
15068,2456.4617157352172
15069,2238.3948856517454
15070,1835.174931110648
15071,1130.830498021427
15072,794.7502605454281
15073,360.4766550712578
15074,213.2271237869823
15075,23.174289646420533
15076,5.252575309008584
15077,168.5460663609433
15078,382.03703374152445
15079,523.0459260275258
15080,410.6225345178939
15081,-358.3870566021864
15082,-1783.5855667977958
15083,-2002.8384951170617
15084,-1994.292208703285
15085,-2362.7500810396973
15086,-2418.258589727571
15087,-2369.486710499875
15088,-1576.3175758739299
15089,-333.13344110542295
15090,877.3601624830777
15091,2125.350559009435
15092,2471.8432142823553
15093,2420.9023524429126
15094,2188.458426135736
15095,1526.5662321671232
15096,1039.1855742426171
15097,258.6918732466701
15098,144.28087326435534
15099,59.19440780473855
15100,20.155371926625513
15101,52.68695438257623
15102,291.7185656333318
15103,354.11937337105604
15104,-295.9529148274737
15105,-1457.8841124492508
15106,-2595.297113921027
15107,-2857.132877900162
15108,-2953.6595428751953
15109,-3078.789821930133
15110,-3215.2207027541494
15111,-3268.5985214367156
15112,-3003.0477056840787
15113,-1736.8636831345837
15114,417.84058440981767
15115,2125.292164368259
15116,2546.0821492066157
15117,2495.6848428247004
15118,2173.3285840898034
15119,1433.0139796216063
15120,950.2546598878931
15121,357.064825815168
15122,149.57858642730227
15123,61.42048958449082
15124,201.4973779650018
15125,882.1780357301092
15126,1610.7902541693352
15127,1946.6138290634794
15128,1606.844388757385
15129,242.66231793362414
15130,-664.9861436291325
15131,-1210.3905888791376
15132,-1637.5519446314697
15133,-2039.9800320124689
15134,-2123.8631402059823
15135,-2002.28593744269
15136,-1526.8923409165914
15137,-350.56982296421023
15138,710.4067966521447
15139,2082.4639429258336
15140,2405.822500277276
15141,2087.96279405154
15142,1607.7683507762122
15143,796.6386219593636
15144,375.8000858424591
15145,98.2487358619259
15146,-34.560219257615834
15147,-35.131407818809656
15148,48.02621451641697
15149,673.0000297112105
15150,1364.4055405719173
15151,1742.7280013642192
15152,1148.662714744182
15153,16.119108902152632
15154,-1281.2096356254822
15155,-1716.7818719989489
15156,-1912.5912138678766
15157,-2021.1909157823313
15158,-2117.225093674427
15159,-2097.7302823889486
15160,-1979.5210917158263
15161,-643.5875024202578
15162,532.0161808827298
15163,2009.516753724344
15164,2377.9070742400045
15165,1828.421774978642
15166,1371.6393326972118
15167,677.6248372330863
15168,403.41866697772207
15169,-115.25232941028472
15170,-175.2208864065387
15171,-176.51161872323883
15172,-123.32623397474475
15173,460.18279865051954
15174,1138.9491428995304
15175,1424.777119072464
15176,834.0979979225862
15177,-878.8321539927036
15178,-1735.5644447156913
15179,-2370.947665467217
15180,-2454.966621263549
15181,-2567.8981729572247
15182,-2630.600191623188
15183,-2624.5307619869204
15184,-2559.7356043088525
15185,-1925.4575216948945
15186,-8.918460661922033
15187,1920.6778745403874
15188,2286.3712763137446
15189,2019.7309205147612
15190,1553.4228337018947
15191,1155.004076267932
15192,738.4951134409425
15193,-13.679938257549829
15194,-88.1025993142733
15195,-30.74552198177303
15196,190.04537951166836
15197,672.1576922199974
15198,1464.4519274424918
15199,1935.6798334414577
15200,1286.1102338174076
15201,-955.5600250082837
15202,-1532.151311909754
15203,-1884.3687754613184
15204,-1924.8476824441498
15205,-1930.3324841212684
15206,-1807.218670309377
15207,-1782.528605056188
15208,-934.4355620797162
15209,204.3280610416845
15210,1169.934837150887
15211,2314.056397505183
15212,2532.2228741103204
15213,2330.318514509849
15214,1715.9263140503092
15215,956.4801781576923
15216,707.7702907000496
15217,223.46932548603232
15218,-127.39751957526639
15219,-342.8085213202905
15220,-271.31938995146476
15221,210.13115803804234
15222,1127.3475901673553
15223,1555.6014415213533
15224,907.7069049021594
15225,-1019.0041891557356
15226,-1809.7079214987953
15227,-2295.8992347419253
15228,-2435.0389326022178
15229,-2610.750124385369
15230,-2811.0372396265657
15231,-2782.9337349906386
15232,-2606.9694404506713
15233,-1653.2342933535458
15234,235.0291184925603
15235,2193.968951009853
15236,2560.1746828693963
15237,2313.062194104341
15238,1777.1397917535473
15239,1353.8220006871363
15240,1060.0503721239781
15241,454.40333754051005
15242,318.2949620392805
15243,262.8622362787976
15244,241.31003771601667
15245,370.04621548911064
15246,702.0919227339206
15247,521.5095913231771
15248,-791.5734797121403
15249,-2471.2758582765773
15250,-2932.412021045535
15251,-3019.021664093174
15252,-3185.928150465133
15253,-3249.4957222913704
15254,-3277.391498957825
15255,-3297.623607765697
15256,-3075.083554025088
15257,-1254.5399245437172
15258,891.9093451330818
15259,2279.6301003270064
15260,2598.297334878192
15261,2494.6638745733608
15262,2231.398763146815
15263,1639.8629804120524
15264,1297.7978478265238
15265,716.9304152284681
15266,528.6282923343243
15267,413.6072352151377
15268,361.9645391671411
15269,404.8537402519601
15270,543.4735986132733
15271,504.6590858132209
15272,-1048.8698528766256
15273,-2611.384886801549
15274,-3056.847176661659
15275,-3308.2430561132983
15276,-3361.272510417209
15277,-3391.9649527198508
15278,-3368.8122389520245
15279,-3378.451047545291
15280,-3355.4107195594183
15281,-2909.4283913270842
15282,-606.4007061408176
15283,1863.831515209892
15284,2281.0716099706538
15285,2136.370743159072
15286,1695.6877402510174
15287,517.8216173361079
15288,218.61917127273205
15289,-87.35795102679919
15290,-221.40807305696248
15291,-102.30836373968202
15292,-8.835209051620332
15293,624.4188135840152
15294,1490.4440237141969
15295,2026.8387741539705
15296,1351.2822198873407
15297,-1369.6590862088017
15298,-2249.138887205996
15299,-2608.336917483815
15300,-2756.964089990173
15301,-2916.219445693564
15302,-2983.261854555795
15303,-3018.6720541664354
15304,-2778.8886743500207
15305,-1541.877342694873
15306,667.1438925162023
15307,2409.98212184814
15308,2571.3042703776173
15309,2303.7700465128023
15310,1990.6401783161189
15311,1124.199938517893
15312,832.3727360341898
15313,420.85064666425683
15314,275.03978764820806
15315,260.3455220502294
15316,292.2877509663012
15317,789.7562304570238
15318,1588.616628386276
15319,2017.0333997928371
15320,936.675773545957
15321,-1615.860680585988
15322,-2432.491113224905
15323,-2748.4970482522867
15324,-2867.8663216502414
15325,-2860.5226535424954
15326,-2858.238889779872
15327,-2955.580141282108
15328,-2916.7774930945748
15329,-1877.6811255230498
15330,461.7013586597764
15331,2255.797807436457
15332,2545.46489537061
15333,2260.0108281158277
15334,1850.410264127812
15335,1075.555214590863
15336,831.0725333462266
15337,311.8706539301091
15338,198.5408666844684
15339,128.17886407920508
15340,103.6424922689642
15341,602.4915754257667
15342,1486.3960701942106
15343,1887.8990843520023
15344,836.4634727601075
15345,-1427.1196432012614
15346,-2307.747844087196
15347,-2510.878180729833
15348,-2558.1429108008288
15349,-2680.6890149447236
15350,-2849.2401552872457
15351,-2872.2749113627256
15352,-2761.411067378104
15353,-1572.4898967709937
15354,447.36066863297935
15355,2015.4623485345383
15356,2462.131103217497
15357,2396.15190408639
15358,1852.603172813126
15359,1177.1058309551238
15360,822.2075924122329
15361,403.06498546354186
15362,204.16125624169604
15363,51.10315643236136
15364,327.47699284633677
15365,850.1189331828988
15366,1677.121120839446
15367,2010.7848205031228
15368,1281.7699310239711
15369,-886.8289878363603
15370,-2000.9179172249267
15371,-2485.6294152945266
15372,-2516.291917948351
15373,-2861.785414198913
15374,-2882.455706257097
15375,-2949.214330900604
15376,-2699.1070972415405
15377,-1841.464982274598
15378,222.56238345289694
15379,2112.318501945118
15380,2463.002042120321
15381,2047.5811182822144
15382,1550.7810373507716
15383,1154.3126173091869
15384,818.005043113481
15385,272.0649619575908
15386,0.541346856766971
15387,-212.81344292459013
15388,-161.04685660336924
15389,391.3329275253444
15390,1235.2677062570424
15391,1467.533590362396
15392,-79.17455987602062
15393,-1960.720354215581
15394,-2452.3780183151407
15395,-2644.9601704948213
15396,-2750.5028110471735
15397,-2970.929850029323
15398,-2981.1085753270495
15399,-3002.728150874326
15400,-2945.3885810778193
15401,-2182.192915670455
15402,-72.69749251909681
15403,1809.699061047943
15404,2086.140258521631
15405,1548.9850728913573
15406,871.4652453036139
15407,425.88601717705257
15408,366.25327165246745
15409,-80.03882209180074
15410,-380.9782215207974
15411,-362.3036693187085
15412,-355.5701117252415
15413,68.56409561524738
15414,513.1898746790955
15415,634.865208285617
15416,-552.2604228629621
15417,-2383.3362837447457
15418,-2995.5285044242232
15419,-3122.967079331696
15420,-3190.065384052628
15421,-3214.3361903698965
15422,-3175.9598955901306
15423,-3175.549246811018
15424,-3135.6759622925324
15425,-1890.3501030961088
15426,442.59311420922603
15427,2093.884293958216
15428,2270.332831446535
15429,1959.990276422006
15430,1568.3235341650288
15431,863.5381178851927
15432,560.2792235750121
15433,114.66756734708628
15434,-111.71018907075606
15435,-206.4740531279153
15436,-247.18720348999946
15437,-245.81702860464756
15438,30.375880678130997
15439,-563.6360772458014
15440,-2060.9612264763814
15441,-3057.6172964794323
15442,-3155.537902200947
15443,-3289.4700742446967
15444,-3302.605712453931
15445,-3314.155801020769
15446,-3314.8107004958088
15447,-3319.9713715506673
15448,-3295.2266175402187
15449,-2742.5329445649168
15450,-373.98597542715544
15451,1839.8862079398566
15452,2256.0978436340215
15453,1985.5076822109875
15454,1593.2362130564359
15455,343.98423620334154
15456,99.5350993203299
15457,-607.1591665959922
15458,-805.8205994241328
15459,-910.9576567404853
15460,-624.7654414021342
15461,157.5951096030769
15462,1165.8698567230101
15463,1700.1795364367304
15464,67.01545324998239
15465,-2322.0445914215074
15466,-2553.2103651203347
15467,-2728.0945059316236
15468,-2808.942705162256
15469,-2870.646747823635
15470,-2937.833633755909
15471,-2929.7276922190804
15472,-2794.5363640391183
15473,-1991.354086225044
15474,444.0824475047548
15475,2172.33419004655
15476,2166.8069207132507
15477,1801.980266692871
15478,1265.5321069407119
15479,313.32977975375127
15480,106.47726760000918
15481,-682.1654865775399
15482,-838.2893851981065
15483,-832.9327036660491
15484,-779.3095059244491
15485,46.0104372251368
15486,1012.0794316773614
15487,1473.5740397699533
15488,229.4215543370348
15489,-1892.7899842783797
15490,-2601.6882498377117
15491,-2864.4033949669956
15492,-2861.5495518105663
15493,-2960.5384744827347
15494,-2993.483039845683
15495,-2980.5142941204954
15496,-2879.452146114908
15497,-1405.6667544968332
15498,549.2400332034467
15499,2125.794633149851
15500,2252.258889616122
15501,1744.0477164168194
15502,1266.0354862156655
15503,647.9906307517098
15504,558.3325384231329
15505,135.31541282420002
15506,30.70906240018826
15507,-37.93518233728533
15508,50.43236229737174
15509,817.0446197585231
15510,1623.930076097611
15511,2073.1058923297114
15512,1660.2507975839426
15513,488.9904611668826
15514,-1142.71999206096
15515,-1874.6632367929162
15516,-2017.2971430457017
15517,-2260.911027966442
15518,-1982.9043944675925
15519,-1832.5034079864988
15520,-997.9196472164789
15521,362.8115392345337
15522,1343.9194995400173
15523,2389.699489829962
15524,2468.4872650070815
15525,1972.3858159225053
15526,1444.2742520643799
15527,837.1022976353534
15528,602.9446984141185
15529,75.99370350489625
15530,51.78435298377167
15531,4.3801772971702135
15532,81.29469791086389
15533,636.2553828161255
15534,1672.5478091527382
15535,2170.727059973019
15536,2065.7279348515076
15537,1312.9482306545708
15538,334.84360922878835
15539,-243.87242090922953
15540,-593.9118564060394
15541,-983.2796341140375
15542,-1027.1947100497769
15543,-1144.816421931822
15544,-653.8844096617424
15545,516.6697197984367
15546,1644.5829703820725
15547,2516.950910649592
15548,2546.6221182857757
15549,2232.18144218451
15550,1678.3746415172734
15551,966.031417781528
15552,766.0860566037303
15553,282.86168439384414
15554,103.07729312036645
15555,-2.250816492055492
15556,107.30405327870051
15557,653.5736743091165
15558,1521.848098649049
15559,2001.00752483773
15560,1846.748618907245
15561,1022.9069073964441
15562,321.922100532284
15563,-399.94025710287065
15564,-1041.2261884674056
15565,-1920.6615452706726
15566,-1934.4188966808863
15567,-1835.9437310657045
15568,-1254.6842019374337
15569,-193.9468143555501
15570,1000.229332700204
15571,2285.975379599748
15572,2386.5670450670864
15573,1830.2605869507788
15574,1387.8048058520997
15575,585.4492315621542
15576,373.35157187998857
15577,39.2896545955425
15578,-118.43182036441496
15579,-168.5785822356648
15580,-151.81022606575286
15581,6.5587182182531265
15582,301.0948343630455
15583,718.7491146014464
15584,814.2893677943509
15585,584.4866024953822
15586,-148.1713668473657
15587,-1362.8332728412581
15588,-1926.2183730462968
15589,-2276.0662904784385
15590,-2571.6043831823717
15591,-2664.800312637402
15592,-2605.146419631175
15593,-1034.8368937752728
15594,395.6876138536974
15595,2059.1970645689735
15596,2272.077325245148
15597,1950.2898899765714
15598,1615.3100449154379
15599,968.6072252619612
15600,808.5542932078439
15601,186.42167935524
15602,78.66622499781275
15603,-53.798784133467485
15604,-290.1716266595347
15605,-188.7733267773368
15606,60.42913117427998
15607,223.9467358086022
15608,111.0023393239934
15609,-513.5319551879156
15610,-1722.2304747204375
15611,-2517.905108895051
15612,-2731.3990222103816
15613,-2991.0707884691815
15614,-3147.80336277509
15615,-3126.5899907026446
15616,-2776.7079387984027
15617,-884.8390006951615
15618,357.17765788818247
15619,1832.6665117269574
15620,2118.9439262621777
15621,1795.2308318668206
15622,1309.567811108632
15623,835.543960660942
15624,498.6592637581994
15625,48.7568784957245
15626,-182.47322656349658
15627,-286.62927311382805
15628,-250.67717834398402
15629,330.7017179898393
15630,1318.8861312654196
15631,2091.2171409234584
15632,1592.2948507936444
15633,-145.27588501113541
15634,-1698.1199437353316
15635,-1994.7750442018794
15636,-2197.6192405113347
15637,-2556.6844387015367
15638,-2681.196651555389
15639,-2583.853600161454
15640,-2311.747550417822
15641,-490.3719580811894
15642,1110.5691018753153
15643,2468.9761710328225
15644,2528.2346406969323
15645,2332.649443655762
15646,1809.5284858885686
15647,1004.7061255016091
15648,532.4736476874237
15649,215.10719765736465
15650,77.86423032360476
15651,-38.04328362995464
15652,61.388159734586715
15653,563.612970594967
15654,1563.4066025441473
15655,2097.1722417643523
15656,1823.3719153536292
15657,931.158828432298
15658,-61.84644934619228
15659,-521.7577892144152
15660,-1329.5157171390317
15661,-1952.478607860254
15662,-1965.198967297831
15663,-1711.0968433888104
15664,-646.479528780153
15665,93.52788443302481
15666,1300.0721453011026
15667,2290.6309171706635
15668,2259.291260918011
15669,1722.0664082717253
15670,915.6610941992618
15671,695.8446088867556
15672,287.30595495926485
15673,-243.79736007638732
15674,-511.8391236759737
15675,-526.4315227269536
15676,-406.7539245853302
15677,99.44805269296018
15678,953.1083362392128
15679,1471.151865283299
15680,1320.6914687048588
15681,635.7527301466881
15682,78.36643818406621
15683,-1144.0124067606089
15684,-1658.1830302650471
15685,-1905.3338884881136
15686,-2299.5465174889373
15687,-2066.791319906422
15688,-1693.7659730489536
15689,-615.2428038148948
15690,303.0560375614782
15691,1364.2426371928166
15692,1376.1610037921307
15693,747.110989332136
15694,-0.5050090841300516
15695,-694.5371889871072
15696,-1336.1891945355694
15697,-2017.0694529006316
15698,-2261.269316886254
15699,-2472.348572333231
15700,-2345.409460681497
15701,-1475.21388905121
15702,180.1861954515685
15703,1125.7979353999901
15704,685.7085638697554
15705,-814.9336925134387
15706,-1790.7316004106372
15707,-2482.9076989697696
15708,-2658.904026240731
15709,-2820.213607985417
15710,-2917.970736656771
15711,-2823.4388932442043
15712,-2523.2757450077056
15713,-1011.1439710122924
15714,733.3680595404286
15715,1768.390821226492
15716,1789.0902721921743
15717,1427.5992057483
15718,903.2053615003018
15719,-604.4904583955898
15720,-1017.6548654857653
15721,-1929.0966049416186
15722,-1893.9728515838767
15723,-2168.0869798341582
15724,-2122.9161294052606
15725,-1307.0348385537336
15726,542.1935019484345
15727,1392.6792328263134
15728,376.2474215448921
15729,-1765.3950000783632
15730,-2634.093815780417
15731,-2973.405957737164
15732,-3060.3217659351967
15733,-3219.2454105497045
15734,-3222.0189479544565
15735,-3231.339327365249
15736,-3114.653284165053
15737,-1940.5454377318754
15738,524.8061268229295
15739,2094.6427103053147
15740,2199.3902200157313
15741,2005.575356091204
15742,1660.598848917443
15743,954.3337947826249
15744,526.7349021717138
15745,-122.13801164411134
15746,-261.1970899758323
15747,-313.8805388749654
15748,-351.16133754738394
15749,-74.26716598454988
15750,316.7917558003364
15751,383.9870166633989
15752,-789.0844991843069
15753,-2413.567375313909
15754,-2906.1647622313426
15755,-3064.1323983531247
15756,-3181.7162172563426
15757,-3275.161255414084
15758,-3337.153470294803
15759,-3352.488177716672
15760,-3281.7226168879088
15761,-1623.206479614889
15762,789.584933614518
15763,2381.724442572932
15764,2501.491852033074
15765,2297.8916054486167
15766,1875.0206032713843
15767,1295.5527716445415
15768,896.8740660134915
15769,246.9586402926906
15770,103.66140443977669
15771,-79.04783813794847
15772,-253.93353275707867
15773,-219.66579395718227
15774,37.91062694634881
15775,46.24047670495345
15776,-1612.8735605694073
15777,-2880.3063146676054
15778,-3216.1826382418108
15779,-3311.124430593936
15780,-3364.4211105129393
15781,-3409.612537398724
15782,-3390.993087384388
15783,-3388.4233492547787
15784,-3378.595581417164
15785,-2409.787337897271
15786,303.1341074461113
15787,2226.458057216029
15788,2332.2251630468527
15789,2051.056409317925
15790,1451.1386406797312
15791,552.3548246452892
15792,389.0687911419602
15793,37.73701669761357
15794,22.39931293016327
15795,61.401091824849395
15796,177.1211849191174
15797,787.1096955568256
15798,1468.0259529676184
15799,2166.8055128723327
15800,1906.0524879334423
15801,-393.6101283867066
15802,-2055.592050873651
15803,-2493.0514135401404
15804,-2333.494972552298
15805,-2379.309703127593
15806,-2593.8456981492855
15807,-2501.5757787045413
15808,-1791.8476905070136
15809,14.577002385076995
15810,1442.7658544931237
15811,2715.384881477824
15812,2697.139500786504
15813,2515.135001839581
15814,2075.301568941939
15815,1339.5096012454853
15816,890.0514047990356
15817,315.2904351237482
15818,105.51387845835896
15819,3.8944473967241535
15820,151.4100532056155
15821,642.8239199308739
15822,1677.0470631037795
15823,2277.6840812793607
15824,1799.388441294189
15825,769.0090107975194
15826,-755.3293470194336
15827,-1690.2800375262498
15828,-2022.9681647985924
15829,-2102.906051972545
15830,-2465.194854527335
15831,-2369.4039274325232
15832,-1649.6148005267455
15833,23.441427454046313
15834,1621.566453824105
15835,2807.078132404126
15836,2775.2070300897085
15837,2464.186265295433
15838,1876.8306806852966
15839,935.0055534957879
15840,474.4951026043691
15841,30.951236190354543
15842,-153.6751452722627
15843,-329.58233577805794
15844,-147.51001822832865
15845,522.1939070264856
15846,1433.1938713815387
15847,2125.733950296794
15848,1589.9172000263513
15849,701.8566154800714
15850,-1054.999381451674
15851,-1942.9897366522928
15852,-2256.4420354341496
15853,-2172.3697887598437
15854,-2224.530347681555
15855,-2129.64747677122
15856,-781.5858511932802
15857,432.9638284348899
15858,1467.0403374461944
15859,2519.593293536772
15860,2412.509489041006
15861,1841.9772422975032
15862,1316.712923550459
15863,238.6076332259986
15864,-39.38457099835404
15865,-553.5022505719803
15866,-966.3550500237626
15867,-1143.8460057417465
15868,-835.2131113492926
15869,127.19939202998586
15870,1088.810315315018
15871,1558.5213177119856
15872,940.2878217367512
15873,-707.100685771938
15874,-2191.942664775602
15875,-2582.096144788508
15876,-2475.1451671989835
15877,-2688.1766266300324
15878,-2503.052863738946
15879,-2570.967414684668
15880,-1762.144437608864
15881,277.26646956601365
15882,1608.4835884933327
15883,2643.460321093515
15884,2677.907488295349
15885,2562.111550190919
15886,2213.3330816400708
15887,1583.8174563124874
15888,1290.780708025085
15889,568.742742693873
15890,433.5845232069865
15891,344.86586460317994
15892,440.6356638751269
15893,845.862733646412
15894,1708.2250518451085
15895,2147.010415407305
15896,1487.0704882668645
15897,-147.92931406601838
15898,-1476.3408286321414
15899,-1942.5725733594184
15900,-2224.6276724423656
15901,-2599.467428050652
15902,-2663.163641469284
15903,-2456.6052778090184
15904,-1900.208124601939
15905,66.18266255204935
15906,1495.8461751327693
15907,2720.46952020511
15908,2778.6980986063368
15909,2572.8323538937043
15910,2146.8663104862508
15911,1513.4458838712244
15912,1123.861503398554
15913,802.6419096861265
15914,513.3045495535589
15915,331.44094048976115
15916,256.260731588924
15917,341.8309690902966
15918,618.6712161271751
15919,778.8947805906206
15920,390.1740063060566
15921,-821.9096649662006
15922,-2328.8238042725693
15923,-2865.147286611547
15924,-3087.5684320929818
15925,-3212.952998850594
15926,-3290.5022216034527
15927,-3335.8472148053747
15928,-3192.9749352931553
15929,-1777.2056701154324
15930,533.6431048330592
15931,1786.322957737672
15932,1747.8389511881687
15933,1372.64416617431
15934,888.1204270998138
15935,-605.786409910195
15936,-825.9077609378309
15937,-1501.2519936415958
15938,-1811.307734994997
15939,-1834.5189413200962
15940,-1838.3533186675834
15941,-1557.716253705402
15942,-1449.0511466061594
15943,-1226.0823331638942
15944,-1117.9630654423675
15945,-1827.3723981887317
15946,-2223.1197871136574
15947,-2948.3868965490587
15948,-3129.9805052958413
15949,-3185.776683556519
15950,-3283.5249262774337
15951,-3276.8900752110753
15952,-3010.0619450300305
15953,-1230.4563450185776
15954,746.8392348420035
15955,2159.599772629639
15956,2157.393429412296
15957,1926.8055041590972
15958,1431.3523133235717
15959,490.4276576325609
15960,-228.19932570618235
15961,-1141.2141532127232
15962,-1230.1441435316508
15963,-1320.9194803020614
15964,-1168.8489112811783
15965,13.66271537397791
15966,1160.430772783847
15967,1903.632905180221
15968,1819.7075076348265
15969,1150.0792977350582
15970,-278.1423500225391
15971,-1285.15230367301
15972,-1629.407580531662
15973,-2002.9430659789803
15974,-1962.5982808387423
15975,-1981.1748342594033
15976,-1428.8206756917664
15977,-562.7655952099334
15978,741.3963814947966
15979,1790.95106482794
15980,1732.5715656158147
15981,925.6206550109315
15982,-285.37311631383545
15983,-1148.0067503820896
15984,-1794.5402842590968
15985,-2447.693949160171
15986,-2721.04249566113
15987,-2818.6219656784124
15988,-2676.362160300237
15989,-1556.1919976536985
15990,633.8436444171068
15991,1316.392271167941
15992,870.8555672998305
15993,-799.015468387207
15994,-1912.7251915794557
15995,-2511.3382560480486
15996,-2648.267826384614
15997,-2870.5633241687788
15998,-2993.0246627649753
15999,-3009.4933889036856
16000,-2473.1358502183034
16001,-509.33617205407415
16002,1174.9716489206003
16003,2102.3909063493966
16004,2109.998970136951
16005,1523.8843533046556
16006,555.058911394513
16007,-577.7708569863839
16008,-1349.0969876858023
16009,-1992.2580391054432
16010,-2038.0120384902382
16011,-1782.6935799316757
16012,-1864.5645903433617
16013,-835.1912975110171
16014,727.4003682761532
16015,1332.6620068863526
16016,1050.0418067328403
16017,257.38190085859196
16018,-696.9672842083177
16019,-1544.2377008785863
16020,-1868.8221951286803
16021,-2002.5646681884243
16022,-2250.198478677133
16023,-2279.4143596624554
16024,-1931.505987712757
16025,-937.2493400873876
16026,587.9181741607686
16027,1655.6117689993252
16028,1736.9603345006465
16029,1147.1140224940907
16030,812.7168474507109
16031,-165.34074398751142
16032,-370.06360893726173
16033,-1016.8945631923019
16034,-898.0926463745615
16035,-1123.2649339001039
16036,-722.065132588425
16037,271.26545715888614
16038,1540.213444124175
16039,2197.2705913240775
16040,2043.2328640362691
16041,847.1757111409571
16042,-1204.3371248610806
16043,-2017.9658581882402
16044,-2204.7257165236488
16045,-2412.1131422827384
16046,-2330.2786530828907
16047,-1941.011580958657
16048,-1110.6806127381426
16049,916.3210241828217
16050,2173.9870112389403
16051,2826.367546134813
16052,2873.661671668148
16053,2808.2145747425293
16054,2548.8553268032706
16055,1944.357772783846
16056,1675.5700199176829
16057,1020.899549732833
16058,779.4841886774985
16059,609.7282687845566
16060,696.4377103492762
16061,1020.2128559093869
16062,1860.6227293839056
16063,2301.999560888411
16064,2100.634637649042
16065,1580.974065379434
16066,765.3841339005119
16067,245.73506391378876
16068,-180.14152276988162
16069,-1151.132074539715
16070,-1185.529649120618
16071,-852.7473552747414
16072,-283.1884385290468
16073,296.3865329581157
16074,730.2914767560322
16075,1513.1633285871485
16076,1300.3750143585646
16077,706.043000813406
16078,379.2257438612951
16079,-354.83655689127795
16080,-777.7480984047563
16081,-1602.9269834865004
16082,-1828.796395084236
16083,-1903.9971809984556
16084,-1660.820963258668
16085,-1176.0421379204247
16086,-351.0837720131178
16087,126.08409466903797
16088,831.7628187643518
16089,431.3757243378793
16090,142.42218327953327
16091,-185.20996633649585
16092,-291.43217730779406
16093,-448.78295170792853
16094,-1177.6604228098988
16095,-913.6525118817486
16096,-128.21444655808477
16097,665.688330563933
16098,1596.0211386882163
16099,2383.1794000460163
16100,2316.3615311899343
16101,2053.814389027185
16102,1548.5162118762419
16103,818.3493419515863
16104,337.184824539015
16105,-524.0109999466548
16106,-791.4334584232913
16107,-1005.7713084187077
16108,-1145.522785384874
16109,-1141.6054975504542
16110,-801.1174593313699
16111,-489.93138257712553
16112,-610.749765664443
16113,-1217.83897438501
16114,-1593.4838652825656
16115,-2446.659837569826
16116,-2764.745328562136
16117,-3046.8317603398077
16118,-3152.232800107439
16119,-3018.4596337386533
16120,-2083.50115712074
16121,-126.13585131846054
16122,1296.2219028013894
16123,2353.3739123581204
16124,2318.655026023547
16125,1979.0879295869424
16126,1608.459364506133
16127,1003.7961756159784
16128,673.6776737093577
16129,77.71495959147678
16130,49.29686411902404
16131,144.12714904741796
16132,369.1860624132827
16133,977.0454513314918
16134,1838.0263848649245
16135,2353.123834957494
16136,2457.758549746905
16137,1986.9856408564626
16138,895.5749245959788
16139,-209.9103129608969
16140,-830.1970318839202
16141,-1340.180156886746
16142,-1581.0542291490328
16143,-1217.8062667493787
16144,-221.93608165366996
16145,1166.8888811040315
16146,2000.485174078941
16147,2580.362204125791
16148,2413.6801682471796
16149,1850.8640741562085
16150,1131.2787866874637
16151,616.8236239896083
16152,217.0025945648723
16153,-278.4944567409948
16154,-414.424251465693
16155,-557.7261430432728
16156,-397.5206202631682
16157,225.20172175912026
16158,1508.2288999208783
16159,2188.6931872437876
16160,2080.945365203742
16161,1591.3111786576294
16162,985.1852370153821
16163,264.27411642212945
16164,73.8965466149911
16165,-382.42511550890316
16166,-510.9899080943884
16167,-399.97128252485055
16168,244.94867515821684
16169,881.2016251892937
16170,1940.4286383462918
16171,2517.9429218143655
16172,2253.963063799704
16173,1612.822594205953
16174,795.236865124337
16175,-59.65717587745012
16176,-528.1307939542793
16177,-1396.8247843595266
16178,-2095.1624851769307
16179,-2111.2446997168895
16180,-1911.4037057290607
16181,-1109.8744809690297
16182,334.73190284788916
16183,1229.9733611288189
16184,1264.2966735056136
16185,411.2338456683838
16186,-915.4450500385767
16187,-1542.7639334136463
16188,-2113.1335658366515
16189,-2555.0989920322404
16190,-2702.3085442119864
16191,-2554.5187104281963
16192,-2089.4381970843506
16193,-59.4450684387533
16194,1847.000934448103
16195,2563.3858643625626
16196,2497.1146959951534
16197,2272.2782261737493
16198,1742.349047670348
16199,989.9370023892774
16200,431.5457260823068
16201,-241.42549879056182
16202,-605.2307587540038
16203,-563.7543875071792
16204,-533.2579449748973
16205,56.591699804302884
16206,1040.7964000647005
16207,1651.2412415097863
16208,1528.1268393647822
16209,67.60925312089604
16210,-1510.2737654273642
16211,-2323.4965471850646
16212,-2544.0531646159175
16213,-2644.7868652241373
16214,-2800.6584771000194
16215,-2877.298888606355
16216,-2845.804983088857
16217,-1637.2316888642133
16218,517.1437645203598
16219,1884.6418488630763
16220,1787.0605660831459
16221,1346.0659537817146
16222,754.7512611276162
16223,-17.503648109756817
16224,-574.1790276764691
16225,-1202.7206426868956
16226,-1096.116640013467
16227,-1215.6234780027025
16228,-937.1339093605459
16229,231.5817101387795
16230,1370.8406560173212
16231,2018.5121812634522
16232,1514.857472737522
16233,-424.9997632959496
16234,-2023.743721553126
16235,-2542.444784644942
16236,-2686.3485456317994
16237,-2783.1451824487976
16238,-2846.9691532777456
16239,-2828.5342539948856
16240,-2032.0391210201585
16241,434.1621826068434
16242,2118.352909485109
16243,2556.567781461851
16244,2548.650304129354
16245,2250.8809243859837
16246,1722.7401956328047
16247,1046.662176174852
16248,393.94058276370515
16249,-288.02815972586006
16250,-687.4265356907193
16251,-825.304726816208
16252,-629.4119782840852
16253,-52.61831306494259
16254,401.3795505759374
16255,963.7011990125955
16256,974.6634105949586
16257,-198.11806123344925
16258,-1803.5837362575696
16259,-2648.268854578013
16260,-2832.9646975615588
16261,-3003.7568776271614
16262,-3034.7712512742564
16263,-2879.425758480533
16264,-2081.4970081666847
16265,174.8826417503867
16266,1716.8947190382228
16267,2524.953973235305
16268,2411.077415220923
16269,1930.9898996248564
16270,1542.6552090679586
16271,663.7156687761127
16272,-127.34526460717791
16273,-734.0661414695262
16274,-1062.0690925336223
16275,-974.9909039712621
16276,-855.0906632247345
16277,-562.7143810266776
16278,-310.2346998316616
16279,61.1144459061945
16280,-13.198376160230076
16281,-1455.869631969865
16282,-2706.460708898734
16283,-3148.887173319263
16284,-3173.8958750507327
16285,-3142.621772501157
16286,-3177.920484304119
16287,-3181.8891133087227
16288,-2479.600484452514
16289,-313.98091525012774
16290,1633.4538439641594
16291,2383.13515241975
16292,2432.6593914449695
16293,2231.080970135206
16294,1582.1430098460314
16295,846.2647115125193
16296,588.7433895926721
16297,-1.9686111649879763
16298,-365.52780585739765
16299,-318.02839923252253
16300,-70.39980914178554
16301,757.8565642378893
16302,1742.1170400020944
16303,2284.957390106211
16304,2305.488295109527
16305,1021.21725343375
16306,-792.8563897218813
16307,-1700.0073017866416
16308,-2017.1059377409604
16309,-2266.0953011535744
16310,-2195.909851638571
16311,-1747.4206697366717
16312,-509.6307667300098
16313,1113.4469286553017
16314,2354.2528334656963
16315,2839.5220464943313
16316,2812.5385456030276
16317,2389.8947009025246
16318,1622.4882871681123
16319,901.3114466889247
16320,526.9340836157623
16321,18.800198715776958
16322,-231.21222611262854
16323,-384.2854591846044
16324,-281.33626297027627
16325,156.28923791742906
16326,1260.8995941621147
16327,1985.3791127187521
16328,1756.0799087968564
16329,724.1326735755346
16330,-898.4719460921099
16331,-1795.614317829186
16332,-1965.0821277149978
16333,-2065.6933643342595
16334,-2173.8834725455577
16335,-1955.2376100763172
16336,-652.6270972948596
16337,440.98964523828596
16338,1823.2499993684637
16339,2538.9977738450943
16340,2301.0498679576417
16341,1840.6476498779818
16342,1196.1558133302137
16343,499.69936457384665
16344,39.66842754151621
16345,-492.63340970031186
16346,-555.6482432961124
16347,-474.5671418665336
16348,-238.33603049968522
16349,524.3797009835524
16350,1741.3610051854855
16351,2303.9255760624396
16352,2157.206265856432
16353,1219.634828483824
16354,-191.44017873112875
16355,-1429.8341754628352
16356,-1698.0576336211464
16357,-1785.866649617363
16358,-2003.7711879278738
16359,-1907.4559104989453
16360,-511.82218656307407
16361,926.0859641779549
16362,2336.456744089702
16363,2806.3072323867677
16364,2806.550503744613
16365,2410.6035477421487
16366,1991.7612992117233
16367,1118.6780213211068
16368,514.946957876634
16369,-70.24503603259382
16370,-268.35132631653204
16371,-374.52609123366784
16372,-279.44921106904343
16373,393.1309940363671
16374,1498.2785478078226
16375,2136.941200729409
16376,1958.268874748004
16377,958.6131095938839
16378,-892.0015699859598
16379,-1971.5709383843653
16380,-2067.3100176271814
16381,-2468.728608116238
16382,-2320.2660198488143
16383,-2031.4135184034724
16384,-742.0796037312184
16385,773.7257984122408
16386,2128.6691257572234
16387,2640.762732145894
16388,2585.0677823122865
16389,1995.4208242981022
16390,1376.0406741284921
16391,295.999906035263
16392,-44.468035942551545
16393,-615.846696310271
16394,-796.8865099534195
16395,-786.5659363432077
16396,-669.7949876301194
16397,296.40628483050153
16398,1402.184426024604
16399,2125.348955294106
16400,2125.3626537009936
16401,1694.6384750450925
16402,756.2207599785633
16403,-271.6342704079367
16404,-1428.069475450709
16405,-1951.7597496956525
16406,-2131.1715238971
16407,-2067.581300784258
16408,-929.3493844384714
16409,593.492882281099
16410,1917.788485925186
16411,2585.528141168418
16412,2468.128348588482
16413,2141.6286086288487
16414,1599.8110079310552
16415,1005.9469381024852
16416,539.994620036571
16417,-155.4619765777348
16418,-627.8752327858881
16419,-710.5722202220744
16420,-935.4229304229092
16421,-796.5040428465162
16422,-226.02461239156142
16423,375.29038903273414
16424,570.0063694519911
16425,-422.6333242294696
16426,-1771.8993619630662
16427,-2363.560496194033
16428,-2466.400953810963
16429,-2601.7151401759825
16430,-2784.377760489691
16431,-2685.8229212500773
16432,-1765.8081304571854
16433,-157.61617224340247
16434,1422.1736566127418
16435,2130.141094679928
16436,1985.4503561492218
16437,1704.5230571311747
16438,1408.8861517376795
16439,838.614616041507
16440,777.5191242767302
16441,33.49884546093571
16442,-95.63980597132206
16443,13.532197084507438
16444,-37.16023866063754
16445,53.54493535369115
16446,95.6433249225686
16447,364.5313109506657
16448,432.08511360634753
16449,-602.8992473665085
16450,-1415.0530847348648
16451,-1997.8686006665505
16452,-2376.222732220419
16453,-2402.1885259929963
16454,-2243.720279503341
16455,-2272.210434736446
16456,-1727.6129149934422
16457,-68.67592390934593
16458,1315.8040713070516
16459,1839.1564716721987
16460,1614.7252690942757
16461,1566.1924345186578
16462,1248.1844583360864
16463,203.26351248006816
16464,-638.8410419229776
16465,-1728.194108031404
16466,-2048.0464535975484
16467,-2276.482239494305
16468,-2264.3528389669177
16469,-1940.0863432450299
16470,-536.3905433219287
16471,958.3383220839312
16472,1652.4621848955394
16473,654.4791026848603
16474,-1084.3039518426717
16475,-1708.0777917173898
16476,-1891.3970670168085
16477,-2064.412149025578
16478,-1930.4957554166322
16479,-1810.909900353006
16480,-869.7974653825806
16481,1009.8610718840644
16482,1903.791962326968
16483,2364.8046286885733
16484,2387.4390438465284
16485,2225.417317840363
16486,1609.9244551924578
16487,735.6706317281279
16488,176.65750134370475
16489,-704.908970308653
16490,-929.5609165816492
16491,-1300.5509208667718
16492,-1449.6611032112482
16493,-1256.53100285893
16494,-345.0847752727431
16495,912.292429042213
16496,1478.366785215807
16497,1322.0781076554345
16498,795.13836642364
16499,134.68232162320277
16500,-384.95770820973615
16501,-606.064908417599
16502,-403.7923280158649
16503,-190.41139976283063
16504,190.85591260984867
16505,767.1036522032057
16506,1139.4897913270163
16507,1603.2026018157435
16508,1762.748443742362
16509,1658.0929525627205
16510,1002.4238946402536
16511,-25.55278370071013
16512,-1176.7580799634643
16513,-1909.087903546782
16514,-2049.3666027100617
16515,-2122.1703756055454
16516,-2069.9504420873413
16517,-1477.7698059228721
16518,-588.2810285593828
16519,841.1297486952474
16520,1519.471458360677
16521,1074.0615452197044
16522,478.6660880027626
16523,-640.1507518528203
16524,-1150.7682878055932
16525,-1184.7550589348157
16526,-819.316646129179
16527,-485.24317361779583
16528,434.25882506460584
16529,1389.0463811605323
16530,1974.6976337742733
16531,2372.148074962281
16532,2479.0149910221235
16533,2366.452934473303
16534,2119.8755176680556
16535,1276.6139619555377
16536,475.59732178903477
16537,-313.01238770538083
16538,-892.2759054107737
16539,-983.5284338924786
16540,-962.1977742823003
16541,-789.6779379589756
16542,202.76731404158585
16543,1403.0489796778065
16544,1658.2222403583744
16545,1193.1845009301205
16546,591.3823202221248
16547,37.617279688905796
16548,-203.42030052309175
16549,-359.018891796654
16550,-450.7767498234114
16551,-261.85268110725565
16552,490.95459855865306
16553,1463.1461154197868
16554,2028.5889450173715
16555,2414.7530698348364
16556,2421.6250549743654
16557,2285.473799941893
16558,1849.5183585075617
16559,699.5194325650976
16560,111.75456769874549
16561,-585.6095012936535
16562,-793.822693174594
16563,-973.8727898340961
16564,-1090.0934479590255
16565,-1038.8500587197
16566,-904.0791473179003
16567,-554.599383646426
16568,-302.5441978227886
16569,-359.89340003090723
16570,-863.6975551862703
16571,-1469.4771869345907
16572,-2010.8172307061948
16573,-2163.58101327222
16574,-1810.603725924324
16575,-1717.6263632797902
16576,-371.3819417459147
16577,358.0874732054704
16578,1679.0137709413868
16579,2330.4562019052923
16580,2519.805842627011
16581,2471.37532001609
16582,1970.615568424733
16583,1283.8179031481566
16584,744.7251719315149
16585,-3.643394775015871
16586,-143.0027763979666
16587,-396.8761353465682
16588,-632.9198125459235
16589,-456.91400833955527
16590,-69.66170603855676
16591,406.84111581200057
16592,509.9788266951331
16593,-12.866196492298904
16594,-1629.67526916644
16595,-2444.2862789635437
16596,-2681.0959595086115
16597,-2571.3108371816365
16598,-2462.518069320407
16599,-2455.7915977205125
16600,-1374.9477206159702
16601,412.4944421788041
16602,1761.4875536479904
16603,2265.854235102996
16604,2390.6593581300126
16605,2241.522798739141
16606,1780.8125921441003
16607,911.8629301501581
16608,435.12021179974477
16609,-346.2068481741562
16610,-726.7489748920293
16611,-937.3517540032174
16612,-1114.3970496490674
16613,-1063.9123856618114
16614,-845.1179632713407
16615,-762.9557642851565
16616,-1079.3801316829672
16617,-2049.419863842458
16618,-2597.684033974739
16619,-3065.914890401304
16620,-3064.666816644038
16621,-3101.9001660815343
16622,-2986.4546371105366
16623,-2851.2653409248587
16624,-2020.6828039646064
16625,-229.57200911683722
16626,1204.2816094793895
16627,1963.765274428343
16628,2067.5088007518734
16629,1943.3633293767537
16630,1484.907024016445
16631,686.051371375636
16632,304.7644344924827
16633,-645.3157842145814
16634,-1010.2508733057856
16635,-1012.7729857238184
16636,-1226.174229640501
16637,-1072.971080057482
16638,-241.04835360946615
16639,1133.3442774183893
16640,1775.889697482385
16641,1407.560633165373
16642,502.77324281558504
16643,-627.3805234825803
16644,-491.96621207287524
16645,-941.2758188428849
16646,-1155.720759631179
16647,-661.5024490272687
16648,165.44465452452988
16649,1421.8628606567677
16650,2040.5963149581003
16651,2473.453651798731
16652,2426.999670919864
16653,2241.7631460778857
16654,1827.3733619396305
16655,816.6909979761376
16656,472.2676581574015
16657,-227.10089445987708
16658,-591.1105926466062
16659,-681.4196491941028
16660,-559.5035464488341
16661,-429.7389574504262
16662,399.89120945219474
16663,1432.3764721660689
16664,1832.3791555796668
16665,1181.0535463042065
16666,161.84362697029837
16667,-390.70131229179856
16668,-470.6030377548925
16669,-468.3842799944732
16670,-586.8080374790651
16671,-494.659566403716
16672,174.97234279842988
16673,1369.176111474458
16674,2306.9467461532045
16675,2757.984581547747
16676,2736.212787418198
16677,2636.081999687078
16678,2358.581439298965
16679,1613.1059879229863
16680,1057.55642998599
16681,424.6089889371945
16682,51.144897948391204
16683,-138.29852093602364
16684,-146.80072733297797
16685,-58.80120397133947
16686,617.6446555580582
16687,1617.888735539217
16688,1854.93054184566
16689,873.6957180813962
16690,-174.87678226336962
16691,-972.7918676515789
16692,-1213.8214845646078
16693,-1642.065125051573
16694,-1544.421237800231
16695,-1082.333092423973
16696,-485.4041896230724
16697,854.8428288182768
16698,2242.7311162865826
16699,2662.0462187510934
16700,2691.584990003436
16701,2548.5937068814987
16702,2079.5528814754534
16703,982.9152602249166
16704,691.9618556244595
16705,-6.774502268750091
16706,-325.44022871349193
16707,-407.42965016345755
16708,-487.5825819966291
16709,-370.5377658938412
16710,185.75536080700155
16711,1330.487145561151
16712,1609.8088965505067
16713,713.0711364434591
16714,-297.9309943143462
16715,-1198.7536968704712
16716,-1176.7102077771283
16717,-1543.1159783407631
16718,-1739.8515217531028
16719,-1051.1376457357474
16720,-107.09883107911241
16721,1514.5952563962771
16722,2252.761247095495
16723,2594.6328057462256
16724,2670.751755467148
16725,2532.4699851843184
16726,2108.1788925381607
16727,1313.1831493324805
16728,645.6790086895238
16729,-97.29269651412119
16730,-177.4825194397312
16731,-261.3861750263634
16732,-422.39609612571013
16733,-206.06710793302594
16734,445.3776415271521
16735,1506.2917019654687
16736,1856.3704316281933
16737,1447.484829337888
16738,665.779026704753
16739,-184.2376043106619
16740,-288.0421924102669
16741,-330.82988626531926
16742,-453.4788594011734
16743,-259.2596716694285
16744,197.31759274067545
16745,1235.8753341904765
16746,1999.3148273566494
16747,2391.4701556444056
16748,2378.9621761265776
16749,2170.894115830078
16750,1810.2328938886262
16751,932.876752141509
16752,289.0401507804862
16753,-266.8471345180019
16754,-418.9190522153318
16755,-471.00670718211586
16756,-490.38744024042535
16757,-478.7842186999303
16758,-325.1244489756559
16759,-106.92105084701868
16760,214.94877656456805
16761,342.5657551558256
16762,-224.2014974828198
16763,-1609.9376163439485
16764,-2512.2137057114264
16765,-2441.576271741941
16766,-2775.630613473379
16767,-2738.233930506701
16768,-2027.884133028944
16769,-148.42381296671647
16770,1397.8704694836722
16771,1927.8515853335455
16772,2005.4519466411014
16773,1756.8598549421629
16774,1188.430682462336
16775,587.9004460024613
16776,-79.64766638568776
16777,-807.1560815806
16778,-1015.7251342267967
16779,-1143.6315668655664
16780,-1459.607304834695
16781,-1507.2727703212865
16782,-1378.0549721131551
16783,-1445.9773668036964
16784,-1440.3927354015675
16785,-2211.026784411862
16786,-2827.5943473062957
16787,-3091.496886617819
16788,-3120.457522081648
16789,-3112.5376313538445
16790,-3108.8478997684892
16791,-3019.9987999568175
16792,-2543.8188901474505
16793,-276.6890808623255
16794,1408.6097749996063
16795,2031.424921566841
16796,2279.9496692588773
16797,2157.6902364238204
16798,1708.882431598497
16799,1001.8828583788506
16800,465.2614718489348
16801,-506.4182828435113
16802,-846.9395198368862
16803,-1367.7337693238164
16804,-1247.737342419198
16805,-804.9529390248216
16806,-189.7963146702319
16807,963.5890489337729
16808,1582.507917754183
16809,308.99887570843396
16810,-1470.414290307218
16811,-2520.6698164098675
16812,-2599.31595450034
16813,-2723.6320926014128
16814,-2782.7303478200342
16815,-2699.4467823038244
16816,-2086.8231446702584
16817,299.6558921102571
16818,1741.4091703573674
16819,2317.55829156566
16820,2300.8145681896067
16821,2068.888198546354
16822,1240.4697262110938
16823,115.5102738812413
16824,-919.4379582282867
16825,-1791.464055978952
16826,-2141.2284106336197
16827,-2383.706736152497
16828,-2601.6272113542177
16829,-2283.776407536024
16830,-1282.0271977482737
16831,455.01981961133293
16832,965.6769365532792
16833,-896.5194693019405
16834,-2154.4464866436397
16835,-2656.830633395967
16836,-2844.4219259102388
16837,-2880.0644923499476
16838,-2874.4797268682805
16839,-2761.1688475159585
16840,-1811.9618404676603
16841,681.7292370746902
16842,1805.6421387158553
16843,2234.098834368144
16844,2345.593418308476
16845,2146.6654290295323
16846,1814.4301354258932
16847,1242.9972099300367
16848,815.5992078380444
16849,23.21290592527705
16850,-347.2520874175141
16851,-451.9048044646347
16852,-581.8536011738579
16853,-454.25845721047256
16854,271.01797537249575
16855,1337.7071586575337
16856,1767.8074299538043
16857,1563.4068440928834
16858,988.7504641290977
16859,476.51645900019844
16860,116.64828366740332
16861,131.88656396391642
16862,-67.88175665107883
16863,22.497957659102546
16864,438.93408674232984
16865,1015.7149212121758
16866,1512.0291666153294
16867,1793.188497809904
16868,1952.432924468947
16869,1494.028752915158
16870,977.3283569473966
16871,119.08318340541719
16872,-152.45760123491337
16873,-848.6473253560307
16874,-1229.705837563699
16875,-1426.1316698326953
16876,-1356.7423272986132
16877,-1016.1279718121956
16878,-384.9565866586899
16879,933.9458605356571
16880,1602.635495636821
16881,1520.4869238720864
16882,1083.3085738975308
16883,429.56809190666263
16884,19.705511081958164
16885,-34.08682558504267
16886,35.02766425880538
16887,198.44957696420354
16888,678.6120143090731
16889,1488.49645621032
16890,1894.2583219644123
16891,2168.7219583180754
16892,2202.7275475485358
16893,2081.3756827690268
16894,1726.6939823411635
16895,942.71332177971
16896,366.5665507155185
16897,-267.00107799915855
16898,-637.7026479812259
16899,-944.2140154203868
16900,-1055.6105217798552
16901,-853.4836092541758
16902,-77.29549824984235
16903,1160.3248903291371
16904,1700.5269757455587
16905,1616.300977056844
16906,1094.216726072799
16907,367.87585992828576
16908,-86.58571915938899
16909,-369.0360158341342
16910,-345.7663360137848
16911,-177.8032862553233
16912,290.5592284016591
16913,1197.5201840473462
16914,1790.9570455700002
16915,2160.665064048423
16916,2143.916350304796
16917,1916.5672915661846
16918,1424.9840614015677
16919,611.3573387108512
16920,140.36001829737057
16921,-581.3936154454912
16922,-1010.0669658736423
16923,-1102.24263547947
16924,-1155.3128636491954
16925,-1155.9121271050524
16926,-933.0825241242313
16927,-638.6168435401195
16928,-184.721817993251
16929,159.29711952134957
16930,63.080515027046175
16931,-439.6672843397599
16932,-671.1669788593572
16933,-708.2015046840417
16934,-637.3818239372304
16935,-414.95352709330183
16936,103.03379777995127
16937,1064.1588428398418
16938,1854.1099718054961
16939,2290.453529901008
16940,2328.4972260332975
16941,2246.907844498319
16942,1811.0401950376217
16943,1154.132353358027
16944,533.4938338961165
16945,-495.973904312203
16946,-1022.807037980781
16947,-1221.3483182268653
16948,-1314.98619307946
16949,-1203.5650493872197
16950,-1194.7259891222068
16951,-943.9796666750735
16952,-419.94582158195857
16953,-470.2313584538589
16954,-1023.9873659560491
16955,-2067.270668148066
16956,-2408.7238211387476
16957,-2158.191358626285
16958,-1977.825533176442
16959,-1595.7963455385016
16960,-537.1302915817811
16961,798.6295145674067
16962,1649.4662667829257
16963,2298.072314292452
16964,2293.6131828643815
16965,2238.4314331315504
16966,1930.4999315709495
16967,1128.216681533269
16968,711.5269299410782
16969,-234.04250873646228
16970,-617.6494523517403
16971,-870.8735604634675
16972,-793.472714974404
16973,-527.510154645542
16974,299.84517829656363
16975,1528.7825515449947
16976,2195.1290553983713
16977,1904.0252322367728
16978,653.7968636654692
16979,-310.2386956960049
16980,-559.7051689777545
16981,-696.0031834050878
16982,-667.8120371206542
16983,-444.06842410184964
16984,375.9254436947997
16985,1754.3366433728308
16986,2446.1661424055114
16987,2823.2330418863135
16988,2813.2860871672087
16989,2744.0772476380616
16990,2325.001398599684
16991,1633.9430566386127
16992,1070.5299109471416
16993,228.50103697378182
16994,-308.4395644599162
16995,-579.9958828293974
16996,-576.445766213408
16997,-418.0893075515421
16998,287.5449730705015
16999,1420.148943963378
17000,1915.1403584008426
17001,1477.4421377184751
17002,723.3016096363413
17003,-162.4048007814237
17004,-763.0041761656676
17005,-1010.0292227177475
17006,-1263.9597885674943
17007,-1495.8440469447191
17008,-455.10034139803906
17009,506.0228054386706
17010,1682.5595963383423
17011,2139.438384127265
17012,2016.9072753946245
17013,1665.8075022411153
17014,981.7425920406156
17015,240.34340473167813
17016,-667.8959149863048
17017,-1380.3691135543525
17018,-1900.0220158168306
17019,-2135.458552229588
17020,-2344.3164001812506
17021,-2555.7850216576508
17022,-1831.7906908127402
17023,-97.3159364888065
17024,576.6178405875431
17025,-251.1545790628907
17026,-1200.5263948308238
17027,-2122.644261513927
17028,-2388.3698692911
17029,-2563.7926753522443
17030,-2675.7361520444315
17031,-2486.760826120451
17032,-1381.812774934671
17033,1053.7842279677789
17034,1729.3413428709214
17035,2146.333742933805
17036,2291.418325487478
17037,2263.7635907701406
17038,1638.5827496146883
17039,600.834988946095
17040,-1004.7771805640738
17041,-2036.153334816591
17042,-2416.4867544245712
17043,-2582.2834082144223
17044,-2721.051765973971
17045,-2749.329716779544
17046,-1962.8197151427596
17047,114.84340304615586
17048,911.0268364493382
17049,541.0234215777323
17050,-1022.3544084307674
17051,-1783.656620407784
17052,-2299.0254222085023
17053,-2476.37445060673
17054,-2444.2298399098845
17055,-2085.7032767323367
17056,-1443.9486460246874
17057,382.68368713269854
17058,1042.046623428265
17059,1406.09950128527
17060,1566.567685047766
17061,1353.2543635601412
17062,498.726976230631
17063,-994.6744394446004
17064,-1423.2114940353363
17065,-2334.332882661999
17066,-2613.1719116151594
17067,-2853.8706367753234
17068,-2869.9612402885077
17069,-2485.4575283988734
17070,-1202.0113906088318
17071,704.7115405664694
17072,1518.5178976979616
17073,1427.6708696350388
17074,794.4569353037488
17075,27.183233040679475
17076,77.07828938780992
17077,-162.06717329032728
17078,76.94933937696909
17079,427.10825823561305
17080,959.648386385338
17081,1879.4122180655636
17082,2219.780241615184
17083,2579.2579996642476
17084,2548.82297521045
17085,2488.7817473240652
17086,2293.875850884916
17087,1768.8394642512242
17088,1038.3061335446728
17089,29.903494876481865
17090,-784.8479901180516
17091,-1072.8297698266713
17092,-1528.2668792191662
17093,-1535.4666281540547
17094,-1376.5204266744875
17095,-885.8171023391662
17096,-653.6518444712354
17097,-526.4905149424096
17098,-1339.336237951194
17099,-2119.607663903483
17100,-2489.18853847993
17101,-2739.233636689606
17102,-2998.425915530696
17103,-2964.318512071859
17104,-2159.7749297076493
17105,-332.98576758208776
17106,571.5610022325279
17107,1120.7372614464791
17108,1245.9203985372744
17109,1197.021966547834
17110,413.96478752725284
17111,-732.9236939943964
17112,-1341.055076370653
17113,-2448.7876612535915
17114,-2703.7123878856323
17115,-2897.851045916785
17116,-3166.5408654193925
17117,-3182.967859397906
17118,-3063.22843340682
17119,-2607.7569805798735
17120,-2385.960176431605
17121,-2679.301316550008
17122,-2806.3465910716
17123,-2846.1820867508386
17124,-3065.2335459678766
17125,-3067.777245604743
17126,-2873.983858548919
17127,-2563.021130515951
17128,-2063.8308202977996
17129,-836.4018240531617
17130,711.39967324138
17131,1234.134291523235
17132,1384.2134338531102
17133,1190.7348474278315
17134,446.5748182754676
17135,-1415.3340148986533
17136,-2525.5205784617083
17137,-3390.934913238123
17138,-3639.116985292303
17139,-3710.4967822381327
17140,-3672.8566858413037
17141,-3437.290825693453
17142,-2051.6585745396596
17143,155.6959170000967
17144,1043.94822458577
17145,1121.5418315063014
17146,915.6756904535924
17147,73.37613384379475
17148,-952.7884807431558
17149,-1324.3227451482082
17150,-1607.1165904488898
17151,-1373.144876263425
17152,-111.23754501491683
17153,1298.903080232425
17154,2073.787059504581
17155,2473.8950051627667
17156,2496.3432400974452
17157,2369.4846053091237
17158,2093.144092798826
17159,1247.6253838494101
17160,488.63298749317363
17161,-464.03703603987503
17162,-997.8989889641556
17163,-963.6578740645988
17164,-760.1245367277036
17165,-358.75328085319717
17166,435.8940494557357
17167,1694.9590785203598
17168,2275.932612009367
17169,2304.3461186054715
17170,1503.5886449693153
17171,564.5372452820302
17172,82.0606162877158
17173,-78.33466729589065
17174,-121.21092414795729
17175,172.42328527052058
17176,890.5052327924892
17177,1737.083293110865
17178,2358.168848290926
17179,2678.01943962371
17180,2670.8491506737178
17181,2549.021244736798
17182,1992.0916144092114
17183,1242.6124957471861
17184,570.5965993306227
17185,-262.81512906619264
17186,-673.9333110835126
17187,-896.9643112950586
17188,-829.1119000464423
17189,-539.9141766192769
17190,179.54551854136022
17191,1333.6881237143623
17192,1895.0011873910396
17193,1306.8856995949877
17194,412.7245342635242
17195,-516.6882388643251
17196,-836.9597755814474
17197,-1025.8145317885346
17198,-810.4932406389826
17199,-626.5280118560376
17200,117.65717691777743
17201,1489.5341708051187
17202,2535.846248614589
17203,2901.18882763721
17204,2919.524365487373
17205,2805.206558981898
17206,2397.558914582204
17207,1695.078493621199
17208,1273.9442767289972
17209,274.5146090318313
17210,-130.81708226293435
17211,-402.99781242510164
17212,-392.7026270622476
17213,-191.98041979782784
17214,617.7221086760147
17215,1810.7454699580187
17216,2243.9651326104586
17217,1684.2517785708708
17218,740.9772773793358
17219,-223.09568376654622
17220,-417.8613779872868
17221,-500.85047760354234
17222,-516.8612561872841
17223,-292.7669653802392
17224,278.50714724646167
17225,1566.8145390832
17226,2336.107378938777
17227,2783.2668904704274
17228,2847.6805625649013
17229,2653.056540892318
17230,2102.075434861704
17231,1249.830275826239
17232,593.6682291554276
17233,9.090779494010626
17234,-413.0371661471293
17235,-584.8685017695852
17236,-603.633139376527
17237,-526.9645449735019
17238,-27.889517071581842
17239,1233.3021434430027
17240,1856.4364600234674
17241,1542.1797825112153
17242,688.8538325664282
17243,23.888261144471265
17244,-415.79857601136786
17245,-554.9287597920777
17246,-387.47633862003204
17247,-100.8274748064513
17248,721.302765946797
17249,1790.6968924825794
17250,2297.7061714395645
17251,2607.2495157220633
17252,2532.492572548063
17253,2461.654383609134
17254,1996.103290778258
17255,1295.9665846178868
17256,699.1504678543068
17257,311.83336860790007
17258,-202.37719209538457
17259,-352.26711399845084
17260,-408.7890016593008
17261,-456.30122678883924
17262,-276.4643476871256
17263,79.44983159953759
17264,721.7270269904271
17265,485.72377749905127
17266,-378.7146098350734
17267,-1749.3697347182826
17268,-1992.2361765528965
17269,-1955.805803509454
17270,-2067.151850595651
17271,-1799.3522177429854
17272,-323.5556592263781
17273,1062.3535903742081
17274,1778.7970156027682
17275,2262.9890569670592
17276,2239.6255609133264
17277,2101.282725510988
17278,1719.5197652291397
17279,767.8585307606743
17280,428.460351390392
17281,-457.2826336627928
17282,-829.8768509016245
17283,-1182.8992995572464
17284,-1267.0919328066518
17285,-1228.9233930794721
17286,-986.1856032649185
17287,-652.0705637217316
17288,-171.10520955708475
17289,54.08158565909032
17290,-346.2781546279428
17291,-1440.245256298354
17292,-1616.2310869471726
17293,-1631.09006653713
17294,-807.9825282219712
17295,-350.0103114588617
17296,479.3445467738379
17297,1269.7340956796768
17298,1991.2336602382704
17299,2456.995244309747
17300,2515.4995163404724
17301,2498.522224269876
17302,2236.795822411254
17303,1517.771400022059
17304,691.2623104739041
17305,-254.33075408218545
17306,-572.8665162467609
17307,-872.6079660686868
17308,-924.0990621742624
17309,-796.0189158576349
17310,130.0629791713464
17311,1391.7650554764552
17312,1994.853548286239
17313,2062.4629758079222
17314,1612.3655505024342
17315,658.3812798083304
17316,206.8613854125469
17317,174.49721998873574
17318,104.77282059460404
17319,144.4237159267809
17320,592.8128076979857
17321,1489.0673306530095
17322,2191.1452470612717
17323,2533.6348269794294
17324,2521.9442770188184
17325,2221.2580211194495
17326,1699.6812270073926
17327,1020.1522371508188
17328,595.9317306700444
17329,-121.40377071438758
17330,-446.6802350547184
17331,-559.9449506725197
17332,-526.1631918720934
17333,-431.22303614955547
17334,91.66944139940722
17335,1327.033361880353
17336,1898.9005954371962
17337,1662.8253892710295
17338,898.2689917517743
17339,85.40196287003724
17340,-230.5488888401516
17341,-567.002782775104
17342,-742.7589892716051
17343,-175.96550841362082
17344,401.7668420783101
17345,1430.5812723863291
17346,2104.0889013120022
17347,2371.9375725568157
17348,2351.1648243998447
17349,2133.530776342105
17350,1406.9335277043872
17351,624.5326259029051
17352,94.01858976325315
17353,-577.7460681095463
17354,-1204.5551153600245
17355,-1384.03791595213
17356,-1723.295839528911
17357,-1966.1982785202692
17358,-880.4625622687714
17359,327.56276414112955
17360,1050.866847823188
17361,1095.3613988165043
17362,172.0624690055758
17363,-1395.876114142002
17364,-1946.1828932606224
17365,-1878.4060531144412
17366,-1815.8855831918488
17367,-1646.257242722388
17368,-332.67178803874896
17369,1331.2870233398553
17370,2235.317349223249
17371,2582.4978416214553
17372,2592.0809837832653
17373,2553.454256246308
17374,2233.8280788347633
17375,1472.8811925887308
17376,802.5124493562956
17377,-306.6575253698222
17378,-660.2594208482269
17379,-860.2812547217318
17380,-863.4406607802296
17381,-721.4354885881653
17382,179.38016358477282
17383,1444.6587797740847
17384,1978.1085446193626
17385,1401.1508357487576
17386,206.95408365408437
17387,-1661.9958123391116
17388,-1806.0154406458623
17389,-1814.6577905095776
17390,-1807.6777379535124
17391,-1521.8564066651948
17392,-274.5117292675591
17393,1146.5456815572345
17394,2016.9398155504186
17395,2397.833971758571
17396,2515.2277884449054
17397,2527.619754622702
17398,1903.4919524808772
17399,836.6174116847565
17400,142.3875073584023
17401,-731.191135123954
17402,-1435.1103343888415
17403,-1905.077625381626
17404,-1891.3890824496375
17405,-1449.0996390419725
17406,-856.3986616248936
17407,-314.5285515461949
17408,114.97356560651713
17409,3.581445818243786
17410,-801.140848155616
17411,-1551.1439526562447
17412,-2122.433120262346
17413,-2246.483435150625
17414,-2539.223908296714
17415,-2492.895920751384
17416,-1308.3163205746484
17417,938.8593208417822
17418,2027.2444519880826
17419,2316.337259019663
17420,2127.989211065837
17421,2227.840766938642
17422,1871.8869085343442
17423,864.9821325248055
17424,208.88926586740456
17425,-1535.5879038246956
17426,-2157.156732289349
17427,-2614.6652745633937
17428,-3034.7385315977926
17429,-3131.6107903245334
17430,-3079.4014085630147
17431,-2553.46190112378
17432,-2172.0032352610756
17433,-2166.5281352707875
17434,-2552.395429225871
17435,-3022.962199761768
17436,-3317.9795055755317
17437,-3389.160874421824
17438,-3358.2881283525817
17439,-3408.1389998196405
17440,-3252.554481173576
17441,-2332.263093152485
17442,-551.0176709101983
17443,241.32793789778134
17444,661.3861718247399
17445,553.5110803314778
17446,111.0350392624191
17447,-500.2681874813321
17448,-712.9317649603257
17449,-2013.3242952694156
17450,-2903.646098592005
17451,-2960.2359049818374
17452,-3170.5716265373635
17453,-3185.456044667762
17454,-2933.9904729443824
17455,-2548.7510417269245
17456,-2118.32865950113
17457,-2433.7045007633888
17458,-2627.2305777421975
17459,-3003.6250444995308
17460,-3077.971599571391
17461,-3158.9923158741553
17462,-3137.8387635201175
17463,-3193.352050011561
17464,-2833.192343064174
17465,-768.8632305712925
17466,884.073066102759
17467,1415.349464923954
17468,1571.3209028338995
17469,1463.743699424381
17470,1078.1174489687048
17471,-292.1954513265195
17472,-1411.9883399417158
17473,-2626.3764011855897
17474,-3068.93816310347
17475,-3193.3302342756033
17476,-3241.9573305963063
17477,-3096.9647617636783
17478,-2335.5496166864336
17479,-1117.4152560096718
17480,-158.48943032976928
17481,-559.673993481001
17482,-1955.9321309043844
17483,-2695.725676274212
17484,-2760.0620373305437
17485,-2796.6502811211462
17486,-2805.905009343026
17487,-2697.5164030406695
17488,-1499.6064147381371
17489,493.4640486935584
17490,1685.4699035042038
17491,2052.910385824458
17492,2068.700618343697
17493,2197.445200707882
17494,1898.1811843203607
17495,1401.4670340080227
17496,985.0500134814685
17497,-18.88481618706232
17498,-901.8236074061784
17499,-848.2156431054603
17500,-1168.8973240287507
17501,-847.7047390028074
17502,419.4401513231507
17503,1664.123241882731
17504,2182.243818686243
17505,2176.7657275907754
17506,1224.477843885831
17507,-155.233164232435
17508,-226.60979406742004
17509,-232.11227763662797
17510,-163.81534400476886
17511,-125.43781449752541
17512,616.633004942075
17513,1861.327710283133
17514,2437.5826605502853
17515,2798.1957064078692
17516,2815.5720105017294
17517,2791.1480409583173
17518,2502.453280692615
17519,1814.2805656907142
17520,1318.3018480653604
17521,653.9382206587986
17522,-31.343969395620654
17523,-201.5027823819207
17524,-220.38053738769034
17525,13.847209647044508
17526,797.5734030414541
17527,1829.2722796173173
17528,2509.4210292034704
17529,2275.9304414761295
17530,1317.9305145157098
17531,400.5026468641314
17532,184.92769403047336
17533,151.48295675181362
17534,173.7069051510234
17535,302.824697876415
17536,850.5482102911161
17537,2071.346730408756
17538,2633.4842169933404
17539,2970.4309782934274
17540,2908.850570181255
17541,2776.400451587586
17542,2138.8671767403307
17543,1249.3676120995483
17544,899.2368542107612
17545,403.9340114827196
17546,-52.04177388625305
17547,-199.15752768147277
17548,-239.44844035301273
17549,-162.4278631184818
17550,387.71105754114376
17551,1350.9985703410148
17552,2229.0485754294223
17553,2095.730383987628
17554,1400.436874444644
17555,862.1570690498372
17556,641.2770260356305
17557,547.7934745543942
17558,594.7864855808208
17559,703.6637097861878
17560,1164.4215362106727
17561,2079.481088980978
17562,2506.66126337238
17563,2866.821421090835
17564,2876.1994052915575
17565,2777.357978125148
17566,2258.026065702495
17567,1350.5704115327183
17568,906.748749956191
17569,405.6521531900087
17570,101.76770783082321
17571,-102.70245417556404
17572,-138.27376198045098
17573,1.8856178334755782
17574,507.15436675890595
17575,1549.8176065370533
17576,2185.593713088243
17577,2096.428724813905
17578,1467.3733662606965
17579,840.3082662619769
17580,472.8137815658547
17581,343.57546637320684
17582,282.33237079631084
17583,288.30902940128817
17584,507.15006716977314
17585,1619.8834637212544
17586,2282.2879301377034
17587,2658.7915395365603
17588,2662.3411357384766
17589,2529.8627899235294
17590,2031.8550243317675
17591,1381.2842549481165
17592,904.7736277446866
17593,407.1806991709103
17594,27.95536483925936
17595,-251.83536921958287
17596,-339.1807489689831
17597,-337.68385477056256
17598,-34.48294568912082
17599,277.2340484062607
17600,636.578630437578
17601,985.1647960437747
17602,689.9417225295384
17603,-123.03354635173059
17604,-544.9280730034667
17605,-1017.5372647613832
17606,-1101.2079316826485
17607,-940.1421331123595
17608,-221.6199210190924
17609,777.7649131971626
17610,1945.1931889715918
17611,2220.5290043147143
17612,2179.5376105153946
17613,2150.6616796316357
17614,1889.6890138098356
17615,926.3817745502441
17616,190.694947619639
17617,-722.5661394308271
17618,-1223.5040633902856
17619,-1384.0434003079747
17620,-1553.8781461863227
17621,-1697.8010142675382
17622,-1628.0146619482773
17623,-1299.351258680775
17624,-812.695364152174
17625,-1054.407190746298
17626,-2027.3179677301098
17627,-2857.094059647862
17628,-2887.2879003225635
17629,-2825.5455452066594
17630,-2517.2401484775905
17631,-2621.5621644229495
17632,-1397.4016580705465
17633,549.7250249342342
17634,1724.1200222540845
17635,2185.468383961506
17636,2224.9741828986353
17637,2291.6511368745582
17638,2128.042487642954
17639,1687.9261355904746
17640,1086.2066782708
17641,156.99960411215832
17642,-547.3840398294966
17643,-884.8796422979293
17644,-923.7054204463868
17645,-502.6356487684443
17646,552.7947837824515
17647,1555.6922159447563
17648,2040.3711620306822
17649,2016.1961404836818
17650,895.616417250797
17651,-379.5928197012102
17652,-644.2290691843176
17653,-766.7114145620302
17654,-904.0743887779487
17655,-452.91586059228996
17656,254.90149535230256
17657,1431.3740757749154
17658,2289.0587058404094
17659,2618.075743859068
17660,2670.823118700738
17661,2665.4154128066198
17662,2144.7061689737384
17663,1257.714077647334
17664,702.1111229648022
17665,115.33899647793606
17666,-314.765426831568
17667,-812.294457516816
17668,-818.3511269924693
17669,-749.5184447101961
17670,-19.925013956092492
17671,1270.6938625606192
17672,2310.5594478084727
17673,2324.576207597715
17674,1626.670610651082
17675,636.1823362523971
17676,164.41399628430878
17677,-72.34095733403677
17678,-76.78547247893772
17679,105.68635637774292
17680,635.554807135005
17681,1807.4233970473583
17682,2300.2206611715305
17683,2581.1950966581735
17684,2554.8553516270285
17685,2344.153964625424
17686,1671.584944332255
17687,799.005023132902
17688,357.0245201134481
17689,-208.88688997649186
17690,-799.685773448846
17691,-936.7460711665905
17692,-1081.236287155109
17693,-914.4099553245272
17694,-236.65984867470306
17695,1085.8439080214127
17696,1777.5619820021875
17697,1661.818699905397
17698,841.3591424732003
17699,-85.684429740144
17700,-360.3238022233719
17701,-568.7302991597556
17702,-612.2800352704159
17703,-247.29624581120234
17704,410.6914273630226
17705,1721.5087531825393
17706,2009.5049275723545
17707,2333.8837783435456
17708,2201.1091358379863
17709,1882.4297407346683
17710,1108.9326680506333
17711,193.41660290624577
17712,-650.4758327440662
17713,-2128.9994815332443
17714,-2556.582746051265
17715,-2978.8599143686192
17716,-3183.8025988566765
17717,-2985.6628344878636
17718,-1852.8920693182968
17719,-134.21117906193342
17720,970.5144552289084
17721,937.3896487979391
17722,482.8615495065997
17723,-627.0349227373857
17724,-1258.1039739035473
17725,-1457.742986865629
17726,-1439.0423757400386
17727,-1509.731475163618
17728,-559.6108856105865
17729,587.9879345601527
17730,1473.7956525573768
17731,1937.9498031786304
17732,2065.3417803311227
17733,1994.0051290591448
17734,1371.4226766082838
17735,745.990453670686
17736,178.162641318894
17737,-514.8223225273176
17738,-1226.8689765258887
17739,-1442.5785949302092
17740,-1557.4432262639373
17741,-1308.1240753331058
17742,-3.382149797022599
17743,1288.6715493984047
17744,1944.9574162509805
17745,1708.7995098887507
17746,393.1397644954136
17747,-847.0428147760724
17748,-1150.7470424519863
17749,-1411.3331353234018
17750,-1846.298743402292
17751,-1863.32254413964
17752,-406.44729424414857
17753,1193.4867478113956
17754,2147.946351658135
17755,2522.574549523894
17756,2523.8522585280125
17757,2449.5358847745615
17758,2018.7441505742343
17759,1210.11150608634
17760,268.8410630795678
17761,-521.2699923712291
17762,-1131.0522231000284
17763,-1310.573064016353
17764,-1573.133228170743
17765,-1469.9326742311032
17766,-1157.3334742184582
17767,-705.6450907232812
17768,170.80161508109182
17769,-55.921067139278556
17770,-1099.992375684012
17771,-2507.4586289778595
17772,-2926.0350066399087
17773,-2959.7061058167365
17774,-2905.864218609082
17775,-2857.332351969492
17776,-1594.8861164912403
17777,657.7705046929373
17778,2076.6197145066326
17779,2463.98520997939
17780,2520.603545502104
17781,2491.1636942738864
17782,2218.544085116964
17783,1477.431736041444
17784,689.1203648906379
17785,-220.26334397017544
17786,-1275.547095329066
17787,-2080.454660228012
17788,-2420.9053069959814
17789,-2519.410742939005
17790,-2339.2916186507086
17791,-1954.9001756820319
17792,-829.1431832267916
17793,-563.1706473704727
17794,-1963.7302541199795
17795,-3013.2861039051977
17796,-3143.2622590178976
17797,-3121.0073450974483
17798,-3200.0823738526556
17799,-3295.216430841066
17800,-3232.2734466566135
17801,-2045.5420215771335
17802,502.2156068579525
17803,938.8173940622693
17804,1231.028254091544
17805,1087.3370922146175
17806,264.4678703438311
17807,-356.59333794912936
17808,-1531.0065337443816
17809,-2654.088496763483
17810,-3233.4201952074623
17811,-3468.3903867289523
17812,-3509.2727176229632
17813,-3263.3496629266137
17814,-2219.608003986839
17815,-752.6733126895306
17816,444.94984380815225
17817,362.5951493840687
17818,-1840.4159133236064
17819,-2916.7342076743125
17820,-3074.169576339796
17821,-3155.2584833973237
17822,-3180.426802899214
17823,-3207.022463546656
17824,-2469.0786844441586
17825,-86.96790378309794
17826,1466.7834901979516
17827,1987.7268003260178
17828,2070.8307399648534
17829,2086.712786335575
17830,1679.7111447055302
17831,767.8129462830675
17832,-423.411488976392
17833,-1797.5303916762841
17834,-2627.2760382776937
17835,-2922.1337686883785
17836,-2942.3937922052546
17837,-2869.6992637012763
17838,-2581.0255540122494
17839,-1150.212544935859
17840,64.0335540861467
17841,232.02024762678775
17842,-1638.6733675777505
17843,-2841.177382288753
17844,-2988.1669935163363
17845,-3008.847634347193
17846,-3060.094006856028
17847,-2975.3688779282097
17848,-2413.2563921564956
17849,184.58773285388074
17850,1404.9339343676304
17851,1936.5019299558153
17852,1881.0497604378331
17853,1509.4693853143579
17854,508.25622320302773
17855,-854.1036400606447
17856,-1119.1190368498183
17857,-1813.1087212766677
17858,-1869.4714449148087
17859,-2020.305276830258
17860,-2202.801451571696
17861,-2292.068700109231
17862,-1999.5412909550316
17863,-1291.2454033694091
17864,-384.34006124179416
17865,-1477.5058175247777
17866,-2420.535159870214
17867,-3138.3661072784425
17868,-3245.665022981464
17869,-3247.779693868328
17870,-3224.6633975107775
17871,-3267.5182590702184
17872,-2243.8971914818026
17873,311.30042632533156
17874,1772.9500622947148
17875,2376.4505101298846
17876,2482.782653379522
17877,2439.5957183181827
17878,2259.2833623304073
17879,1557.3688106125512
17880,1051.4399362641634
17881,158.28435474545944
17882,-221.5408925692669
17883,-398.97462586652694
17884,-465.29499248830814
17885,-449.6279238786578
17886,32.62062040996025
17887,779.0166672118412
17888,1557.4899867320066
17889,1666.9693192549234
17890,923.7139858234202
17891,-487.41925752261125
17892,-967.0646795471956
17893,-915.9206896176998
17894,-827.3836042551484
17895,-771.4517930293438
17896,-115.24946791912268
17897,1169.1455581654188
17898,2244.1396388176445
17899,2665.230620440118
17900,2567.806551810896
17901,2506.629525783665
17902,2280.924217105325
17903,1549.1714247398131
17904,719.3579997517651
17905,-94.75163285257466
17906,-479.57244464530413
17907,-754.687540658615
17908,-725.9063476138692
17909,-617.3091916971943
17910,-208.76791019764605
17911,769.0091411198206
17912,1571.9986182244652
17913,1605.9932397776938
17914,562.2763210436119
17915,-552.6071393167894
17916,-1379.4217886636425
17917,-1424.9919849880696
17918,-1877.0054450689581
17919,-1408.91112897565
17920,-328.0427112133722
17921,1039.0265457468386
17922,2282.0765064346474
17923,2670.93139876281
17924,2769.6745173676272
17925,2734.5171527887733
17926,2494.091491625543
17927,1777.3516875966263
17928,1272.8050723152403
17929,270.03535108947233
17930,-241.54485987745105
17931,-391.25795281045896
17932,-415.8652069168397
17933,-380.654788698233
17934,-123.77448797321208
17935,334.9511180463638
17936,956.3772056919028
17937,999.8862294708613
17938,338.05468320656513
17939,-650.2468505846678
17940,-1260.3182807772296
17941,-1589.079500028598
17942,-2097.1246322541388
17943,-1978.4441237813583
17944,-657.0470410760674
17945,779.3510361203787
17946,2223.746414666761
17947,2730.6387287152033
17948,2836.076398520189
17949,2803.7927040493514
17950,2507.049224236844
17951,1653.8905585265502
17952,993.6095033235982
17953,-304.01737075331704
17954,-747.9011968727751
17955,-862.7058421032555
17956,-881.1895151976563
17957,-925.2814787819382
17958,-799.5828237906425
17959,-452.95225028335415
17960,-48.96261826900933
17961,-93.89759066643768
17962,-865.4817402441566
17963,-2164.1527231575947
17964,-2330.787011234342
17965,-2008.4662432113212
17966,-2284.8318209204067
17967,-2232.670970937526
17968,-1029.5873302619104
17969,810.4112686479402
17970,2182.4263160065752
17971,2756.9576171513913
17972,2772.0160422749223
17973,2752.8001277625517
17974,2657.766313072762
17975,1834.4656841260494
17976,1122.8382539951233
17977,-120.97492017565193
17978,-433.9942289400191
17979,-736.6572273403275
17980,-762.2895533829526
17981,-709.771235165834
17982,-228.61890498151158
17983,646.2164662822277
17984,1465.6089780307452
17985,1533.153045421734
17986,524.9024640665551
17987,-491.8807718373795
17988,-1226.4100453509832
17989,-1268.993459004659
17990,-1319.7173366993732
17991,-1123.623729552599
17992,-369.4663288111997
17993,1171.4735224046526
17994,2474.6619707075374
17995,2942.330441324268
17996,2936.2167311540425
17997,2898.0180429230136
17998,2686.2018691215944
17999,1747.96950545751
18000,1030.699746788268
18001,33.920309849931314
18002,-510.19558689874236
18003,-701.1089459292951
18004,-771.1843551224149
18005,-725.3116949420363
18006,-267.5024169720181
18007,384.7420332820536
18008,1095.9349579473692
18009,1484.619564109201
18010,688.948720193435
18011,-174.55746998965992
18012,-859.0765252384123
18013,-1111.8471489923693
18014,-1075.5986084839976
18015,-1023.1105222833784
18016,-287.12158304235095
18017,926.3452432351567
18018,2248.4596624997193
18019,2734.609236173885
18020,2710.2191876139013
18021,2540.7913603998372
18022,1819.2544055290878
18023,620.0626841284048
18024,168.35872142187
18025,-397.7445771788514
18026,-828.1516759665867
18027,-1292.891970221361
18028,-1507.3657094810262
18029,-1480.6389788876425
18030,-1416.4996350130818
18031,-1305.1798592420294
18032,-1093.3154559436646
18033,-1885.1277318974928
18034,-2669.5809930476635
18035,-3269.5177731994945
18036,-3432.041383704735
18037,-3170.638532560706
18038,-3166.859168928587
18039,-3054.9629784763706
18040,-1898.9111722977152
18041,45.57562921463011
18042,1915.6789011618177
18043,2529.591367353727
18044,2662.874629538878
18045,2529.0538722370716
18046,2292.539401648403
18047,1243.6773943804785
18048,506.59289479759127
18049,-671.9994803314828
18050,-1296.22256061709
18051,-1465.0001687522406
18052,-1484.0720707282012
18053,-1417.4085699498085
18054,-539.1627955599171
18055,740.1255128413819
18056,1631.8107110603937
18057,1814.4838193298835
18058,895.3236408050856
18059,-567.0327851719649
18060,-1599.395005374694
18061,-1833.864990616573
18062,-1229.056802076095
18063,-979.4299149976688
18064,-257.9354497025631
18065,1304.1951211687308
18066,2279.0008489896395
18067,2663.440782226739
18068,2731.6664442929696
18069,2636.8812673069424
18070,2280.6897667070816
18071,1391.0334175016833
18072,477.50212685991426
18073,-378.6037734701255
18074,-1230.8611236692961
18075,-1888.1156691753101
18076,-2076.9728461274185
18077,-2082.8271230599307
18078,-1252.4586979423814
18079,-312.69767469902746
18080,687.4907910008404
18081,1082.65217612436
18082,495.1304009196497
18083,-645.9286155506142
18084,-1308.5064925508152
18085,-1236.0347540188452
18086,-900.2610717068828
18087,-809.2414057469354
18088,-61.73574151594294
18089,1122.3574093110453
18090,1732.3192469541286
18091,2266.277914643068
18092,2374.09300229712
18093,2341.9001476877224
18094,2061.283881826298
18095,1003.1647617495491
18096,119.68674069222746
18097,-797.1938349952223
18098,-1530.831145801284
18099,-2097.979808655952
18100,-2228.553382486383
18101,-2139.3986533792486
18102,-1996.9638924478975
18103,-1029.5568089492979
18104,-275.09543486431227
18105,350.14233932977345
18106,-300.53553520421616
18107,-1396.2329339744995
18108,-1805.7673004774072
18109,-2012.6557489864729
18110,-2133.806874383503
18111,-1966.5053994247903
18112,-590.5986387643687
18113,844.7279615595245
18114,1643.3342142984898
18115,2034.4210475803309
18116,2114.5693793823643
18117,2127.1915301171703
18118,1802.2910249773054
18119,590.3752061792181
18120,-99.39531844557081
18121,-1855.707592164737
18122,-2499.567792047555
18123,-2658.660774725888
18124,-2883.735966142712
18125,-3109.387127365897
18126,-2852.7689222837466
18127,-2615.303204331148
18128,-2469.656807546793
18129,-1926.4267631023845
18130,-1623.6098318976838
18131,-1559.2267127143916
18132,-1802.1305856654592
18133,-2032.1534252902331
18134,-2017.8451749676976
18135,-2100.877346005509
18136,-1799.1891289348218
18137,-1203.3454543900866
18138,363.91767537244596
18139,756.6540951305053
18140,877.50032798959
18141,509.0988232186171
18142,110.63122388568308
18143,-1133.2127998039275
18144,-2295.217959125095
18145,-3338.3929870875054
18146,-3735.815923910534
18147,-4003.709824005867
18148,-4051.6292795784916
18149,-3942.381623715255
18150,-3544.8098530631896
18151,-2523.9780144458923
18152,-1735.484462104271
18153,-1099.6542842431174
18154,-1699.3475182652905
18155,-2339.5512958452687
18156,-2691.5624543534545
18157,-2802.7714935391837
18158,-3042.8693216697407
18159,-3214.8987662332793
18160,-2662.5146019112153
18161,20.24614577510541
18162,1255.085626264421
18163,1963.6806092222964
18164,2000.1917043272028
18165,1861.8552169878992
18166,1603.812963947216
18167,753.8632492830144
18168,-275.79648875355593
18169,-2078.127651946646
18170,-2703.984611337501
18171,-3197.0690475292954
18172,-3171.836715098723
18173,-2939.7335399072986
18174,-1680.5992124443794
18175,267.12396097255936
18176,1078.5261152188816
18177,1141.3537457350199
18178,-333.82098382087497
18179,-1429.2669151793557
18180,-2413.0394275593885
18181,-2076.6295834772613
18182,-1904.7331454173147
18183,-1938.1753292536644
18184,-677.4725657503377
18185,1270.7395190246323
18186,1852.770549170891
18187,2409.448171874449
18188,2435.360113712137
18189,2316.897431686396
18190,1557.5589152124794
18191,188.012147918744
18192,-732.1080185420996
18193,-1618.105230364552
18194,-2019.1539206093078
18195,-2204.8404205811476
18196,-2219.9947343035865
18197,-1816.1883381235264
18198,-229.58325778850914
18199,1225.4204068223135
18200,1875.106795037155
18201,1833.5123141359527
18202,1033.6620645908433
18203,-352.94891914794755
18204,-1241.412602349083
18205,-1242.594727205106
18206,-1273.0801650031447
18207,-836.0152394456376
18208,4.4465383660250595
18209,971.8016055027739
18210,1510.3484361872684
18211,2048.1035103904524
18212,2212.3162495894617
18213,2036.6748065691245
18214,1080.8537757221393
18215,-566.6009422258481
18216,-1330.367571054161
18217,-2099.1094124456285
18218,-2671.924122044525
18219,-2842.942992667143
18220,-3010.934418633156
18221,-2935.259488508927
18222,-1881.7186039675703
18223,411.4426390482852
18224,1410.813030444442
18225,1399.855425302392
18226,636.6161844335633
18227,-1043.8327625916004
18228,-1967.3626526541032
18229,-2268.8623717750716
18230,-2057.7905041376166
18231,-1873.0161665283554
18232,-928.3452997410222
18233,920.4805163666676
18234,2039.0605404800788
18235,2585.9653973192853
18236,2650.086952883221
18237,2577.129571198224
18238,2182.3634846902783
18239,1121.8028052041316
18240,424.1385535554796
18241,-771.051951384827
18242,-1627.1840353918258
18243,-1860.280412206471
18244,-1897.8304973110883
18245,-1717.5327854085347
18246,-198.8429606363118
18247,1325.7865483124763
18248,1962.7868590217083
18249,1937.2952028268137
18250,886.902388470881
18251,-574.3686727224822
18252,-1446.9243603462342
18253,-1734.324888100514
18254,-1740.3993594901683
18255,-1909.8598608892378
18256,-540.6250982737453
18257,833.3413439305397
18258,1746.3278413116961
18259,2245.5704768587775
18260,2403.731700930482
18261,2205.0803740142346
18262,1670.51916975067
18263,947.5289419415001
18264,74.39240856340217
18265,-1039.5269072539647
18266,-1733.9524816449327
18267,-2057.838325020732
18268,-2105.7247477532624
18269,-2023.535231531893
18270,-1946.5063331570996
18271,-1410.7813075627741
18272,-338.2942276307011
18273,122.13322489231192
18274,-426.6307477767427
18275,-1485.9816669066704
18276,-2471.9039453232235
18277,-2678.9189351309205
18278,-2900.9688313411075
18279,-2935.9871152806204
18280,-2564.4831262610865
18281,-595.335409700557
18282,1125.1163773306175
18283,2146.1780626900536
18284,2211.073403808723
18285,2144.089240278375
18286,1773.9903109600837
18287,751.7952100090944
18288,-507.08593983984315
18289,-1570.022630165243
18290,-2064.063851581587
18291,-2236.002075488613
18292,-2328.225229687525
18293,-2413.1326053738635
18294,-2201.7383594023513
18295,-1966.6523439664575
18296,-1723.8765612076636
18297,-1698.5971915584548
18298,-2227.8007899317267
18299,-2860.97746340634
18300,-3099.3514129149294
18301,-3273.2921105691594
18302,-3241.1418452941693
18303,-3339.464212628765
18304,-3095.883078467893
18305,-987.7182585153845
18306,1390.011661614466
18307,2134.5094044347866
18308,2319.2988572739964
18309,2271.2212804683422
18310,2033.6764065278505
18311,940.8332047141857
18312,-156.18287800652115
18313,-1322.2861526445147
18314,-1743.43955655195
18315,-1625.180505939595
18316,-1983.6021061133072
18317,-1501.1933275502017
18318,92.1575305325063
18319,1343.6259508131977
18320,1894.4121398975956
18321,1959.549222158207
18322,532.7591266449426
18323,-1070.9847634271757
18324,-1907.6977793668007
18325,-2038.0880576951074
18326,-2024.0360602610142
18327,-2133.1287575649503
18328,-1114.5571717301755
18329,393.0481476293204
18330,2098.010615185212
18331,2802.737657701104
18332,2873.3847111177492
18333,2841.6975147290736
18334,2524.51667336829
18335,1704.717159172138
18336,1242.556793360888
18337,318.10864534647635
18338,-87.81841620406391
18339,-272.96720412572705
18340,-258.57417735120356
18341,-9.844393906450044
18342,868.4330951964722
18343,1895.6522564650088
18344,2334.268598524277
18345,2351.5678223322375
18346,1353.3171783164298
18347,-227.63798059965464
18348,-447.75674341177995
18349,-618.5096771394386
18350,-594.0851970946762
18351,-634.4394704328557
18352,-269.4540637439504
18353,1023.6229083429754
18354,2484.179568033425
18355,3188.0840498766074
18356,3275.441718607587
18357,3259.401436821546
18358,2919.4365126449234
18359,1845.6390794733768
