id,es_total_ps
14351,1622.6449227635858
14352,1217.9288926111715
14353,753.7923061756691
14354,594.6789334337116
14355,563.1633044026081
14356,609.6330347320605
14357,1110.1235892156496
14358,1697.2706018852466
14359,1521.7998734423813
14360,661.7755933643688
14361,-242.2596303310872
14362,-730.3431121043496
14363,-1066.4674237474453
14364,-1144.217286442302
14365,-1359.2566061098232
14366,-1288.7074711703249
14367,-1594.3470725594973
14368,-1767.5490602916275
14369,-735.7370125046308
14370,56.325161574574956
14371,1478.697284465151
14372,2675.277898670124
14373,2573.097154098376
14374,2173.4147909437097
14375,1327.2203468286177
14376,1002.1932124313399
14377,608.0401602906802
14378,451.76282618483174
14379,363.82179000673705
14380,365.818309202111
14381,868.3206296770644
14382,1526.2945563972344
14383,1313.297878198821
14384,465.3404399670832
14385,-1049.8780432690382
14386,-1555.7582638259546
14387,-1960.6399248766222
14388,-2248.7938757321813
14389,-2424.434917330947
14390,-2736.07501003886
14391,-2819.7343779056055
14392,-2641.6010825781154
14393,-1905.5145789255369
14394,-192.42667068971963
14395,1255.3513719039443
14396,2545.377204173426
14397,2538.5799862131307
14398,2223.4259142044584
14399,1419.3806762020358
14400,1056.5897691258494
14401,649.2999939130643
14402,365.772136478223
14403,330.2340337080147
14404,232.4334302500145
14405,450.54136903699805
14406,699.8101089036819
14407,384.55432780481016
14408,-1222.4734669349612
14409,-2674.9027165751786
14410,-2937.8573603124514
14411,-3226.7801272032525
14412,-3232.9698489398393
14413,-3277.124083077561
14414,-3277.827302573137
14415,-3293.935956069941
14416,-3020.446351367587
14417,-2539.0680754116142
14418,-670.7675199608207
14419,1296.1021828471219
14420,2496.9951064328134
14421,2583.92036973237
14422,2308.280250252886
14423,1563.5992084300283
14424,1192.2995411158656
14425,583.7661856964454
14426,473.46331066324257
14427,475.86442648257247
14428,405.691599756699
14429,565.876999958906
14430,725.7240601509676
14431,184.64713666049474
14432,-1652.9718756993939
14433,-3087.7700649330163
14434,-3089.7107269895564
14435,-3319.381271677176
14436,-3267.063811809098
14437,-2943.719713495032
14438,-2874.3800884009243
14439,-2797.931235116256
14440,-2738.102621703906
14441,-2143.329735254634
14442,-363.57492633620046
14443,1369.7208022916911
14444,2535.043955062493
14445,2623.810038366933
14446,2443.905541347462
14447,1928.3567770822897
14448,1526.4569378870317
14449,842.6743681602036
14450,680.3002858737303
14451,609.441184639376
14452,755.0586877527617
14453,1147.9475536458892
14454,1649.4816757169408
14455,1776.3345174558226
14456,893.4828296717473
14457,-425.37942209858045
14458,-1074.492258361635
14459,-1385.768602812108
14460,-1235.4668312192125
14461,-1010.1329863692623
14462,-1649.7466123700297
14463,-1390.8058036010036
14464,-1067.1211091169
14465,-656.1227046356221
14466,260.7326540360281
14467,1480.9909087007225
14468,2724.471891425686
14469,2727.9745815089927
14470,2452.5206655142147
14471,1576.1032966812363
14472,1203.2903420895582
14473,749.7034492866318
14474,586.663275386635
14475,553.3136832346688
14476,562.9520182959925
14477,1040.6475631285355
14478,1479.9110354786465
14479,1482.273960546421
14480,695.9240880948023
14481,-203.99361404461067
14482,-842.3326732625048
14483,-1054.3184751386402
14484,-1231.2982651111172
14485,-1094.7045717966969
14486,-1528.6686549832514
14487,-1557.5206144722308
14488,-1199.3002478243648
14489,-622.8727350817716
14490,218.7581860466023
14491,1623.9529918628443
14492,2727.1628343575026
14493,2486.1225364785164
14494,2091.4186701137824
14495,1442.7713592622936
14496,1078.128605808161
14497,560.925469258257
14498,280.65109386868977
14499,109.18141647586398
14500,127.29611361788739
14501,556.4239500842509
14502,1142.6146912450304
14503,1120.5267232575798
14504,429.5048257179119
14505,-750.536775741316
14506,-1520.0947031561836
14507,-1373.8180055128266
14508,-1521.086391693447
14509,-1603.0442273679628
14510,-1305.6527164014017
14511,-1569.721366216971
14512,-1510.3905480271876
14513,-625.2450823454169
14514,532.2742716985828
14515,1679.305172405815
14516,2784.2535211511895
14517,2529.3311767719038
14518,2190.212941577741
14519,1538.976605243951
14520,1261.1587079121643
14521,608.648177036116
14522,481.60575718690154
14523,292.92223205076584
14524,316.6857102546885
14525,695.9634485181463
14526,1347.5469159218371
14527,1287.2330508329292
14528,391.5557662953239
14529,-1346.8854972018999
14530,-1854.4689753147961
14531,-1954.0131639937824
14532,-2026.7963497529674
14533,-2175.2115213349425
14534,-2298.699397445873
14535,-2041.0688434514025
14536,-1681.7051686879602
14537,-488.47852487648595
14538,422.7539189524483
14539,1605.6263808593562
14540,2724.7090599900266
14541,2655.498973314966
14542,2335.3118682494646
14543,1736.1737300118762
14544,1395.381756900962
14545,972.1933367960168
14546,743.7497447789839
14547,706.9378233629549
14548,719.7935584008187
14549,1056.2157705772925
14550,1542.7762442912217
14551,1515.320528067057
14552,558.4607723480459
14553,-796.2751583547785
14554,-1169.320348358884
14555,-1594.5240747563914
14556,-1770.2983645401623
14557,-1643.7187136184405
14558,-2310.8167827168445
14559,-1943.1450241231933
14560,-1552.48445332738
14561,-475.02839409051114
14562,440.659650155849
14563,1560.8705329503023
14564,2638.7626472779443
14565,2426.1297483732574
14566,2033.071665252969
14567,1516.30787939341
14568,1062.311109078803
14569,660.1981086649314
14570,408.2125291271829
14571,288.088254653289
14572,139.31295154681197
14573,358.0078452969299
14574,517.2390639926246
14575,292.3295041474196
14576,-1008.6955565788511
14577,-2618.690207393894
14578,-2845.6507718920407
14579,-3027.0351970772226
14580,-3087.7368553017122
14581,-3186.542361640475
14582,-3210.4900168853123
14583,-3202.7175448975604
14584,-3122.9800385623994
14585,-1957.955549103312
14586,-145.84497694049423
14587,1543.8916587777746
14588,2631.901176194223
14589,2567.5798583309165
14590,2311.5370359392236
14591,1467.2324179869556
14592,1081.289546429331
14593,600.9699550583413
14594,405.304426169632
14595,403.47444995129376
14596,321.8348901860172
14597,334.73032356247353
14598,419.9401503395742
14599,-477.2681181585931
14600,-2194.98100383111
14601,-3327.6850584418166
14602,-3362.98249444618
14603,-3514.6683035345345
14604,-3439.8691319972986
14605,-3422.6176311208114
14606,-3441.851193411886
14607,-3481.813372380623
14608,-3393.39086311038
14609,-2727.865682048062
14610,-591.9247664176821
14611,1525.8480590148265
14612,2477.531255350888
14613,2548.990027299819
14614,2420.668082796324
14615,1624.0119216794067
14616,1306.7860584906466
14617,661.7708535823047
14618,478.98283724283965
14619,557.4234773608117
14620,682.497903196774
14621,1120.4467587188244
14622,1518.7100311834154
14623,1858.662577257815
14624,1249.2145410126257
14625,-193.850487497963
14626,-1163.2289805945356
14627,-1900.0965770735556
14628,-1660.342220772006
14629,-1549.2799030552922
14630,-2021.4088966822362
14631,-2148.4577496685465
14632,-1870.1605790576873
14633,-675.0459303475004
14634,213.76710552211034
14635,1560.3953339225604
14636,2632.0051296951856
14637,2584.1215034124752
14638,2196.8892036703
14639,1552.0265477779212
14640,1202.3362165666465
14641,735.5540909469565
14642,517.860361907985
14643,415.84827548196563
14644,436.7561522968796
14645,906.7564607114028
14646,1594.5312056070986
14647,1828.5348664290502
14648,1118.607337672667
14649,63.93195367678568
14650,-464.03126059483066
14651,-1237.3227753962758
14652,-1656.349294043769
14653,-1980.374380081182
14654,-2296.9726423069546
14655,-2397.1060031519764
14656,-2168.282128981649
14657,-962.3465819403092
14658,151.82087875119535
14659,1557.6071314440971
14660,2480.9154579395495
14661,2424.9268766478936
14662,1965.259927525928
14663,1428.2204568436216
14664,1012.7769054681911
14665,527.232092588627
14666,257.7054369179655
14667,225.31820827860398
14668,298.23727158991807
14669,537.8610920714488
14670,1077.8439355353134
14671,1007.698991900106
14672,-16.9667554297338
14673,-1805.6447387755354
14674,-2286.9582918822025
14675,-2571.0992625582444
14676,-2664.4101528218403
14677,-2751.2731613382643
14678,-2810.404488762445
14679,-2921.7152392550797
14680,-2761.1416642575737
14681,-2043.5787565305106
14682,-251.54833596980367
14683,1300.3500180828912
14684,2390.5995711525384
14685,2160.4905287079737
14686,1760.511110266866
14687,1051.3686669702215
14688,787.571964655463
14689,234.1502207481972
14690,108.49986695537143
14691,-30.33251817318223
14692,54.41413298504374
14693,141.44880698790973
14694,267.2532691123724
14695,-938.3573851306681
14696,-2196.4806569982566
14697,-3075.307512253264
14698,-3092.32596802158
14699,-3173.4555761597735
14700,-3201.6370294451117
14701,-3270.0381536849522
14702,-3294.6575451140407
14703,-3359.8673335635667
14704,-3332.8918369981666
14705,-2881.9566391943745
14706,-1123.3285700598467
14707,1311.5101217517783
14708,2456.0706258256964
14709,2480.3959700354867
14710,2213.0782399382597
14711,1673.2647169562947
14712,1314.486812685064
14713,749.5140695739682
14714,514.3307524839306
14715,453.12110941318275
14716,426.01760570728214
14717,819.9666228483082
14718,1302.9939799318224
14719,1399.0426093804342
14720,4.995027370806561
14721,-2208.391651142086
14722,-2570.4607105836326
14723,-2883.4898922292678
14724,-2928.5393167032307
14725,-2957.8248165815835
14726,-2903.099506003984
14727,-2853.583827241022
14728,-2714.3058621577047
14729,-1821.4033458623237
14730,277.03288209260535
14731,1770.7339304544194
14732,2717.3034178135968
14733,2731.8019247322763
14734,2452.12036735536
14735,1699.3805257589806
14736,1381.9955562815167
14737,901.3850957844841
14738,757.151254048236
14739,641.0183501155032
14740,626.1331709436703
14741,753.2023926823556
14742,896.1604921421799
14743,532.8757904664748
14744,-866.7983784522689
14745,-2333.52226717786
14746,-2694.722124286799
14747,-2968.2201280347085
14748,-2957.482153027994
14749,-3140.1272076892233
14750,-3085.5814127651092
14751,-3100.489843381452
14752,-3067.334075018888
14753,-2256.315626007755
14754,-629.6739213859216
14755,1428.1351559252646
14756,2555.6797216164573
14757,2548.629491422077
14758,2148.6158247284793
14759,1659.6910031783968
14760,1293.7125351519626
14761,773.6208349461457
14762,510.30499412945585
14763,299.11706369416277
14764,306.74527733948685
14765,436.27975852617305
14766,513.4333655811811
14767,-98.54459455207044
14768,-1983.9686843061547
14769,-3156.49809496126
14770,-3272.9149130047854
14771,-3397.198452756673
14772,-3290.396010682966
14773,-3322.125937139056
14774,-3362.3728577206925
14775,-3397.0903446844127
14776,-3328.5738482329425
14777,-2930.0578381947535
14778,-1140.7770484656562
14779,1067.730204506752
14780,2302.641900424659
14781,2378.6586755488725
14782,2053.2562498778934
14783,1345.8627120554538
14784,863.6275953866759
14785,45.27872344860224
14786,-124.24972398796265
14787,-167.43897668398918
14788,-102.2763956376229
14789,639.6585593036629
14790,1381.964019944338
14791,1560.7045204107878
14792,527.5497228426135
14793,-1804.763070564487
14794,-2400.509067269941
14795,-2271.914432393117
14796,-2327.4199748372994
14797,-2414.1396320767635
14798,-2657.4768921136074
14799,-2863.790938402956
14800,-2399.8923500407077
14801,-1561.6461375220617
14802,475.30809367415964
14803,1923.8489722450838
14804,2722.7226771130527
14805,2734.381049907347
14806,2519.8237425056404
14807,1746.634359397867
14808,1382.8183357932487
14809,847.7750737822556
14810,747.043320981605
14811,705.4313797603768
14812,793.0463581660822
14813,1174.3215266224577
14814,1700.0249389291012
14815,1736.5522271870805
14816,810.6366173354597
14817,-1256.2356791662062
14818,-1965.35496163866
14819,-2567.3098864118247
14820,-2674.555373838735
14821,-2622.573967465191
14822,-2519.726271510116
14823,-2631.4071318459946
14824,-2460.6058624601105
14825,-1399.7246848622844
14826,13.11625071208617
14827,1581.3949532583947
14828,2587.0851597065302
14829,2364.3552900331747
14830,1821.5312946968977
14831,1110.2655357755038
14832,640.7717559270296
14833,268.5144969165888
14834,31.435610271439543
14835,-155.58498058399542
14836,-144.4660587445773
14837,291.34912007359645
14838,1033.398350888881
14839,1131.5250649103868
14840,-22.038316365695458
14841,-1619.1086761603576
14842,-2222.3742764722965
14843,-2624.4883190336495
14844,-2619.454514942705
14845,-2410.990167504603
14846,-2270.962843468782
14847,-2238.795802604195
14848,-1799.6271598142507
14849,-92.18479126670914
14850,990.4133141043371
14851,2150.723294506689
14852,2801.05074206631
14853,2792.3334667527924
14854,2661.4340111358565
14855,2203.393540543815
14856,1959.8493993537513
14857,1350.9520121849453
14858,1033.0296920595283
14859,938.9408652859851
14860,969.6604657229756
14861,1415.8564754709007
14862,1859.4119859621796
14863,1984.185169635211
14864,1280.9710198326497
14865,-183.0967396064278
14866,-1150.8299431903908
14867,-1907.6936181249914
14868,-2179.56774064577
14869,-2072.5162067853307
14870,-2344.1188187274233
14871,-2262.639849481676
14872,-1531.5889890764943
14873,-436.3028690718166
14874,793.6900215084956
14875,2116.58961648612
14876,2835.565771570495
14877,2628.7584146014096
14878,2219.3258086179167
14879,1479.0077401557764
14880,1048.4968112502743
14881,752.382600884019
14882,740.0117498817241
14883,639.7568551941749
14884,710.0854167311521
14885,1104.036320684714
14886,1600.525908076814
14887,1672.6898182966581
14888,990.3340061011984
14889,-322.7728912260087
14890,-966.2330126121902
14891,-1991.9182491249528
14892,-1966.7975265117104
14893,-1986.181128831184
14894,-2339.065265858111
14895,-2302.496173662003
14896,-1479.5566925513006
14897,-290.97417414128637
14898,610.3653072167779
14899,1826.3987815568396
14900,2553.3616243253878
14901,2366.0248133003834
14902,2007.7568261013746
14903,1467.8800048904527
14904,1065.0414191198977
14905,551.0637504198597
14906,266.0941691372887
14907,96.50950221050903
14908,48.67395812350815
14909,318.77063123914525
14910,464.93208793637245
14911,187.8903850141931
14912,-1113.1315906875627
14913,-2591.063750887478
14914,-2875.7954072604603
14915,-3179.8069676065675
14916,-3194.402978442234
14917,-3187.372900790725
14918,-3255.9392909545754
14919,-3264.7670559857634
14920,-3193.496172320146
14921,-2202.5813440648108
14922,-93.23789853044175
14923,1510.5836138387656
14924,2386.643671014904
14925,2273.124988757067
14926,1970.3989481816086
14927,1274.5281910294295
14928,962.2726139750085
14929,243.80430521275
14930,-11.244362575396686
14931,-231.20035839334466
14932,-543.1440238395351
14933,-249.68247760726567
14934,-200.73803079339538
14935,-855.7709033113016
14936,-2259.2557330380237
14937,-2915.708310615376
14938,-3221.259518971288
14939,-3382.9961646796323
14940,-3319.2849391599916
14941,-3281.6634296954476
14942,-3323.339068392789
14943,-3263.0142377404986
14944,-2982.238409961691
14945,-1876.609643979389
14946,173.91434289867988
14947,1718.4937696715713
14948,2264.2459786344684
14949,2252.5286432544353
14950,1960.5232273903853
14951,1178.428058189053
14952,775.5943886936465
14953,73.59935821637993
14954,-54.68657353124639
14955,-40.72829332029381
14956,-1.3001207026426087
14957,575.5730260516992
14958,1288.5500514682312
14959,1573.220878602379
14960,1087.8406448726746
14961,-1118.5510117106842
14962,-2170.5798282334717
14963,-2512.0468895119266
14964,-2460.6891623672464
14965,-2483.4447293009243
14966,-2466.227707612326
14967,-2213.3533336019827
14968,-1039.1881156616012
14969,220.0529376594132
14970,1125.4558438172905
14971,2127.7621895589546
14972,2719.445637964489
14973,2671.4280978145935
14974,2489.836730580755
14975,1843.078049538667
14976,1480.7920704339695
14977,1012.5383398068851
14978,863.4672625761375
14979,707.6115721912373
14980,768.7526380094494
14981,1167.852706273415
14982,1734.305911084833
14983,1887.9511749491535
14984,1204.5913185404047
14985,-241.5133482781732
14986,-1592.5979713022507
14987,-2007.2004967159253
14988,-2105.981611814717
14989,-1881.7301582545579
14990,-1733.8885309988373
14991,-1428.3157504602461
14992,-1000.6032501483218
14993,-145.7598080134758
14994,781.3143332420275
14995,2258.8664046931513
14996,2870.9265529838767
14997,2703.951632985928
14998,2293.5426596282273
14999,1525.5802484661667
15000,1267.2803910787113
15001,642.021353776532
15002,423.12545792451385
15003,463.9942679218015
15004,519.9836116323008
15005,920.0813086481962
15006,1417.3595806737458
15007,1651.9616985226653
15008,951.146500960051
15009,-100.27617018815835
15010,-1007.0245223437918
15011,-1499.499566129518
15012,-1988.9261963398005
15013,-1989.9350035750492
15014,-2159.156484328571
15015,-2063.584003264707
15016,-1763.067759281614
15017,-510.7747157428164
15018,481.0612585291233
15019,2019.134952853098
15020,2548.850056623337
15021,2261.7619649388407
15022,1889.7683480169142
15023,1098.280625968795
15024,672.7323613015714
15025,253.61082212721223
15026,161.29833079033529
15027,245.35915481707997
15028,151.09841647308818
15029,669.6150352840738
15030,1338.4721133071814
15031,1803.6800414803968
15032,1642.2147257685442
15033,1131.9903348321836
15034,274.8731242183804
15035,-203.10292906679572
15036,-469.48878333768425
15037,-696.4560476668184
15038,-794.1046626347065
15039,-555.5967673350324
15040,-287.2716276240646
15041,141.42456172999715
15042,849.5494213945263
15043,2040.98544312537
15044,2523.7145237632694
15045,2346.8936744040407
15046,2002.19123724476
15047,1222.2746291363267
15048,834.113940969678
15049,307.47691960362954
15050,210.17292126313018
15051,189.8194809674341
15052,232.75662110541933
15053,593.9026415907782
15054,1149.385872505908
15055,1505.5428121616897
15056,1136.2517136243544
15057,478.25782251385766
15058,-169.89506858368136
15059,-736.6768492315306
15060,-953.2073314339061
15061,-1708.908388738451
15062,-1885.1224535766225
15063,-1897.1658912887544
15064,-809.0884802955685
15065,-55.538766199782934
15066,846.6154432197362
15067,2120.7302743605796
15068,2444.7372489789354
15069,2221.734149092876
15070,1816.1729850134043
15071,1098.0734122395884
15072,761.8291340733963
15073,374.7912831726683
15074,219.59704990793486
15075,30.754067982433366
15076,20.53305590525573
15077,172.54092975672535
15078,354.85873610871477
15079,478.56395341250385
15080,384.7689703901552
15081,-328.9530756806549
15082,-1705.8581382970767
15083,-1948.9652554211925
15084,-1983.4089534969992
15085,-2265.85141863187
15086,-2317.355793475969
15087,-2296.7352466604943
15088,-1514.8133255270952
15089,-370.8114083196201
15090,867.8561913204502
15091,2114.0053748186406
15092,2440.1161247606974
15093,2395.2643862858336
15094,2154.640446945512
15095,1464.1140981703518
15096,1037.7537562806529
15097,309.678785541762
15098,212.7702692925769
15099,112.81647875029198
15100,61.700800810884886
15101,92.53634051886085
15102,310.98844932317536
15103,344.10024858034996
15104,-291.64699828968594
15105,-1508.5691088552614
15106,-2524.499710624008
15107,-2827.495665761763
15108,-2939.355563922832
15109,-3069.4628903498224
15110,-3195.1281133247744
15111,-3265.382394864073
15112,-3029.686131746192
15113,-1741.810581502973
15114,429.797809197445
15115,2095.3721993574923
15116,2500.904107263807
15117,2458.8710689486315
15118,2135.2923051990915
15119,1426.2096187292857
15120,972.8230861843526
15121,384.8397547068525
15122,191.82124893464774
15123,93.40034060584205
15124,247.59312507378408
15125,876.3086216719543
15126,1626.4837626862945
15127,1928.1608065287814
15128,1609.2875387321421
15129,217.96430275850017
15130,-676.4331787583351
15131,-1236.5308040902767
15132,-1651.8636885113553
15133,-2017.331932719975
15134,-2120.952042011665
15135,-1987.3664314449181
15136,-1542.35457514292
15137,-371.780028299198
15138,691.9138776169674
15139,2114.6079055833175
15140,2432.5337453499856
15141,2106.130252655168
15142,1614.2678691222582
15143,781.0900615625736
15144,390.10594111825714
15145,121.92684207426495
15146,-45.625125085003724
15147,-46.50268675731957
15148,44.538387381228816
15149,689.4952830230501
15150,1388.3267280448463
15151,1752.393382915519
15152,1146.1567152301338
15153,32.54727393928519
15154,-1303.9120513282617
15155,-1740.7888259925778
15156,-1918.4455636684092
15157,-2009.7094157580948
15158,-2130.1503558736204
15159,-2097.98464238843
15160,-1987.3026939485649
15161,-648.052356689892
15162,469.1200342934118
15163,2011.9775951995914
15164,2356.003453031533
15165,1860.2830523106618
15166,1374.8123980014147
15167,692.3851160970943
15168,382.3252365797743
15169,-95.68299818674106
15170,-177.69370058153314
15171,-167.3301085851374
15172,-133.66086710936466
15173,471.4258118726582
15174,1194.8050149672322
15175,1441.9006565122588
15176,828.4686104770287
15177,-858.8392761504398
15178,-1748.782669279814
15179,-2377.6590472233925
15180,-2476.7833875218926
15181,-2560.2963099646386
15182,-2635.541585895255
15183,-2612.266032118515
15184,-2551.5642030381982
15185,-1947.4717163717078
15186,-28.178732659124925
15187,1904.9426424633411
15188,2297.1908766827064
15189,1999.9534802590038
15190,1576.3357697039924
15191,1165.1884550192851
15192,739.0804066105801
15193,-16.895741822687874
15194,-107.57003292458754
15195,-34.539964965125826
15196,225.22466382794866
15197,689.445451599437
15198,1503.1140276056942
15199,1926.657284985949
15200,1285.4306825047802
15201,-965.8293321967716
15202,-1521.84582259882
15203,-1907.587165558841
15204,-1909.1876049983491
15205,-1946.8695427279815
15206,-1838.9110180511911
15207,-1795.436687762787
15208,-935.3902980479826
15209,242.98530187779002
15210,1162.714882977203
15211,2310.138830150266
15212,2547.389590198694
15213,2366.1986762059128
15214,1809.5985149864368
15215,1018.0623962017088
15216,750.7807816342523
15217,269.9466844704091
15218,-112.13019412626187
15219,-289.3301219517315
15220,-227.59462556089332
15221,236.93017156680557
15222,1146.8103004063873
15223,1562.5618574180428
15224,915.8744857619256
15225,-1018.5026766144796
15226,-1821.3294377882032
15227,-2307.331071037436
15228,-2405.6354547371716
15229,-2598.298844271905
15230,-2816.87071837711
15231,-2800.8507372782287
15232,-2641.1001149324793
15233,-1768.187871729451
15234,176.88606616289212
15235,2176.5825307951172
15236,2552.2728654678667
15237,2302.8677072080955
15238,1810.5670186659188
15239,1380.2015441913077
15240,1098.300088102274
15241,535.716108341964
15242,372.84990784456966
15243,313.27873731397693
15244,293.16102251283684
15245,415.1473708324428
15246,757.2312483627347
15247,520.8025989388238
15248,-782.6110874143088
15249,-2496.5459357813447
15250,-2939.0653988208933
15251,-3089.3046106893044
15252,-3246.0290219322274
15253,-3326.2983870036437
15254,-3347.256320111374
15255,-3353.4273455210973
15256,-3135.70158668299
15257,-1256.2114757738282
15258,916.6350713616589
15259,2251.679012863525
15260,2572.00486850153
15261,2477.0058036486607
15262,2240.3383395335145
15263,1655.858039331343
15264,1310.013281559233
15265,769.4859913255384
15266,578.1984122090731
15267,437.0215305545684
15268,390.54378468950466
15269,449.8244483617451
15270,574.4011689626794
15271,546.3586255148202
15272,-1047.9374234622635
15273,-2633.4957742988654
15274,-3081.2692430489883
15275,-3396.56234035722
15276,-3430.135872696542
15277,-3440.9152858870684
15278,-3402.740058361844
15279,-3407.372088370973
15280,-3371.235718385739
15281,-2920.224879920056
15282,-552.2627985095158
15283,1884.5014437105433
15284,2296.2402678947806
15285,2166.031796036141
15286,1710.104713042285
15287,491.45631725696296
15288,221.97081809194543
15289,-94.14901922317054
15290,-223.2560443430527
15291,-103.11436034699605
15292,14.394602748505868
15293,606.9336716480328
15294,1504.1312437309673
15295,1997.0072701890424
15296,1320.6869755288837
15297,-1371.3303145423922
15298,-2228.6809031431544
15299,-2614.1272952118024
15300,-2772.77624073969
15301,-2933.8218380220083
15302,-2997.151296067391
15303,-3011.295941386157
15304,-2831.9569033496186
15305,-1528.2644486631027
15306,646.8945245582931
15307,2393.2701872266166
15308,2561.4283818436957
15309,2317.722690590964
15310,2008.2622826781724
15311,1189.4720214352035
15312,881.8378260474295
15313,417.38534814622335
15314,287.1537827767637
15315,253.03170314020667
15316,286.8555583365327
15317,796.1643192793633
15318,1619.3885567017849
15319,1995.1615357855421
15320,916.7493586166239
15321,-1628.0363435846646
15322,-2435.3806558707847
15323,-2750.304527468075
15324,-2860.6173560070756
15325,-2870.1480555915487
15326,-2873.082139162318
15327,-2970.4072814688443
15328,-2928.3484084785878
15329,-1888.864450216715
15330,461.7841669382898
15331,2264.7976067971654
15332,2506.268938695518
15333,2266.149426519914
15334,1853.2533683876343
15335,1162.7153638211666
15336,911.3135146922721
15337,347.1030844961271
15338,204.45607595827025
15339,126.07719268613934
15340,167.0419942939225
15341,613.8470781331399
15342,1501.513831112291
15343,1909.0663092273205
15344,835.4589760586089
15345,-1439.0207934457871
15346,-2326.43528207623
15347,-2539.866116282543
15348,-2596.221529342771
15349,-2706.798635148757
15350,-2871.7425533937894
15351,-2903.286789988436
15352,-2762.3532233042433
15353,-1547.0832617763965
15354,489.97278429314633
15355,2053.6453587639353
15356,2452.9252794217937
15357,2381.1346874569094
15358,1879.6810230243382
15359,1211.8088406165496
15360,870.3506204734505
15361,409.003390063446
15362,204.547209189399
15363,64.95474005264138
15364,366.1943053476907
15365,860.7963162981131
15366,1752.0770455221896
15367,2021.7675835741566
15368,1324.221096858086
15369,-855.1264045105798
15370,-1966.114567086581
15371,-2448.7229001904147
15372,-2507.3223629045197
15373,-2853.5976847803927
15374,-2901.499863136375
15375,-2954.9808473753633
15376,-2724.316924703887
15377,-1827.4431831179875
15378,254.39287150700613
15379,2131.74909376312
15380,2444.092358071374
15381,2056.690909696463
15382,1585.1430628714436
15383,1176.8379257376403
15384,841.3335560927197
15385,283.2213815850751
15386,-19.543202529240126
15387,-280.4842773456923
15388,-200.48211784831236
15389,362.52150155213224
15390,1213.4025319086566
15391,1495.194150201264
15392,-24.53683642873296
15393,-1972.9463618455177
15394,-2444.436897691765
15395,-2638.1014393302853
15396,-2729.9958268918226
15397,-2941.0165322082544
15398,-2974.554556735862
15399,-2982.8551828101918
15400,-2936.661589048076
15401,-2197.529630934655
15402,-54.6114903785279
15403,1828.4646872692692
15404,2105.3189222706505
15405,1565.4057981675728
15406,818.9901321762803
15407,327.8896067235396
15408,242.2235274598383
15409,-201.09919789720797
15410,-433.032480468246
15411,-436.5499333567594
15412,-419.47096338329726
15413,-33.977693819698494
15414,475.7814905070088
15415,612.1578826290176
15416,-508.3174244516682
15417,-2439.1558790402987
15418,-3024.2672814471853
15419,-3155.3236786245693
15420,-3227.368438218876
15421,-3243.413408475114
15422,-3225.8684825814844
15423,-3240.667410541505
15424,-3170.7190466445354
15425,-1824.6343994923213
15426,424.3096238274351
15427,2073.4259897802935
15428,2294.0528110065106
15429,1943.2994795659886
15430,1596.917695722091
15431,872.4822233870558
15432,583.9420039638634
15433,115.56824436476322
15434,-96.78864282495093
15435,-186.01081501905082
15436,-256.40697467352265
15437,-262.11589836385673
15438,4.7126296862988255
15439,-531.6212673197087
15440,-2039.3129134789403
15441,-3061.023048304615
15442,-3173.3170369328004
15443,-3304.619727969094
15444,-3295.3370097463294
15445,-3316.2369804085347
15446,-3324.948498368196
15447,-3308.7277453862707
15448,-3291.704741134639
15449,-2742.214744112027
15450,-290.63118231193107
15451,1908.122051099444
15452,2270.8360787471092
15453,2040.7002932348546
15454,1575.909828501676
15455,297.13410554143456
15456,100.3726439803146
15457,-600.7223064980448
15458,-819.5347343888981
15459,-915.1039148386388
15460,-597.0337774266129
15461,89.64617524454856
15462,1215.1977835286054
15463,1720.048385730376
15464,91.112214168959
15465,-2272.075236566197
15466,-2538.5048884638686
15467,-2738.482084055997
15468,-2846.2058022464616
15469,-2890.3665991030325
15470,-2976.606091202114
15471,-2947.841744682798
15472,-2803.3022175307633
15473,-1973.341733299187
15474,469.8800458335968
15475,2187.497107375769
15476,2194.377358204669
15477,1832.9173232156108
15478,1307.6231734080927
15479,342.5257428911983
15480,36.15670274992662
15481,-701.6454831062681
15482,-868.5732415210231
15483,-861.0615715129976
15484,-781.3478037916246
15485,40.04466991211026
15486,1029.8770201344432
15487,1473.227234362074
15488,226.64246540308096
15489,-1922.6257589503814
15490,-2604.4305557973985
15491,-2876.1506006407108
15492,-2872.4290464463597
15493,-2945.3257947348743
15494,-2968.6638712788867
15495,-2933.2563478406946
15496,-2825.9574205758017
15497,-1342.4199004298357
15498,601.0476489408179
15499,2141.216885324897
15500,2263.389384775676
15501,1815.9189723176921
15502,1341.7057871483883
15503,674.7450665793774
15504,597.8640873578977
15505,64.6450979798606
15506,-20.597363663933557
15507,-45.326903230054945
15508,79.43565518979776
15509,863.2992959707783
15510,1683.3878570417914
15511,2056.7697934762245
15512,1684.6954854868688
15513,513.9555714886833
15514,-1106.7280691496385
15515,-1861.623827517354
15516,-2006.4652523054153
15517,-2202.4874620991127
15518,-2011.2212803512646
15519,-1852.1110964680931
15520,-986.984201141665
15521,420.4234339633006
15522,1311.4838308563783
15523,2369.976296173588
15524,2408.896374738403
15525,1965.8510723949655
15526,1501.9067479014348
15527,873.96978170303
15528,602.3759972339901
15529,76.36086243197138
15530,50.99965903908739
15531,7.104683259033926
15532,78.50439948388556
15533,670.081852291912
15534,1696.7951951147948
15535,2177.563993838677
15536,2024.2193027421863
15537,1329.1303196765564
15538,374.67467546504724
15539,-241.40415061198266
15540,-574.1103790398636
15541,-961.841362526535
15542,-977.9995567508023
15543,-1105.7211270027285
15544,-572.1412941257067
15545,555.717175935773
15546,1621.365849968166
15547,2491.133267639464
15548,2517.963077763466
15549,2238.3107749257415
15550,1719.4128014264222
15551,964.2700448428826
15552,723.1252721717573
15553,254.63717617772497
15554,80.81949025996651
15555,-7.025416119226016
15556,84.5383309099959
15557,625.7291341353878
15558,1492.0160550985
15559,1983.8016897362438
15560,1854.192124017483
15561,1090.7972084511446
15562,331.98015873786755
15563,-326.348318179653
15564,-1016.4779609472031
15565,-1881.888394687056
15566,-1959.742993176168
15567,-1843.1275758594436
15568,-1230.7789110606402
15569,-130.88819026566605
15570,1011.7591338896731
15571,2331.440704849369
15572,2393.176977769242
15573,1868.1870605983254
15574,1377.4878838388922
15575,594.4818899894628
15576,345.26856802248903
15577,20.84884361523494
15578,-142.57698543584718
15579,-197.48972479893584
15580,-194.2643452658023
15581,-23.043270846783905
15582,253.08070210923694
15583,670.9997528887819
15584,815.4142130467303
15585,562.1761801373425
15586,-155.93872810472126
15587,-1395.5617679075974
15588,-1925.4629013982653
15589,-2337.374811735406
15590,-2583.066206196954
15591,-2643.6169699481115
15592,-2558.1625843807556
15593,-1005.6141703492007
15594,436.5340197198433
15595,2048.0488144159253
15596,2270.5566706665745
15597,1969.5635963053471
15598,1560.8157901620696
15599,978.6711807408268
15600,799.2484061125139
15601,205.70191511534765
15602,124.29238060455566
15603,-56.473539950958504
15604,-291.54026795270266
15605,-191.56270278546248
15606,14.318001692233253
15607,224.86727887340393
15608,81.76108109785321
15609,-490.2532471831988
15610,-1658.1039697348099
15611,-2540.1546941815413
15612,-2711.2459004951
15613,-2980.196722463832
15614,-3128.1001003334927
15615,-3114.1110793899525
15616,-2785.391241450431
15617,-798.1430925995912
15618,420.86873923775283
15619,1831.7409900304467
15620,2111.385632527024
15621,1835.8264302904563
15622,1336.1102023187782
15623,842.8464342991017
15624,502.8358225932667
15625,19.13284861621858
15626,-188.07842427603495
15627,-315.7775192985497
15628,-284.5933242021038
15629,328.47886040072444
15630,1331.4317710574683
15631,2096.089196210662
15632,1596.5635729302687
15633,-112.61366762150891
15634,-1677.178495776218
15635,-1979.7052543288585
15636,-2194.9746057672637
15637,-2559.5010807379617
15638,-2670.1428655535283
15639,-2600.52294973097
15640,-2334.8843450974387
15641,-426.98738799947995
15642,1137.5979501728925
15643,2465.300515610529
15644,2518.7029895832875
15645,2317.743032066313
15646,1824.9013248158778
15647,1025.105900033059
15648,544.179472839904
15649,238.9748237867158
15650,88.27557743432425
15651,2.3402452256546056
15652,82.90467533010364
15653,592.4485402038451
15654,1575.0022718378636
15655,2088.0659387265546
15656,1855.910512333918
15657,985.8108674070313
15658,-2.2271243464769768
15659,-493.7892599032335
15660,-1263.2594438852645
15661,-1927.434859468134
15662,-1938.6599487822152
15663,-1680.038266526672
15664,-619.5459020628122
15665,92.73661532385619
15666,1314.2281690411096
15667,2253.3821229866235
15668,2273.9921144264476
15669,1761.1327901140585
15670,946.0598002021259
15671,728.844642011896
15672,301.0479526150907
15673,-217.7075312423996
15674,-512.2188035403757
15675,-508.7670894721165
15676,-390.10082883572454
15677,161.06412980253145
15678,1003.1670616940477
15679,1501.4703826244374
15680,1331.581476274005
15681,705.012057353999
15682,112.45678664209007
15683,-1076.8709436932868
15684,-1581.4632382497268
15685,-1888.2343801006884
15686,-2304.4147945051354
15687,-2113.9012288852527
15688,-1647.8258985321795
15689,-552.604822393873
15690,348.60216707953373
15691,1426.8593094838466
15692,1467.8215582782655
15693,823.6840324225362
15694,113.78543611347413
15695,-658.4077184929796
15696,-1311.1528257626494
15697,-2024.901102136261
15698,-2258.2455169412933
15699,-2455.953379793121
15700,-2357.96593832734
15701,-1451.0297730493949
15702,209.20357061629858
15703,1165.6896044345037
15704,667.0697424606316
15705,-767.6660175599253
15706,-1719.0479549336474
15707,-2428.688476514445
15708,-2590.5377731766876
15709,-2801.932294482424
15710,-2907.8780782880667
15711,-2819.474895248818
15712,-2511.4756811981547
15713,-945.8338076608818
15714,840.9494235582895
15715,1872.1743906413767
15716,1848.7662986943926
15717,1463.3184217027435
15718,932.829994737058
15719,-632.4407257216104
15720,-1020.2546291957934
15721,-1915.7163400713164
15722,-1846.6566075449232
15723,-2097.045417071714
15724,-2035.4571223928517
15725,-1346.2532346770558
15726,556.7990855378503
15727,1392.442001855876
15728,333.3475961868204
15729,-1785.2064671435617
15730,-2604.9149602872926
15731,-2957.604653893294
15732,-3060.6416778972807
15733,-3167.14699089895
15734,-3197.2202036246854
15735,-3192.425700462312
15736,-3089.244721449968
15737,-1951.021774082795
15738,591.1891477951291
15739,2177.9169925622373
15740,2261.781611935633
15741,2074.1150338408997
15742,1739.5285207146592
15743,983.8584361680217
15744,569.8743148756544
15745,-137.98014332927153
15746,-257.92910097916655
15747,-327.1154765292346
15748,-356.3408889691058
15749,-88.90214573864787
15750,355.6274468649635
15751,394.13481049556714
15752,-778.4487927888146
15753,-2399.3885128726274
15754,-2920.0760706768515
15755,-3117.255962550921
15756,-3200.235856764539
15757,-3284.3137900318525
15758,-3344.0344138225078
15759,-3348.687610611747
15760,-3269.2762225539063
15761,-1595.6605211689134
15762,858.7725505512111
15763,2413.5590889376754
15764,2522.6980691963577
15765,2340.239476163614
15766,1889.187138325852
15767,1293.2873604881352
15768,929.8647306300655
15769,243.83758421557715
15770,118.88753844200781
15771,-16.402300268740653
15772,-205.06438931371926
15773,-185.5684707756986
15774,56.87597076083404
15775,16.211941529163035
15776,-1569.7824760577826
15777,-2846.445506574303
15778,-3207.7694800414947
15779,-3297.907951006098
15780,-3377.3563201060906
15781,-3392.496797525074
15782,-3417.565332262324
15783,-3400.667181186107
15784,-3377.4299118685603
15785,-2428.6903333675814
15786,332.2868631000433
15787,2244.7883131395747
15788,2352.565999844929
15789,2117.1834749218815
15790,1513.2010761600463
15791,635.8375320178819
15792,476.5399363203478
15793,51.662726235369945
15794,84.67680059215259
15795,114.39940583256099
15796,237.9878087987499
15797,818.9693573137985
15798,1497.4718975035858
15799,2171.28017875153
15800,1873.9108102912805
15801,-376.76417265075287
15802,-2031.524951684202
15803,-2516.723082091535
15804,-2310.3910020439444
15805,-2367.910862576962
15806,-2617.1530904562705
15807,-2530.013206131681
15808,-1744.2342344616086
15809,86.23812863289274
15810,1407.2606271151535
15811,2725.187163126907
15812,2695.6471614287943
15813,2534.2833885298214
15814,2131.0343661820125
15815,1373.1132751948328
15816,891.9256087806359
15817,271.45476088233886
15818,62.58141854027089
15819,-16.958411681534137
15820,114.8843609658988
15821,641.9339234281167
15822,1648.4995975185086
15823,2245.6847261278576
15824,1766.0238724817534
15825,803.0074655090318
15826,-698.0282445310897
15827,-1707.954726372345
15828,-2046.2844890682316
15829,-2085.5822537305694
15830,-2428.777307963529
15831,-2431.636577247146
15832,-1638.5591538008882
15833,52.56727020115526
15834,1624.6112946615929
15835,2794.563174838888
15836,2759.499311021988
15837,2458.709846502731
15838,1892.0504021133963
15839,987.4081487079342
15840,472.93755981754384
15841,2.888982333401124
15842,-154.9092504650286
15843,-310.3592711847743
15844,-142.2573661575099
15845,541.8415530841389
15846,1483.6297111553795
15847,2110.236975796569
15848,1591.21319186749
15849,734.0786991897772
15850,-1035.556923974142
15851,-1966.7274442760781
15852,-2270.092301388562
15853,-2167.764622845959
15854,-2216.9599825408495
15855,-2117.26159525396
15856,-731.6267354133181
15857,504.36324112360165
15858,1502.5111012250732
15859,2570.485159553312
15860,2432.240062522484
15861,1898.63630015484
15862,1345.434688443507
15863,307.5254633194838
15864,-52.67751191310658
15865,-606.1385981207761
15866,-1018.1176316780969
15867,-1189.507463279754
15868,-843.4941886578714
15869,80.89362414140008
15870,1128.0776241608855
15871,1552.2956141389238
15872,939.7737828248969
15873,-725.8157718214178
15874,-2188.644211124807
15875,-2575.5261241555827
15876,-2505.1480622195227
15877,-2637.4236488521587
15878,-2536.2758457717728
15879,-2589.0820735983607
15880,-1726.5787594488377
15881,305.4866741878057
15882,1620.036161516394
15883,2647.6778463390733
15884,2655.805963018914
15885,2573.2629624622627
15886,2212.3215658257236
15887,1623.3308348279513
15888,1330.7588280645625
15889,588.145196732201
15890,443.1548769348458
15891,345.967460616829
15892,431.5958711873764
15893,870.891834461302
15894,1678.6673840408798
15895,2129.4542062598744
15896,1526.1024045401166
15897,-127.8579406714467
15898,-1446.0352681966308
15899,-1890.9525638297175
15900,-2206.400036693163
15901,-2623.9590019922193
15902,-2702.374858657374
15903,-2519.2572288538954
15904,-1925.6345129072843
15905,54.94589654321781
15906,1545.4323199231353
15907,2743.8051362711785
15908,2792.6689025815213
15909,2591.201856990492
15910,2195.016247126898
15911,1521.8523298596153
15912,1088.709448804137
15913,770.6777340221593
15914,469.3256200346713
15915,305.6096902115848
15916,219.94394153241043
15917,303.664757284919
15918,583.2791704396544
15919,723.98918766035
15920,416.2926759808013
15921,-818.8196040221675
15922,-2325.5048158181476
15923,-2909.9436281301446
15924,-3099.3830497870154
15925,-3227.308746446331
15926,-3296.4974871216696
15927,-3350.338331620372
15928,-3201.188465875387
15929,-1795.767688069177
15930,581.45884366604
15931,1844.797189207687
15932,1767.4169286247297
15933,1335.5807478867625
15934,883.8868210379419
15935,-581.0074990761167
15936,-830.9137672965179
15937,-1464.1334967576033
15938,-1772.0182235188668
15939,-1801.806259288317
15940,-1806.4782378753757
15941,-1546.2853260330169
15942,-1423.9433192049062
15943,-1232.0163344366954
15944,-1149.1441340212173
15945,-1849.9579066315823
15946,-2315.90893996732
15947,-2974.8769106098234
15948,-3119.4511610277737
15949,-3161.5717591540993
15950,-3261.744118265207
15951,-3245.8432278139417
15952,-3023.9696272164288
15953,-1245.070490950662
15954,727.0071298517047
15955,2160.6307155957993
15956,2148.2157469383683
15957,1925.266663054777
15958,1471.2985477167988
15959,456.38238241275957
15960,-234.7596862060674
15961,-1207.3762611390748
15962,-1276.6028469006283
15963,-1350.7807132624985
15964,-1130.641852634448
15965,14.844861762193155
15966,1142.5842369582958
15967,1932.7242073745906
15968,1795.7351715335221
15969,1112.03798816624
15970,-289.36093454448485
15971,-1224.342921165807
15972,-1551.520600247625
15973,-1935.2567264998365
15974,-1938.4963314974718
15975,-1964.7033429592882
15976,-1412.549814024256
15977,-530.114681309589
15978,786.78530115198
15979,1834.1905378042236
15980,1781.542745968525
15981,952.0902198999645
15982,-220.72225016281143
15983,-1095.3627989464771
15984,-1747.7609512894117
15985,-2450.997095583386
15986,-2735.3513415270295
15987,-2813.044439408142
15988,-2649.2388808437527
15989,-1525.6245440009927
15990,654.0764110556001
15991,1341.8790653333162
15992,888.063167214542
15993,-747.8129482594549
15994,-1892.7364258993466
15995,-2483.1016564062065
15996,-2650.495205542247
15997,-2834.8774921085683
15998,-2963.300184071558
15999,-2997.0299006710347
16000,-2558.81219646495
16001,-532.7061500392023
16002,1175.3514309114084
16003,2113.7009647253526
16004,2121.9571417694165
16005,1512.8281851749323
16006,521.9580961371106
16007,-643.5821359056265
16008,-1407.0496048373784
16009,-2034.5905850443621
16010,-2071.812646834652
16011,-1829.5917254418039
16012,-1901.4185700338699
16013,-915.6187063807528
16014,682.3500911236495
16015,1293.8040147785066
16016,1015.973763394437
16017,240.1089435857244
16018,-737.4730230778262
16019,-1563.14900860119
16020,-1841.3544901393511
16021,-1977.2547433966765
16022,-2272.870272016343
16023,-2299.615943085252
16024,-1968.6053720358543
16025,-955.9598015716236
16026,659.5316656800991
16027,1663.1889387498322
16028,1746.1282430300946
16029,1166.3914493663708
16030,800.4341485394015
16031,-174.99179101873355
16032,-404.50354841494453
16033,-991.3632496742342
16034,-859.169715965537
16035,-1071.2563076632532
16036,-698.4485597144977
16037,305.86558095581813
16038,1606.5847478647595
16039,2155.6633508291243
16040,2025.1796226774402
16041,900.0313093045869
16042,-1179.2367667583308
16043,-2024.7484715643725
16044,-2204.5825669289543
16045,-2409.2630488275004
16046,-2348.1549479746013
16047,-1937.199323917083
16048,-1110.8401409976277
16049,912.3606165518001
16050,2148.7507087260683
16051,2809.2862150868355
16052,2862.4393490763528
16053,2809.8243462450077
16054,2561.06636273577
16055,1977.9788505649299
16056,1692.303414412331
16057,1047.7437478785487
16058,801.8057004839364
16059,580.6369953354692
16060,671.2182053127466
16061,1018.7604087838948
16062,1860.50179292292
16063,2265.1514425387954
16064,2104.2724895254482
16065,1590.6498854290267
16066,803.0712826563379
16067,287.1505725731385
16068,-133.86697322129228
16069,-1115.0185755704472
16070,-1164.223295491367
16071,-880.2320211533471
16072,-240.94294380629307
16073,314.13790317958836
16074,760.1161009126827
16075,1515.2898826744363
16076,1261.6428323428854
16077,752.4668327834082
16078,426.1322763927584
16079,-383.2417177116753
16080,-786.3969762979473
16081,-1593.9867193551743
16082,-1826.282864638931
16083,-1916.0950299915808
16084,-1639.9409487292698
16085,-1163.550209737094
16086,-394.46505047386654
16087,87.28378603089544
16088,829.7552602537488
16089,458.67904057095916
16090,167.59842471045883
16091,-116.1455490588113
16092,-246.91240281903313
16093,-417.6242030773867
16094,-1032.0505153438396
16095,-817.9352488997591
16096,-102.44911956704183
16097,712.5419438363401
16098,1597.8767492503823
16099,2352.794911821398
16100,2329.653502002883
16101,2042.3473527540157
16102,1509.4084870495042
16103,801.8305725075161
16104,296.39527778219264
16105,-536.0297432629461
16106,-838.6344228834073
16107,-1002.3610273535379
16108,-1096.1780671314739
16109,-1094.8085620320255
16110,-824.0833013757816
16111,-472.5359004089921
16112,-636.7160474356502
16113,-1205.7759755734658
16114,-1451.3887180670167
16115,-2357.4190451771783
16116,-2673.4431410829475
16117,-2976.9195838075275
16118,-3099.4353950203395
16119,-2953.6208338787374
16120,-2086.329421890762
16121,-95.20154799144015
16122,1295.6790276802417
16123,2334.444908728002
16124,2315.7222243998085
16125,1992.867206169298
16126,1604.5773355553015
16127,1032.286022405959
16128,689.7949582076243
16129,33.93572751588346
16130,69.74260693634521
16131,134.6857294301618
16132,367.22041311873113
16133,998.1899300583735
16134,1825.896382896191
16135,2349.212976370143
16136,2475.4209359417537
16137,2003.4539275166912
16138,906.5582111491638
16139,-161.9998217430149
16140,-795.3941872215751
16141,-1314.5281852623982
16142,-1610.245636338231
16143,-1153.5198679807909
16144,-164.89861508087378
16145,1145.7522534970694
16146,1970.6066067241636
16147,2587.3816250448112
16148,2393.4531338001266
16149,1850.4176523971516
16150,1168.4376831668576
16151,602.3171393081745
16152,176.17256429521737
16153,-313.46443804313867
16154,-444.37802493363677
16155,-557.741248251101
16156,-418.938953878531
16157,213.2676770556274
16158,1535.158166109805
16159,2210.9116827832654
16160,2133.00979411395
16161,1608.1812722101597
16162,1039.709484582057
16163,310.76185339039756
16164,150.59827515301558
16165,-339.4631090649994
16166,-463.6355269400191
16167,-345.3495378048224
16168,305.1514594155568
16169,1025.3055948850083
16170,2008.8964590732837
16171,2566.235971856656
16172,2268.76786111492
16173,1624.6872025652754
16174,775.7122210021881
16175,-106.30047313274358
16176,-586.2884622301196
16177,-1479.6360936131068
16178,-2142.3653510431336
16179,-2129.4375876983595
16180,-1978.1098791409015
16181,-1123.3604570462176
16182,368.55903425082874
16183,1226.6997843959778
16184,1290.872996517834
16185,429.6116011672873
16186,-818.5807828083891
16187,-1499.1236373031745
16188,-1998.5441949314475
16189,-2437.6277334595006
16190,-2571.8380745124673
16191,-2471.7326922920447
16192,-2042.9645898478973
16193,-7.784130347452738
16194,1891.849096654868
16195,2580.821614014884
16196,2481.243709274818
16197,2313.0976372472646
16198,1766.7087274344765
16199,991.5621852484645
16200,361.63614234154284
16201,-304.40801405222396
16202,-639.2903218067205
16203,-613.5242010117496
16204,-564.6125878189529
16205,59.10447553301417
16206,1027.4564496864257
16207,1675.2156271158135
16208,1532.6215726748853
16209,95.31429064190803
16210,-1469.71451522147
16211,-2232.593997059336
16212,-2430.597772057572
16213,-2554.5502071547467
16214,-2707.1878319049038
16215,-2801.3060073380207
16216,-2771.8565179444895
16217,-1651.7296843907143
16218,521.1092380443079
16219,1887.9865319597043
16220,1761.196597713111
16221,1324.1426410716454
16222,737.368740105236
16223,-29.624001230357656
16224,-607.3022214183187
16225,-1254.6131252665157
16226,-1121.8700083446906
16227,-1240.978634600995
16228,-968.6932250743743
16229,226.13231203556546
16230,1365.4556027922952
16231,2031.534237408149
16232,1563.313013132625
16233,-427.75865546623606
16234,-2029.766292463679
16235,-2551.8332483244317
16236,-2673.4981887574068
16237,-2723.5143936950853
16238,-2794.2113863868326
16239,-2809.7981017590796
16240,-2073.5264003316133
16241,491.95820433837173
16242,2157.7801894463546
16243,2557.8356143821447
16244,2556.0054433504415
16245,2267.6448251617867
16246,1760.881160178337
16247,1094.2545537711285
16248,415.87264238325315
16249,-339.74651516758985
16250,-710.4824138205066
16251,-876.3575595638732
16252,-659.1116892919723
16253,-70.99940548343343
16254,403.32573515789363
16255,927.8672842814884
16256,996.6560011073844
16257,-247.68797657376237
16258,-1812.7729969311583
16259,-2694.594970336049
16260,-2872.52802635966
16261,-2997.6911793157333
16262,-3065.262123287009
16263,-2945.1419045247394
16264,-2235.434301428105
16265,183.44744569449574
16266,1730.0659010848608
16267,2516.7561515178413
16268,2411.168591010412
16269,1949.5858596689866
16270,1574.0726478463018
16271,642.8953686552421
16272,-157.94473148645935
16273,-778.3501496107085
16274,-1058.5756366319195
16275,-1006.8060933528235
16276,-896.6859456842069
16277,-605.710519979389
16278,-357.22699575231934
16279,28.878527488693468
16280,-68.25306724129487
16281,-1429.7970479281234
16282,-2747.9124448682205
16283,-3147.305354664994
16284,-3171.0391240983754
16285,-3158.455845010928
16286,-3180.687019875814
16287,-3186.2137598868508
16288,-2551.487355050955
16289,-280.31140023464565
16290,1612.3845482987633
16291,2370.711714206459
16292,2416.753211965527
16293,2234.315503025103
16294,1578.6524670434744
16295,832.111994380276
16296,577.8186330364559
16297,-21.352381155369564
16298,-344.5330796675313
16299,-310.1618730485079
16300,-76.98477876014084
16301,732.8735498945113
16302,1734.328419405964
16303,2294.4885562545173
16304,2330.4043773811236
16305,1025.3732929260639
16306,-763.1840305119682
16307,-1701.2254298943187
16308,-1975.2087923832598
16309,-2288.722343708607
16310,-2238.3571102050582
16311,-1700.553220162372
16312,-420.468644973998
16313,1161.971450599661
16314,2389.2814477534566
16315,2844.0548492789444
16316,2811.915693545187
16317,2425.183426930627
16318,1631.1176344789787
16319,872.1873159490228
16320,502.04227684408966
16321,32.36025885589467
16322,-224.44517151836615
16323,-359.90408060145506
16324,-231.04084994362213
16325,186.87744435811723
16326,1298.1612424073073
16327,1964.4966409291721
16328,1789.1637136720633
16329,800.8488015553945
16330,-873.2452503066447
16331,-1798.7334481328407
16332,-1990.2656676068862
16333,-2042.5667481258672
16334,-2210.7832105971916
16335,-1979.381996276582
16336,-608.1610948273157
16337,444.83580742664975
16338,1851.4181831606545
16339,2563.133623385766
16340,2332.9009877963686
16341,1851.7030166302654
16342,1200.433813140405
16343,522.6157701045558
16344,28.576517136088125
16345,-465.98039920915323
16346,-542.9120395190193
16347,-446.70457336494337
16348,-247.6156563348321
16349,521.0250597190663
16350,1741.6617223703904
16351,2302.8102696492915
16352,2182.2039994442207
16353,1278.4932518151525
16354,-194.59866415212667
16355,-1472.8764843337933
16356,-1755.7228942504344
16357,-1760.3930945246027
16358,-2017.3233488076314
16359,-1920.6135836289181
16360,-459.6653339310177
16361,993.885442314951
16362,2351.371012442217
16363,2816.3003851217204
16364,2819.953706319502
16365,2438.805741825862
16366,2006.8161535532888
16367,1098.7380823126655
16368,488.07716993980114
16369,-84.6803061661031
16370,-289.58233741688514
16371,-377.1509532253983
16372,-258.02652566868096
16373,405.40000011991464
16374,1509.9931325710986
16375,2114.516855220242
16376,1988.4056359159765
16377,971.6536183406813
16378,-926.7812924156328
16379,-1976.7112645124348
16380,-2085.279217220244
16381,-2379.2043045745127
16382,-2313.533317897084
16383,-2036.3093992031056
16384,-702.9546390288152
16385,824.9361887748229
16386,2147.0876326822295
16387,2659.8996980385073
16388,2579.9484676513284
16389,2016.8778138697896
16390,1381.6981547738978
16391,298.27356555957647
16392,-74.27299986519708
16393,-618.6788875701134
16394,-787.0819521800315
16395,-765.7527239431498
16396,-655.2209084831916
16397,323.5351936780071
16398,1397.432748328755
16399,2090.125464016145
16400,2171.3159239412175
16401,1761.7923394734842
16402,771.5416418085164
16403,-225.27552749605715
16404,-1425.7545322862647
16405,-1912.6859493568193
16406,-2095.330530598427
16407,-2046.7586486075008
16408,-894.5833420829878
16409,594.6842678998212
16410,1949.902652826651
16411,2616.3727569138673
16412,2496.029760959821
16413,2160.553504145633
16414,1608.9350011441463
16415,1016.0455632545932
16416,541.6720976925242
16417,-185.14190331294662
16418,-617.2397765326601
16419,-687.3392875781296
16420,-947.5538849285166
16421,-788.2997590339675
16422,-227.7803746440911
16423,348.859730754715
16424,618.6342489495247
16425,-358.5275188451477
16426,-1738.102547967573
16427,-2308.2360850333775
16428,-2436.6381051005073
16429,-2599.8538618398634
16430,-2809.61886575621
16431,-2681.961796079851
16432,-1817.188361974003
16433,-141.80516099468403
16434,1473.3020930926457
16435,2135.003268817444
16436,1976.1490026206377
16437,1718.4211889462606
16438,1410.4627866304243
16439,798.5307544965646
16440,744.6297005955919
16441,11.280283981991083
16442,-92.16992046794795
16443,38.5359368146422
16444,1.2699627547446966
16445,91.99450983590637
16446,116.51601587964035
16447,331.87792104792135
16448,440.7438158473663
16449,-551.8715756224184
16450,-1430.2548257669087
16451,-1997.9176149411053
16452,-2390.0883736089086
16453,-2408.1589904991133
16454,-2268.453292465524
16455,-2263.745915163332
16456,-1742.0286476149702
16457,-47.33138660197496
16458,1310.8654517995192
16459,1872.8782759858589
16460,1659.1301042977996
16461,1591.5730273863026
16462,1232.889785554788
16463,208.4555444974085
16464,-636.0778968471336
16465,-1716.735619691669
16466,-2064.5564902999895
16467,-2230.4617302844276
16468,-2256.122319121846
16469,-1933.8125051514046
16470,-459.7572736109779
16471,995.2651563949058
16472,1710.6666029499238
16473,723.4842607343963
16474,-1050.776477124748
16475,-1654.4462611146794
16476,-1833.6939284317907
16477,-2020.151850039045
16478,-1922.839847667897
16479,-1758.7559536727051
16480,-811.647884302353
16481,1040.61628749988
16482,1917.4716532558077
16483,2402.3934804519604
16484,2434.9143548922048
16485,2257.353231190531
16486,1627.1939782846698
16487,740.3701059988682
16488,166.45385634033798
16489,-718.0874699386884
16490,-960.9131121053863
16491,-1302.6420308566385
16492,-1437.2353471533143
16493,-1281.3112132432009
16494,-350.74498240701803
16495,917.0625505795714
16496,1521.7150338499646
16497,1368.4858742074146
16498,864.3310926019002
16499,251.14871692875874
16500,-330.2751493266277
16501,-528.8070247389243
16502,-299.1750044585876
16503,-43.70459306795221
16504,306.91106369631405
16505,858.1719857945377
16506,1270.4432676427907
16507,1706.4975166919105
16508,1854.291775197348
16509,1722.9780724752075
16510,1037.366733312978
16511,11.042552323907252
16512,-1150.8183947221796
16513,-1904.6366132195099
16514,-2023.92321829165
16515,-2072.643337698154
16516,-2023.5409602890802
16517,-1457.6541633921968
16518,-557.4163321391115
16519,853.2630470083444
16520,1554.9302130021908
16521,1093.502014723141
16522,541.8488535061038
16523,-609.8230193512576
16524,-1173.4928658629512
16525,-1171.9115456038546
16526,-792.9108869842731
16527,-441.2936401189705
16528,450.09549114883276
16529,1446.3737007378008
16530,2025.7782021084126
16531,2431.8736344524073
16532,2529.3232520447355
16533,2440.4949734214683
16534,2152.5422941095408
16535,1309.5826307018476
16536,486.0596331721062
16537,-310.809838488406
16538,-870.841952650968
16539,-984.6186071914341
16540,-954.0764806774534
16541,-822.1923600391133
16542,151.7741887368107
16543,1369.8235389756635
16544,1703.7393419580794
16545,1201.6568368533826
16546,622.2964917838042
16547,36.293308309055874
16548,-225.83703230631417
16549,-369.26714963142746
16550,-491.3731984320326
16551,-266.24120885980415
16552,472.65653027296133
16553,1506.0693361534873
16554,2084.881251977921
16555,2481.8078732165773
16556,2460.8798868689883
16557,2338.7686964588343
16558,1853.7314296733375
16559,677.7072118825038
16560,146.21391174616087
16561,-575.0490749428513
16562,-775.062503238454
16563,-940.8526587297591
16564,-1059.6274866864655
16565,-1044.1788701390728
16566,-890.1557498737814
16567,-577.1214301421953
16568,-274.75858550852035
16569,-306.63192539786405
16570,-802.0440040295636
16571,-1486.7983740258271
16572,-2013.4280307127717
16573,-2186.970098542146
16574,-1820.2746985975884
16575,-1688.9378294591054
16576,-335.2063011683663
16577,363.71560657973066
16578,1685.389372697767
16579,2351.5048615583355
16580,2561.9177093558783
16581,2496.702392006914
16582,2013.6260125427727
16583,1325.3425956821482
16584,740.5904016218874
16585,-4.810411079306228
16586,-142.35513705203869
16587,-398.2107633408411
16588,-604.4501836454148
16589,-456.3879347116034
16590,-57.35612686596807
16591,386.5980413975462
16592,511.93901266987297
16593,10.69533310814321
16594,-1576.2001844753097
16595,-2378.3826362752175
16596,-2592.090595810233
16597,-2511.994692598982
16598,-2356.446293066062
16599,-2405.604494396749
16600,-1264.9341295599793
16601,485.4984212133279
16602,1761.7602141427046
16603,2255.070572640139
16604,2366.594250583841
16605,2214.8219549459454
16606,1790.7250899810972
16607,906.3276186298096
16608,394.21728364869
16609,-375.55943900892333
16610,-698.2751442800273
16611,-909.981015171311
16612,-1079.8215686616352
16613,-1083.0449647222333
16614,-849.7717246159339
16615,-783.3526260645172
16616,-1053.4231081176385
16617,-2001.2873537763192
16618,-2572.6889495065057
16619,-2990.961477527183
16620,-3002.532556800052
16621,-3076.487584120852
16622,-2915.050044037698
16623,-2780.0966727254136
16624,-1938.6579441743681
16625,-209.62562857743686
16626,1228.3019061306493
16627,1962.4139279372973
16628,2075.1012522279775
16629,1934.6366615127884
16630,1483.8349593581481
16631,672.8848237872979
16632,292.3577292554733
16633,-673.6652140918022
16634,-1022.385629941496
16635,-1012.6353319874939
16636,-1214.9542423927815
16637,-1052.0091015823402
16638,-223.5373206976465
16639,1123.5682683278346
16640,1783.1038188190948
16641,1450.090051252049
16642,516.0163943988094
16643,-572.5224390215362
16644,-459.78822300907507
16645,-882.8634750349531
16646,-1095.3069310726041
16647,-592.4523254487646
16648,248.7957984504893
16649,1462.5117922558973
16650,2073.2742628528135
16651,2512.557575221575
16652,2483.646273747848
16653,2309.374639883175
16654,1890.7586853721493
16655,849.1742215355523
16656,469.58988862292574
16657,-241.48994103842145
16658,-547.7801542530593
16659,-668.1786755849155
16660,-551.2847343593127
16661,-418.21127058052394
16662,406.6794188914203
16663,1429.132746995541
16664,1865.9171115036706
16665,1272.9028778815828
16666,192.26299158394258
16667,-396.95738138987116
16668,-411.5006780500355
16669,-436.3241929400822
16670,-569.0191121308102
16671,-494.8997500794733
16672,185.26044814219864
16673,1364.9988972502952
16674,2294.743609105762
16675,2763.034437470876
16676,2760.357413342962
16677,2666.95081310013
16678,2372.8439117810294
16679,1634.773015921804
16680,1082.0636831556171
16681,451.9722769696855
16682,80.06545563545203
16683,-93.11932851710642
16684,-108.07625279934464
16685,-18.399768521593693
16686,621.3586239470843
16687,1644.2822883444303
16688,1885.913772571435
16689,967.0461433017027
16690,-193.40419680300627
16691,-951.5744980597082
16692,-1197.9349415652925
16693,-1637.7998674764765
16694,-1541.2927726514172
16695,-1099.9853818564893
16696,-473.7135055392333
16697,883.8235292070856
16698,2258.2411243350116
16699,2676.151940544346
16700,2718.148501714778
16701,2585.942975069707
16702,2104.54925943061
16703,995.5800459631183
16704,726.1793933269802
16705,39.33118702080641
16706,-264.666023395246
16707,-343.4288625907319
16708,-433.0015970208324
16709,-299.4704236505636
16710,209.53618910998725
16711,1327.817522593906
16712,1645.539237288785
16713,786.1531553056565
16714,-264.1265956500945
16715,-1184.9197455500246
16716,-1141.4819875337264
16717,-1575.9525804820098
16718,-1783.7595222226946
16719,-1101.9582804803695
16720,-92.46573976577531
16721,1516.989904786568
16722,2279.023622119482
16723,2623.772629427686
16724,2703.666267720348
16725,2590.6828925774253
16726,2134.059140955538
16727,1338.8065336231523
16728,694.433649429912
16729,-91.40743207325514
16730,-158.67701480873743
16731,-235.19978026392087
16732,-394.10114482126454
16733,-180.87930533044155
16734,462.986359810104
16735,1518.701681485052
16736,1892.6615217408332
16737,1543.3155073500343
16738,739.8663305511096
16739,-171.56744186366862
16740,-296.99988559126257
16741,-324.25413536775727
16742,-476.7542283255066
16743,-275.18667294141665
16744,218.7131944219535
16745,1257.7938251393878
16746,2050.0818527553265
16747,2432.7982256330006
16748,2437.7550731917877
16749,2220.1987755633263
16750,1862.0156477664364
16751,974.8163526116857
16752,341.3003407654268
16753,-267.7939770285124
16754,-455.12140083426686
16755,-464.6187152851147
16756,-488.06061407616335
16757,-484.63216449208915
16758,-324.9421808482786
16759,-112.00904714906599
16760,217.71557580223268
16761,328.9039505435743
16762,-183.0730514033759
16763,-1639.8946125473567
16764,-2488.1178502353805
16765,-2469.6318797983236
16766,-2776.080880520677
16767,-2768.5238052545665
16768,-2149.7376303045608
16769,-168.15245646812158
16770,1376.1174066374929
16771,1924.0591166637923
16772,2002.2718132874631
16773,1746.058396626241
16774,1220.1444165444796
16775,601.7102757153357
16776,-99.69365245606
16777,-823.8147008760667
16778,-990.4875989992692
16779,-1104.143858835619
16780,-1410.0331035460722
16781,-1481.667218153176
16782,-1355.885234958624
16783,-1475.3391278298816
16784,-1456.1008446904573
16785,-2210.3180175277234
16786,-2788.3084404753217
16787,-3073.6753822915134
16788,-3067.048981248792
16789,-3053.981845602244
16790,-3073.432421844556
16791,-3018.981726624753
16792,-2553.745541900044
16793,-257.6564454377112
16794,1403.2709580002472
16795,2003.0965692793231
16796,2269.02524140832
16797,2148.835272826652
16798,1730.9526484540263
16799,1001.5306281895429
16800,475.54169824590457
16801,-536.9828961613848
16802,-858.1169754851168
16803,-1360.799601686008
16804,-1194.4717011219066
16805,-780.1404557556376
16806,-151.33871283764378
16807,1002.3574986649393
16808,1612.7619247063928
16809,330.25546874106965
16810,-1452.7594742690665
16811,-2538.242101562174
16812,-2608.1356679661876
16813,-2671.816985412488
16814,-2755.0183029047153
16815,-2714.616376325885
16816,-2134.976286037628
16817,323.2302140831727
16818,1757.1208114637764
16819,2287.418553330286
16820,2293.3248756981448
16821,2079.770286485566
16822,1268.7021836123477
16823,98.63228086862989
16824,-905.5418893044235
16825,-1790.5050140491219
16826,-2102.05801113629
16827,-2378.137661648333
16828,-2584.846999002146
16829,-2264.2121730643466
16830,-1297.5145451947385
16831,426.60373479866325
16832,980.8865763080291
16833,-885.0735248401178
16834,-2201.9673305794136
16835,-2673.424974719609
16836,-2823.1103983869803
16837,-2812.902706947777
16838,-2816.518559523837
16839,-2716.012899628202
16840,-1774.0727670258723
16841,674.5803341129586
16842,1829.1891394212103
16843,2254.76180292542
16844,2340.098659391072
16845,2138.5704625795292
16846,1813.1538062709037
16847,1257.9953679695548
16848,852.5476380501129
16849,67.59216878774986
16850,-325.1542175142415
16851,-390.5694012024014
16852,-555.8138402650369
16853,-431.5430316294051
16854,339.38338474664636
16855,1351.0962098330099
16856,1767.144693453806
16857,1560.4959507390095
16858,1025.6260137869117
16859,452.82779023756274
16860,114.38999768517833
16861,144.26267386017406
16862,-54.01406862078239
16863,39.22192684402274
16864,486.31764933439985
16865,1076.7102746727376
16866,1530.266241305744
16867,1837.2551354933114
16868,1949.8736676117494
16869,1538.5960467775374
16870,977.1245927459789
16871,171.38799626015233
16872,-91.76906335121873
16873,-822.839874723129
16874,-1194.478939178349
16875,-1379.8438556653773
16876,-1315.9623714215445
16877,-954.5679307192296
16878,-318.58912700246236
16879,1002.9999038768709
16880,1646.1783177820932
16881,1561.6665601584778
16882,1177.0077605385748
16883,482.5347212651668
16884,32.23547530885019
16885,-28.315117977364388
16886,26.66828688771934
16887,191.07269169714934
16888,686.5920296843972
16889,1558.4636735417166
16890,1924.9391319019242
16891,2197.457344810536
16892,2247.929682740947
16893,2125.495759398038
16894,1783.3529819187622
16895,942.2082177650292
16896,419.5006576321236
16897,-271.30152654926513
16898,-643.5640649583071
16899,-908.4547527353005
16900,-1056.6264475728688
16901,-842.3413363962578
16902,-110.79982391340681
16903,1164.7333132486765
16904,1719.0938084486008
16905,1650.6494712854924
16906,1149.9224249655506
16907,391.1531480058604
16908,-84.6331509067551
16909,-334.5096284475663
16910,-308.02033822072985
16911,-176.59239130307887
16912,316.8652507947254
16913,1280.6299428159177
16914,1820.6707588469274
16915,2170.495216967278
16916,2145.2890575116135
16917,1933.7241838706489
16918,1434.3538573251178
16919,591.6562931970362
16920,191.19072077059587
16921,-564.0321942611262
16922,-978.9277206422806
16923,-1068.1517694591364
16924,-1139.5178977147405
16925,-1145.4819421683262
16926,-957.1477842291666
16927,-578.7196054285797
16928,-161.76315277316044
16929,223.7981488850107
16930,88.41311354411195
16931,-416.73194065075364
16932,-689.8253673081045
16933,-684.5681137487869
16934,-596.5319200223202
16935,-385.02969580359763
16936,148.91181564293336
16937,1147.4731947627804
16938,1854.7805147703907
16939,2272.830140544648
16940,2344.2294121928817
16941,2248.7143238754447
16942,1852.2603089257047
16943,1197.1193403304235
16944,518.7537724582112
16945,-471.549448625795
16946,-947.1948487822067
16947,-1140.5687904785166
16948,-1204.4686456855593
16949,-1108.1605293468895
16950,-1166.2395953595778
16951,-920.9220912568339
16952,-410.7094044622764
16953,-470.73324420105484
16954,-923.359152781562
16955,-1971.2357618636547
16956,-2273.1947394934587
16957,-2089.034789875578
16958,-1900.1550834784714
16959,-1567.5742239198016
16960,-470.1624477448722
16961,823.8590073190784
16962,1609.219575962845
16963,2267.366213371171
16964,2255.2437027840074
16965,2226.77412122747
16966,1948.5838457826674
16967,1183.7666135414186
16968,757.3760557377385
16969,-200.56854858882613
16970,-589.0566154912614
16971,-840.3513964183271
16972,-753.6228592126046
16973,-502.88140142218356
16974,382.8651569752354
16975,1522.89918540078
16976,2197.298289177506
16977,1907.4704366071962
16978,695.0270987265446
16979,-295.79842752603923
16980,-586.9872398280694
16981,-711.3343449705982
16982,-704.8909017876189
16983,-432.67697639524044
16984,328.83049970961684
16985,1698.0190227780276
16986,2369.550382873782
16987,2754.8723137503607
16988,2754.766340871501
16989,2709.380392159869
16990,2302.896148256784
16991,1629.0523530471517
16992,1059.645451037411
16993,221.8376100335478
16994,-284.0619720733762
16995,-535.4865355630022
16996,-538.9718967329569
16997,-374.1185395366129
16998,287.77898961161685
16999,1439.3112068282173
17000,1901.6240391926624
17001,1478.3023118350773
17002,783.399052686491
17003,-161.11942503316143
17004,-787.6055546691064
17005,-1005.1106749498971
17006,-1248.6875082528366
17007,-1449.8843189267693
17008,-408.4858098055904
17009,541.9706356802577
17010,1649.2371149419512
17011,2094.2702004563757
17012,1980.3691712794016
17013,1645.8764757008544
17014,1057.7592511436117
17015,283.41846849045595
17016,-599.5789379523129
17017,-1434.8310569919115
17018,-1899.30744196208
17019,-2114.792479416121
17020,-2321.249021732664
17021,-2512.044298372276
17022,-1817.595660044555
17023,-23.43410630350261
17024,595.6234576549205
17025,-173.79832600466625
17026,-1178.1688222685034
17027,-2100.7165408362607
17028,-2346.2854098367047
17029,-2511.298762595921
17030,-2573.8707800395778
17031,-2415.28767936857
17032,-1302.9280581241446
17033,1085.7556149425568
17034,1730.292644163598
17035,2085.3059579406304
17036,2224.443872002282
17037,2212.6741313712623
17038,1618.273380702865
17039,602.2530696134285
17040,-1047.566294223889
17041,-2062.478805845264
17042,-2420.274670333515
17043,-2575.8947443528423
17044,-2684.3604919097443
17045,-2752.271500191531
17046,-1984.3353054545926
17047,177.07895630275607
17048,933.8240943259092
17049,556.2763379000405
17050,-1002.3323484749495
17051,-1794.556134755962
17052,-2269.6556408783536
17053,-2398.8512130949975
17054,-2380.839228613779
17055,-2057.211190322611
17056,-1430.2931040166552
17057,405.66528475909337
17058,989.7828748572693
17059,1363.6312098880073
17060,1530.8242261266012
17061,1320.325841133819
17062,483.703220844074
17063,-958.1796009958664
17064,-1460.5916943545715
17065,-2361.3168427225223
17066,-2609.1528621832795
17067,-2787.7231497890352
17068,-2809.457041061106
17069,-2468.4862933367594
17070,-1190.6703632000142
17071,744.0852803893262
17072,1568.1833736256438
17073,1468.1710721928134
17074,784.226309109656
17075,45.16223938130345
17076,86.8399176151348
17077,-187.92289496368645
17078,4.199456517929832
17079,421.57051601108674
17080,943.7011447658867
17081,1847.6339315241964
17082,2195.5362185292624
17083,2516.344003943012
17084,2498.040163809329
17085,2476.9491461640764
17086,2284.495120260232
17087,1738.7568724938055
17088,1045.3482828037438
17089,0.7509495757003037
17090,-792.3921916127719
17091,-1034.9438343070954
17092,-1487.9094456067082
17093,-1517.1627673703954
17094,-1318.817422114672
17095,-846.7647618836965
17096,-576.6073076430987
17097,-500.2662016385449
17098,-1225.5352631816302
17099,-2100.584330741537
17100,-2485.353360996317
17101,-2711.104961040287
17102,-2965.2693912288405
17103,-2906.6744124280312
17104,-2123.581625200661
17105,-231.51059626490925
17106,593.4732598521662
17107,1104.8744462899215
17108,1212.2705402137958
17109,1181.6360413292884
17110,426.3232906928933
17111,-605.46954251177
17112,-1180.513425190773
17113,-2362.719098267431
17114,-2610.8341260375205
17115,-2822.4350360644494
17116,-3059.024990403491
17117,-3062.1580789924305
17118,-2967.2574116197857
17119,-2520.9606445844324
17120,-2316.840864265444
17121,-2631.2242656075587
17122,-2734.975765271922
17123,-2832.2087032952695
17124,-3036.7858811248825
17125,-3074.987275839827
17126,-2837.0806546392855
17127,-2472.262705252794
17128,-2041.3185833687737
17129,-788.6903516740533
17130,729.0541442282992
17131,1249.5123069699805
17132,1381.0454557918836
17133,1236.685740718331
17134,496.5152027163303
17135,-1311.7364463530016
17136,-2412.897410539751
17137,-3259.733864769739
17138,-3504.9453635006857
17139,-3572.2114667959327
17140,-3544.5471738418646
17141,-3348.3572915554196
17142,-1984.293184422669
17143,170.06847803668842
17144,1028.9997817917813
17145,1109.8908841426016
17146,855.5343914718641
17147,14.249151985512114
17148,-949.5788324895577
17149,-1332.7053320378861
17150,-1596.9639819123897
17151,-1341.754896290972
17152,-125.17402726917021
17153,1281.3585311929305
17154,2029.2648184774598
17155,2393.0138497211638
17156,2415.940212342748
17157,2341.859567281417
17158,2086.3649649972226
17159,1245.7788160124096
17160,515.1841038853815
17161,-476.3811037793422
17162,-947.1825588844423
17163,-920.3632513727957
17164,-712.5403584038135
17165,-312.3388862090187
17166,467.11507683976356
17167,1698.6932799603499
17168,2250.601325023624
17169,2290.1750738056376
17170,1529.133194563884
17171,600.5911685894366
17172,120.47152331513011
17173,-80.3554317374761
17174,-136.14156950720772
17175,179.31752425977785
17176,966.1068348359214
17177,1785.9643406780338
17178,2359.912006026333
17179,2665.740277574486
17180,2648.48213360379
17181,2541.249486061036
17182,2015.2171435151383
17183,1293.649868550319
17184,636.2487479446609
17185,-215.6973560329399
17186,-597.8015278967401
17187,-777.3100355133779
17188,-734.9441017926079
17189,-471.28495911682614
17190,176.8047484770581
17191,1317.71015351548
17192,1906.2697451297065
17193,1344.5233183852954
17194,395.6957671677394
17195,-532.9191674592666
17196,-806.953723117519
17197,-991.9404286389123
17198,-770.3313724946258
17199,-642.3841475856417
17200,48.485735747164405
17201,1491.256000740523
17202,2529.2088236316745
17203,2881.698474222061
17204,2893.473569310873
17205,2815.1427842715925
17206,2388.8576127017955
17207,1712.7549444867143
17208,1250.5388561770617
17209,273.77461419597506
17210,-146.42797213794975
17211,-400.78526004366563
17212,-386.1633088212992
17213,-231.75721223105253
17214,586.8308665691626
17215,1764.2296168027706
17216,2216.1570086030024
17217,1681.2096597118923
17218,722.6884739882228
17219,-277.34592359162076
17220,-469.4049215742783
17221,-500.7803177205932
17222,-568.3145257423067
17223,-334.67238677843284
17224,182.502734704303
17225,1542.271305208176
17226,2347.7407075367814
17227,2766.785545240299
17228,2824.3763995617533
17229,2659.2031729993096
17230,2116.777884358498
17231,1238.9571437526436
17232,611.8904784929458
17233,21.349894572035417
17234,-432.59206709027245
17235,-589.4450588677041
17236,-607.0435455957409
17237,-510.81232511931285
17238,46.122269088518514
17239,1244.6091501126473
17240,1884.8479133074952
17241,1575.6065559605418
17242,734.7572763709712
17243,47.18476772218686
17244,-394.9553207363133
17245,-532.4830234918761
17246,-388.8994332513546
17247,-74.21004912278559
17248,721.8963389121901
17249,1782.2278267503914
17250,2295.219578801569
17251,2591.526316194356
17252,2535.0087368254144
17253,2470.9632380932994
17254,1991.2930563085936
17255,1312.706630945549
17256,723.6147238758505
17257,319.83764697389057
17258,-206.69041931237572
17259,-335.4919885214177
17260,-364.2647309830559
17261,-428.5835448626134
17262,-242.42241918479718
17263,103.77525379932453
17264,663.8303814942583
17265,478.97346275005407
17266,-321.05610536224776
17267,-1698.587909539107
17268,-1982.4846958353237
17269,-1930.8885388788322
17270,-2046.4302509286533
17271,-1797.9307011657158
17272,-323.3782612994973
17273,1065.7841336578065
17274,1774.766220968596
17275,2228.8562838647968
17276,2211.3170749495625
17277,2097.924937114883
17278,1724.9370703589184
17279,832.6258887454228
17280,447.1238235088372
17281,-413.35950758249714
17282,-795.1310179122976
17283,-1134.2214409571975
17284,-1218.6150687720417
17285,-1208.7140488853177
17286,-996.0336336567358
17287,-660.6394228296971
17288,-177.4425828456577
17289,24.84275005278913
17290,-346.32024078592985
17291,-1445.893146204328
17292,-1579.8445604054975
17293,-1559.2539836228418
17294,-753.1269900903349
17295,-329.84811686736265
17296,542.8590403977519
17297,1280.692591676323
17298,1955.8725427149109
17299,2434.7083401007044
17300,2518.5442720080696
17301,2517.5510055330496
17302,2230.0389141041555
17303,1510.1321013056227
17304,732.7038049550196
17305,-239.86080764767067
17306,-587.9444529429612
17307,-852.4192764557055
17308,-885.9623103576171
17309,-760.8382748335027
17310,93.06389668448517
17311,1366.0605968929203
17312,1992.559026144227
17313,2035.5475829966372
17314,1613.5116701745912
17315,707.7121656028163
17316,260.1006218667037
17317,197.80358873740346
17318,100.08403908340145
17319,167.32918752934393
17320,576.1653078687194
17321,1492.4214150995215
17322,2151.291099552235
17323,2483.6627610628857
17324,2480.9776728757247
17325,2206.6111856229213
17326,1681.586592485652
17327,1026.0039579855993
17328,639.8437248080324
17329,-134.65900338627654
17330,-445.89035271888895
17331,-577.0790318897493
17332,-543.3986883506416
17333,-443.9466023742826
17334,132.9586873258462
17335,1300.9886770260225
17336,1874.907065891359
17337,1651.4693125154472
17338,902.7513950815045
17339,44.18825021758407
17340,-232.87583395617034
17341,-541.2699265955658
17342,-735.2259547619011
17343,-200.30488993643164
17344,406.49047756705414
17345,1416.3002570599685
17346,2083.955962994365
17347,2331.36206310762
17348,2330.7028742732646
17349,2147.511648382259
17350,1395.5598108465167
17351,654.5743280113128
17352,92.32993848070461
17353,-559.6558784672499
17354,-1213.4580018635202
17355,-1347.8379271070023
17356,-1712.762508566199
17357,-1958.4160428528926
17358,-859.3772973956994
17359,343.1036829443383
17360,1097.4773251483855
17361,1145.0229722647944
17362,176.00201958309097
17363,-1314.7590664463385
17364,-1920.3144398360162
17365,-1877.0387219777467
17366,-1820.1535605616152
17367,-1606.654465287016
17368,-258.3193090002963
17369,1372.1461626548266
17370,2280.7063047072947
17371,2577.466619149851
17372,2586.490908070337
17373,2550.579251486998
17374,2246.3347729142943
17375,1496.3728397666675
17376,830.7062472440751
17377,-310.4743210497572
17378,-668.819268955374
17379,-888.7220633036442
17380,-899.3253779549788
17381,-774.2473545561751
17382,204.44970855822544
17383,1374.5295757318631
17384,1927.6869528577
17385,1399.331243932799
17386,133.3477445033936
17387,-1638.8509170990642
17388,-1816.7239041884438
17389,-1790.54048256873
17390,-1766.3314592187462
17391,-1535.2467629191883
17392,-295.75327362487815
17393,1161.5109290518008
17394,1960.0953360630413
17395,2350.519964889661
17396,2452.8609237901533
17397,2477.5596289519394
17398,1949.0566195814097
17399,894.7504477469537
17400,243.42125281156063
17401,-672.9842239027228
17402,-1371.0597199561723
17403,-1807.2237807795243
17404,-1817.654359106997
17405,-1413.3201269996807
17406,-795.2407288200799
17407,-296.4959411954208
17408,165.03988465678626
17409,37.68838316703638
17410,-691.5859993507289
17411,-1470.7830116283953
17412,-2040.624211936555
17413,-2161.5169419750982
17414,-2429.956704590623
17415,-2423.0384108046264
17416,-1291.7073028490488
17417,961.3961711650368
17418,2039.803180700074
17419,2265.6320359225074
17420,2091.4424504963804
17421,2234.6360521886086
17422,1891.3975530742835
17423,877.4195333736476
17424,241.02859602476656
17425,-1555.3467328272293
17426,-2121.5044355720343
17427,-2598.71051487127
17428,-2981.946042046512
17429,-3081.5794596201285
17430,-3028.568180014852
17431,-2550.6925702433145
17432,-2102.528856975726
17433,-2126.4355133913023
17434,-2442.152637669788
17435,-2911.0687419976825
17436,-3203.2245011677933
17437,-3318.405875507725
17438,-3315.7354171512807
17439,-3379.302115763476
17440,-3186.710514613094
17441,-2240.9157652561557
17442,-500.26316761120097
17443,258.40648018495267
17444,714.6281140289096
17445,636.5207700341647
17446,151.8405991911597
17447,-363.18430734922975
17448,-604.5753730808707
17449,-1968.2447879026697
17450,-2812.4921633143886
17451,-2872.299202931639
17452,-3094.512134416561
17453,-3135.0298846533137
17454,-2963.6373090003294
17455,-2503.1149086511778
17456,-2147.7794812245515
17457,-2399.4851417867562
17458,-2590.3597843253715
17459,-2933.7654752833837
17460,-2989.7062320196756
17461,-3116.5353738025265
17462,-3122.4945367951377
17463,-3156.19748682865
17464,-2759.9013666389574
17465,-634.4714608431647
17466,940.3801058973951
17467,1396.5983374206933
17468,1523.9503492436427
17469,1449.6259635328108
17470,1096.2483724439305
17471,-267.0623792677054
17472,-1444.3705741244082
17473,-2667.547001935399
17474,-3051.104872807089
17475,-3151.0986790681445
17476,-3226.2710110609905
17477,-3097.9011700725205
17478,-2348.5105928554754
17479,-1089.4246970341148
17480,-64.7118776949022
17481,-495.1971969014719
17482,-1855.3233475841982
17483,-2600.2999169639506
17484,-2661.715866598501
17485,-2704.870786938501
17486,-2696.330360877002
17487,-2598.4341639611375
17488,-1435.0556909710356
17489,580.0559790098346
17490,1724.3595665511136
17491,2047.2480069427374
17492,2074.047828068354
17493,2171.828703150911
17494,1895.2820891017802
17495,1409.535285331666
17496,1042.7580348085676
17497,31.621214980994658
17498,-860.6100834135076
17499,-829.1466391678689
17500,-1145.3850219437657
17501,-830.1192361018122
17502,399.19227376161757
17503,1642.6855618282225
17504,2190.4926017108055
17505,2148.9595657209316
17506,1256.480102552442
17507,-83.1347393185782
17508,-212.10373608108407
17509,-232.52951356448372
17510,-116.27495843441218
17511,3.814499229489705
17512,723.7101389212505
17513,1876.9464722963955
17514,2439.305003584361
17515,2756.2997936064353
17516,2761.9433702368265
17517,2752.2092579745786
17518,2509.2213994303393
17519,1831.372770344452
17520,1359.1502890969603
17521,652.3750298947028
17522,14.572765014269798
17523,-134.79051115439816
17524,-202.7876694462391
17525,16.135245034804925
17526,779.0640200850576
17527,1819.101705796342
17528,2506.45436835211
17529,2283.6082154850315
17530,1342.3158258008564
17531,402.65765398036984
17532,165.80758644394587
17533,168.09377450416116
17534,196.00997381073844
17535,328.4407573590732
17536,861.7591052568009
17537,2075.2772642721748
17538,2626.2540571985824
17539,2905.6448980544337
17540,2853.157354971224
17541,2723.599603745835
17542,2160.899653906412
17543,1285.6705733903627
17544,910.0873779467172
17545,362.6683606263457
17546,-38.24939434868559
17547,-168.86414798612648
17548,-252.9759528906728
17549,-158.34220898170142
17550,379.9520383293797
17551,1279.0001461785102
17552,2209.851326045232
17553,2052.9080806934667
17554,1393.2259734216439
17555,874.2477124582354
17556,659.5942649802316
17557,582.6386784183004
17558,588.3732749863153
17559,699.5065745623704
17560,1154.997945127939
17561,2069.4725950533966
17562,2531.9475746350117
17563,2855.528862864807
17564,2864.9221491851767
17565,2753.0296556439844
17566,2291.586166797581
17567,1346.4402050616757
17568,897.0707188264943
17569,396.2204797979288
17570,99.24417364504443
17571,-104.55781663283094
17572,-126.43930435866187
17573,-23.767684717933115
17574,485.9847021990708
17575,1511.537652232703
17576,2157.3812023135933
17577,2133.219531928463
17578,1484.001350850286
17579,813.0574654143492
17580,449.9942681265529
17581,348.58165313637016
17582,246.09624810088388
17583,249.21016018156976
17584,447.3710560921428
17585,1598.1750092962718
17586,2252.501569590081
17587,2642.591565678633
17588,2672.5194597801615
17589,2539.57995839292
17590,2078.455820948875
17591,1388.200378109347
17592,891.9341002083573
17593,387.8211461686577
17594,19.140652325627023
17595,-226.52158050298928
17596,-331.3357757618524
17597,-353.1372111195921
17598,-77.58893263818712
17599,214.63530097767352
17600,640.9964146153546
17601,971.7479192276419
17602,674.0756934752999
17603,-127.97053054093746
17604,-565.0181998758925
17605,-1011.7230097401006
17606,-1080.3201693425501
17607,-910.7513335723575
17608,-215.677335720807
17609,773.6889720673029
17610,1928.4882106537386
17611,2185.5860118266637
17612,2182.856255985724
17613,2158.8627218302486
17614,1871.2233153815791
17615,916.845462660757
17616,126.80215214026083
17617,-721.0977645654749
17618,-1229.6448387196954
17619,-1398.2226825905152
17620,-1566.730056353133
17621,-1734.426590268301
17622,-1675.516014963898
17623,-1333.229524111876
17624,-835.9945154094614
17625,-1106.6067743719996
17626,-2047.17572331642
17627,-2816.4775676590525
17628,-2857.2386648980473
17629,-2820.557800309013
17630,-2510.533765790446
17631,-2598.991139502889
17632,-1384.328845110858
17633,614.7046774375535
17634,1737.2684960729944
17635,2167.2494707961855
17636,2206.077009083007
17637,2258.8847737835845
17638,2112.5213671462625
17639,1693.0583319798804
17640,1107.0050494726281
17641,188.93632063181212
17642,-522.5983805250045
17643,-841.536678916493
17644,-857.3543922940386
17645,-464.5427342608749
17646,568.7476515978747
17647,1532.9272084956428
17648,1990.8850518329232
17649,1970.3158316129995
17650,854.7677715576048
17651,-422.02252672455256
17652,-654.0300559206381
17653,-743.1727081245626
17654,-850.6904257982617
17655,-430.40977100027993
17656,260.9066997070284
17657,1427.0237954076745
17658,2284.521519965422
17659,2608.5030262893283
17660,2641.5637798157077
17661,2638.890521260463
17662,2109.593355824575
17663,1263.3453380098895
17664,729.0178478408124
17665,90.09640383038973
17666,-336.78163884068516
17667,-817.6073306311938
17668,-820.2709690334273
17669,-748.7630874549842
17670,23.183073601852016
17671,1305.947732601461
17672,2252.752956712469
17673,2273.405141144148
17674,1643.0501388076002
17675,650.3840052338354
17676,211.2031860034293
17677,-67.18801344463458
17678,-67.86587603941834
17679,119.46556444044742
17680,676.0704158891111
17681,1821.5618490351399
17682,2270.6914020344084
17683,2521.78104520273
17684,2488.087253538015
17685,2300.046161191064
17686,1651.526711019838
17687,811.435024142368
17688,354.6053203334267
17689,-231.58492508900437
17690,-762.7101325472142
17691,-932.2031176385638
17692,-1079.2736281986026
17693,-918.2457734297936
17694,-185.35705415503625
17695,1062.6758370386472
17696,1809.9897479617948
17697,1630.5999159439768
17698,840.264455826941
17699,-119.72732712440975
17700,-392.20132840995984
17701,-573.7865563497328
17702,-629.6486335406975
17703,-296.4570554139762
17704,402.3911781733772
17705,1650.9897233456265
17706,1998.3684666086606
17707,2287.0429045651076
17708,2170.200839664553
17709,1855.4033125260814
17710,1076.6083251918005
17711,240.32167356540617
17712,-612.0769992868924
17713,-2054.1467651625644
17714,-2461.6675990730164
17715,-2935.3640563776253
17716,-3085.5914683775964
17717,-2915.26849399625
17718,-1811.0682384480199
17719,-114.29434374818496
17720,943.646684125527
17721,939.5833025576408
17722,486.75122405668884
17723,-587.0600496535311
17724,-1313.4168787213732
17725,-1497.1292406609366
17726,-1504.8757160498847
17727,-1589.7924533561009
17728,-601.9747594975548
17729,597.993838858488
17730,1424.1292468563358
17731,1827.5365310798481
17732,2020.3072917222994
17733,1964.9879718070565
17734,1390.4753882918353
17735,728.7953143570879
17736,163.1153034019198
17737,-513.2313619604715
17738,-1226.1649139915332
17739,-1452.0487505159688
17740,-1556.427606367634
17741,-1266.3906369851925
17742,11.422624799258152
17743,1269.5914912472545
17744,1931.6380556170104
17745,1675.935852976416
17746,344.05211573347356
17747,-886.0126290987552
17748,-1155.5185614211218
17749,-1366.2571568336398
17750,-1814.4770015032607
17751,-1818.3106324713012
17752,-394.58499292949506
17753,1225.8521612785162
17754,2172.6372075244294
17755,2509.752913722564
17756,2518.30512703723
17757,2468.4603366597285
17758,2021.3580682435238
17759,1260.238679196642
17760,318.73540048170435
17761,-527.1041593074942
17762,-1095.8090903435154
17763,-1302.8021694327401
17764,-1543.7182894346909
17765,-1413.5710756683204
17766,-1182.0002492790015
17767,-700.6982103478081
17768,155.97050711770737
17769,-17.491610691731644
17770,-1050.9478615472535
17771,-2445.9316901186585
17772,-2826.8682864292905
17773,-2867.366684570495
17774,-2833.5940010233
17775,-2790.3460381291816
17776,-1530.575781626266
17777,750.9888436026921
17778,2096.485283387432
17779,2416.956786910204
17780,2475.5307247964824
17781,2421.913431960657
17782,2171.640335337394
17783,1500.8354389127014
17784,708.4214993083567
17785,-252.50501391869827
17786,-1290.0649555112252
17787,-2100.8518677996394
17788,-2435.1758897749605
17789,-2521.25565151258
17790,-2338.8428922938533
17791,-1889.4103004610865
17792,-764.0573341786647
17793,-551.8892167111004
17794,-1909.1012979137715
17795,-2956.5616840168323
17796,-3056.3383121817524
17797,-3071.5787440887207
17798,-3152.2953346349636
17799,-3241.41595441795
17800,-3220.7956030452524
17801,-1970.9691532620138
17802,520.9254208938482
17803,929.0010440159419
17804,1216.684436615207
17805,1089.4403467371
17806,280.65285441145573
17807,-270.76033097489955
17808,-1445.6341463539507
17809,-2574.509954847569
17810,-3061.3170929192233
17811,-3324.9612267524763
17812,-3360.118685714461
17813,-3146.2299272237938
17814,-2166.6765225302456
17815,-738.6846251738519
17816,537.6540703249499
17817,419.0132135523125
17818,-1749.8495760820724
17819,-2852.070714706198
17820,-2959.053600665438
17821,-3009.2876979888274
17822,-3053.807632863335
17823,-3086.7507208735856
17824,-2407.4860899414616
17825,-25.64376206160997
17826,1521.895403478213
17827,1983.809002750902
17828,2083.261784510636
17829,2074.9870700520473
17830,1664.9706753136688
17831,813.5462814103889
17832,-374.1312563098173
17833,-1779.999803307874
17834,-2627.643357642672
17835,-2913.488832679467
17836,-2921.8672329263663
17837,-2864.1484203354003
17838,-2608.757543479979
17839,-1130.8995866287198
17840,93.47784186213877
17841,297.89109084872103
17842,-1600.3061646207125
17843,-2809.8816079641683
17844,-3005.8084426572323
17845,-2986.7407917429564
17846,-3033.3901171122156
17847,-2971.554018692669
17848,-2430.171770221627
17849,211.12092169789696
17850,1464.3451264566481
17851,1947.3591936946107
17852,1887.7652988426569
17853,1509.9423019212315
17854,532.4717657676906
17855,-831.6057661938347
17856,-1119.2315863733588
17857,-1803.4823774076804
17858,-1878.879559771054
17859,-1995.747776592949
17860,-2128.8130261236247
17861,-2248.7506765872895
17862,-2042.7551558151438
17863,-1356.5726396957268
17864,-440.17158434540596
17865,-1468.370805156938
17866,-2395.644876305024
17867,-3092.7717449758716
17868,-3156.105358401205
17869,-3154.177291779072
17870,-3148.3012681337987
17871,-3167.412351271952
17872,-2164.741776537368
17873,259.91258522836546
17874,1730.913753609883
17875,2291.5883230107784
17876,2418.9154890130335
17877,2376.102206854942
17878,2221.3098056571926
17879,1525.9847944809162
17880,1074.2971240425625
17881,109.51386638127616
17882,-266.3474196088436
17883,-451.2624061377633
17884,-498.1485511736288
17885,-482.96524451409334
17886,-15.016310369060768
17887,712.5270898701928
17888,1512.2265635373194
17889,1690.8563056816472
17890,971.440562607499
17891,-481.047244427084
17892,-903.31971204104
17893,-861.8516121511832
17894,-762.304485860244
17895,-714.8870010232298
17896,-88.33577469718162
17897,1171.9770946696435
17898,2183.247636696682
17899,2578.838748850063
17900,2510.814171068341
17901,2459.595198853347
17902,2263.56401333517
17903,1557.5520763377651
17904,717.5257384970199
17905,-134.6436033339609
17906,-495.12256932599064
17907,-775.9627460514243
17908,-751.8261393875263
17909,-616.9327944154156
17910,-192.08935601246375
17911,764.1688071360866
17912,1601.5794849265922
17913,1632.83163413323
17914,616.5076863190005
17915,-528.4048026334223
17916,-1321.1853853619598
17917,-1365.3154557158714
17918,-1871.464742447137
17919,-1387.0055656065836
17920,-298.4819442179187
17921,1101.750654698869
17922,2299.4663753127907
17923,2667.542641990992
17924,2739.8351270109406
17925,2715.84374618921
17926,2486.1184868402443
17927,1810.4615657048266
17928,1303.5025455221546
17929,245.9101364437853
17930,-240.3997673195815
17931,-379.3504042724221
17932,-406.6019312062466
17933,-355.8981443188029
17934,-106.71872903271125
17935,292.63086169022495
17936,899.5261898518785
17937,1023.7493746447836
17938,391.21095857174026
17939,-592.8207155229586
17940,-1173.3483706151005
17941,-1498.361459209145
17942,-2059.658154161133
17943,-1921.783195376713
17944,-585.637635002308
17945,770.1194823636959
17946,2223.205695705471
17947,2709.0295272200415
17948,2793.8564010761356
17949,2780.375011892249
17950,2473.4515182599303
17951,1692.139081727121
17952,996.8355353669607
17953,-256.9402801010878
17954,-684.4165475335128
17955,-820.7204917534559
17956,-811.2857736724424
17957,-911.4180129391299
17958,-753.1054438296388
17959,-444.5381707250186
17960,-34.30163718856165
17961,-15.399984749348341
17962,-847.1604556648134
17963,-2142.22060187429
17964,-2300.1859743728205
17965,-1937.126518245739
17966,-2201.02234658171
17967,-2191.3217416281486
17968,-993.9569190630613
17969,744.7077259853462
17970,2124.0819874528124
17971,2706.916335834806
17972,2746.7471231602503
17973,2753.0204398379474
17974,2670.1149800447374
17975,1876.7116402470451
17976,1163.2763231679696
17977,-46.811009061924416
17978,-372.9157450857583
17979,-690.682366692955
17980,-732.8896587490223
17981,-700.8277381030143
17982,-227.35614632958365
17983,628.5267508816045
17984,1457.0772494021421
17985,1596.4403511432236
17986,608.2671233698006
17987,-429.3669126056052
17988,-1142.9630505412565
17989,-1180.8711169318963
17990,-1248.6788695148216
17991,-1115.2956674674658
17992,-316.80885383866934
17993,1114.9698696393132
17994,2375.9508066321227
17995,2860.0672802488925
17996,2869.5985015394267
17997,2839.762008968677
17998,2653.8923714896
17999,1819.1616045016724
18000,1109.1617744534585
18001,87.17052637138373
18002,-447.65395028610834
18003,-647.2548822960782
18004,-754.1430543552382
18005,-691.2563965363761
18006,-248.26886517322745
18007,405.9687321571685
18008,1101.7400399816877
18009,1490.2015881855677
18010,740.1913269799464
18011,-222.8888364134988
18012,-802.4568180028635
18013,-1078.5872704677608
18014,-1038.0709330121156
18015,-995.405578997203
18016,-217.46154335160972
18017,970.7651193533756
18018,2233.707705206319
18019,2683.714757435767
18020,2686.8594637946594
18021,2520.9069061831997
18022,1809.2478182511097
18023,662.7970393314467
18024,249.50512624372206
18025,-340.98093714278457
18026,-765.3456592465457
18027,-1262.942522859723
18028,-1467.2969768821006
18029,-1468.4071562790225
18030,-1420.6633328069777
18031,-1277.8472537404423
18032,-1068.6714575351027
18033,-1886.5765972892123
18034,-2752.1593709279005
18035,-3290.688190064648
18036,-3308.6089271865317
18037,-3087.550589535799
18038,-3091.5558245996244
18039,-2991.655263014478
18040,-1741.0137602842233
18041,89.8904770465009
18042,1828.152908711934
18043,2454.9433697165373
18044,2608.0254854799746
18045,2477.4902564946415
18046,2259.487328509163
18047,1263.4138398648454
18048,510.41196643386843
18049,-672.962550123762
18050,-1265.2754371359606
18051,-1448.3201308912332
18052,-1461.982084126605
18053,-1371.4984794662046
18054,-598.4162666162354
18055,656.1592924752747
18056,1535.1170716964928
18057,1801.462562294151
18058,861.6686320920858
18059,-622.5723161461293
18060,-1604.053488672367
18061,-1831.7850369126502
18062,-1255.476953573747
18063,-983.9795063452929
18064,-193.63557370152867
18065,1238.6512338373616
18066,2259.655599000017
18067,2595.973724338891
18068,2703.128536638786
18069,2589.3549433427957
18070,2249.3106448748895
18071,1391.4314365747157
18072,542.2305361844585
18073,-364.0963661260321
18074,-1197.1705409592907
18075,-1808.2983391231085
18076,-2015.2464250348246
18077,-2041.525845013777
18078,-1252.6431703816868
18079,-283.66822456723884
18080,766.0915573919636
18081,1127.0194437236207
18082,520.8484278042898
18083,-653.8801769204451
18084,-1244.8698673254596
18085,-1205.7737338315508
18086,-872.2427083861254
18087,-818.197453308708
18088,-31.150487330585513
18089,1120.1376586225654
18090,1728.5433210369752
18091,2253.6341971383526
18092,2399.0558844408943
18093,2357.3636330067247
18094,2075.0979600741553
18095,1040.522390826693
18096,150.8022582535189
18097,-818.5866427682505
18098,-1580.796398194649
18099,-2097.3740635704007
18100,-2223.4222780298333
18101,-2133.06826041617
18102,-1969.217468053791
18103,-985.8731006336981
18104,-217.39114897228822
18105,358.0724612757846
18106,-306.83254878981927
18107,-1392.065493102228
18108,-1791.4750935529087
18109,-2017.122005175059
18110,-2153.1082826012694
18111,-1959.705781492312
18112,-606.0951434870929
18113,846.4699383572408
18114,1654.6183835937456
18115,2002.4414162060405
18116,2076.017904133797
18117,2113.8885424953965
18118,1752.6645036406242
18119,580.2144826186817
18120,-126.16107066488169
18121,-1869.0870170968758
18122,-2530.212119192171
18123,-2687.579196743863
18124,-2929.96143247549
18125,-3125.5533398384287
18126,-2878.88974052453
18127,-2631.211485801042
18128,-2464.7340476807694
18129,-1891.5670634460232
18130,-1655.430887056937
18131,-1560.9238834829075
18132,-1804.9429588926544
18133,-2005.8244721810413
18134,-1992.6066873657735
18135,-2026.4678348108393
18136,-1789.9419875130059
18137,-1097.159112095177
18138,401.3807794921808
18139,755.9005517266265
18140,852.4475530542026
18141,476.98772202909043
18142,80.95896090674228
18143,-1073.698448259154
18144,-2260.862591639069
18145,-3296.653544748057
18146,-3654.4328910615554
18147,-3917.0243719083974
18148,-3949.721828346956
18149,-3860.317335607873
18150,-3479.2511689673697
18151,-2516.360486927455
18152,-1737.208794956376
18153,-1111.5187884611848
18154,-1703.7925063318123
18155,-2258.4173933626457
18156,-2694.561001334995
18157,-2794.0491737373745
18158,-2954.291146177565
18159,-3063.36564082124
18160,-2612.891182264656
18161,4.588233130898367
18162,1239.551095212071
18163,1942.8098672518454
18164,2012.8419969630422
18165,1883.5780623059597
18166,1608.4953480206352
18167,751.502571563805
18168,-256.0865103641813
18169,-2093.776560038442
18170,-2717.9112663909937
18171,-3105.740801083288
18172,-3090.1670662847782
18173,-2905.7527734732944
18174,-1704.7413705528081
18175,204.9235764565245
18176,1047.1749196833016
18177,1066.8729465703077
18178,-349.00528787891733
18179,-1381.5805104296564
18180,-2347.1957528838743
18181,-2071.560907155735
18182,-1877.7521433472768
18183,-1942.7812718862695
18184,-649.4841851489556
18185,1180.5046724511762
18186,1754.1222356532796
18187,2318.796476973177
18188,2358.4342469094945
18189,2248.1552798841226
18190,1494.8192667777919
18191,159.4490793405732
18192,-683.7490849565389
18193,-1574.8978164951766
18194,-1922.2015042741555
18195,-2130.6921770866197
18196,-2154.739482240448
18197,-1715.8824243036654
18198,-208.4836621868478
18199,1205.117137262163
18200,1860.2265445841504
18201,1799.2674702566871
18202,1052.990047406175
18203,-350.53576051345834
18204,-1159.5258974033297
18205,-1219.7159895366794
18206,-1276.8070473480095
18207,-840.2911968936461
18208,-3.689159237697254
18209,955.8380323672349
18210,1515.052132019028
18211,2010.7241557873501
18212,2195.511565365878
18213,1996.0532459267915
18214,1059.583174472326
18215,-520.967023625841
18216,-1288.3348425552126
18217,-2105.8760156466406
18218,-2655.7392213309067
18219,-2858.842417456939
18220,-3008.0162810785614
18221,-2912.953335359331
18222,-1862.4971878309514
18223,437.1792080920113
18224,1419.1834383099085
18225,1436.2206098618647
18226,606.0491541887311
18227,-981.533484941347
18228,-1905.669638933673
18229,-2210.5158639646365
18230,-2060.6609440413918
18231,-1808.441690111552
18232,-878.8593588841318
18233,907.7820090522014
18234,2017.8880667146213
18235,2513.295051168037
18236,2585.486136456728
18237,2525.7146875683566
18238,2135.2291222023127
18239,1125.4788595058524
18240,398.41708478967894
18241,-757.6508233686546
18242,-1629.7320831396303
18243,-1875.9787202026544
18244,-1913.826349235872
18245,-1708.7881307478945
18246,-203.6645327284639
18247,1300.0734524449006
18248,1926.0805805397265
18249,1895.347135185603
18250,852.8256816486955
18251,-604.7354249941676
18252,-1461.0713242275453
18253,-1747.9102826234937
18254,-1769.0649496241142
18255,-1906.8671019444312
18256,-570.9024308229929
18257,806.7431118990431
18258,1708.965644412139
18259,2150.1221209703463
18260,2331.028092766827
18261,2160.7242095080496
18262,1658.5873698444
18263,936.6342600712361
18264,116.71819644714165
18265,-978.9495794314392
18266,-1640.4449734747848
18267,-2012.541785396337
18268,-2071.0102395592357
18269,-1977.2254078616816
18270,-1933.541310091697
18271,-1389.3828772397667
18272,-237.68855309790248
18273,193.72151135824575
18274,-338.5021867489629
18275,-1431.5576354215661
18276,-2375.06285785832
18277,-2568.7159794713953
18278,-2815.108660556661
18279,-2866.0659433276355
18280,-2500.410448134379
18281,-585.8000333592399
18282,1137.4990012338687
18283,2097.063599836976
18284,2181.9325369626595
18285,2128.8528611721204
18286,1741.884319083903
18287,743.8268580364942
18288,-429.17822992123735
18289,-1566.6698881993655
18290,-2041.7402651592504
18291,-2181.7820309389817
18292,-2300.1980508561146
18293,-2392.3616806825476
18294,-2202.80049106324
18295,-1926.0194338718215
18296,-1638.1265576895207
18297,-1615.2790911273744
18298,-2183.0098878474246
18299,-2803.085975410415
18300,-3009.420298903182
18301,-3191.8372993696034
18302,-3126.668817501798
18303,-3225.1466388715717
18304,-3003.514182519832
18305,-904.6915828259142
18306,1400.28324021816
18307,2105.833522038392
18308,2276.6663809850675
18309,2230.880504126212
18310,1991.45588670696
18311,966.7108182204145
18312,-177.75346103767538
18313,-1353.3796490056022
18314,-1749.3295961960514
18315,-1623.2676894786773
18316,-1985.9148804057343
18317,-1523.0848574086788
18318,39.91003196360883
18319,1308.7368911903618
18320,1853.8046688750064
18321,1899.905238535827
18322,560.1524135706586
18323,-1096.306277200429
18324,-1982.8295208749591
18325,-2106.16587743371
18326,-2078.7240861041787
18327,-2145.2505087095005
18328,-1069.1009162830385
18329,401.6902619143646
18330,2069.0092900785253
18331,2731.4395725797976
18332,2818.271774583721
18333,2817.179930860068
18334,2490.8483653367575
18335,1736.5938486761147
18336,1318.8508197147873
18337,328.6426659443324
18338,-85.58371707929385
18339,-266.45522053667787
18340,-256.885175851913
18341,14.486640531471295
18342,878.2123713039964
18343,1856.772172013019
18344,2350.9091149103797
18345,2371.2694118950776
18346,1422.2189237219786
18347,-173.5067092818963
18348,-463.7489346305698
18349,-587.8093339283349
18350,-576.1071792278179
18351,-610.4079991974352
18352,-235.35061016156092
18353,1074.2256222227002
18354,2489.2832928011676
18355,3133.2968628503145
18356,3189.602349885398
