id,es_total_ps
14351,1713.0920031592327
14352,1176.3426968272547
14353,902.5354018264894
14354,666.6113343643824
14355,573.9934782515867
14356,586.7517679477046
14357,1066.0546019866372
14358,1693.1848201858445
14359,1593.91674941721
14360,804.9335903050576
14361,-57.20813994007085
14362,-693.7932722423922
14363,-1056.8915595512126
14364,-1250.6711105608558
14365,-1469.0706252593316
14366,-1392.8771072142522
14367,-1679.2588359718086
14368,-1843.8309197718715
14369,-837.8265851403181
14370,28.761048741837154
14371,1424.9831779729293
14372,2813.354863661214
14373,2595.3060738777513
14374,2022.3452136442822
14375,1417.6674272242644
14376,960.6070166474234
14377,756.7832559415006
14378,523.6952271155026
14379,374.6519638557157
14380,342.93704241775504
14381,824.2516424480519
14382,1522.2087746978323
14383,1385.4147541736497
14384,608.498436907772
14385,-864.826552878022
14386,-1519.2084239639971
14387,-1951.0640606803895
14388,-2355.247699850735
14389,-2534.248936480455
14390,-2840.244646082787
14391,-2904.6461413179163
14392,-2717.8829420583593
14393,-2007.6041515612244
14394,-219.99078352245743
14395,1201.6372654117226
14396,2683.454169164516
14397,2560.788905992506
14398,2072.3563369050307
14399,1509.8277565976828
14400,1015.0035733419329
14401,798.0430895638847
14402,437.7045374088938
14403,341.0642075569933
14404,209.55216346565854
14405,406.4723818079856
14406,695.7243272042799
14407,456.671203779639
14408,-1079.3154699942725
14409,-2489.851226184162
14410,-2901.307520450494
14411,-3217.2042630070196
14412,-3339.423673058393
14413,-3386.938102227069
14414,-3381.9969386170637
14415,-3378.8477194822517
14416,-3096.7282108478307
14417,-2641.1576480473013
14418,-698.3316327935585
14419,1242.3880763549002
14420,2635.0720714239033
14421,2606.1292895117454
14422,2157.2106729534585
14423,1654.0462888256752
14424,1150.7133453319489
14425,732.5092813472658
14426,545.3957115939133
14427,486.6946003315511
14428,382.8103329723431
14429,521.8080127298936
14430,721.6382784515656
14431,256.7640126353235
14432,-1509.8138787587052
14433,-2902.7185745419997
14434,-3053.160887127599
14435,-3309.805407480943
14436,-3373.5176359276516
14437,-3053.53373264454
14438,-2978.549724444851
14439,-2882.842998528567
14440,-2814.38448118415
14441,-2245.4193078903213
14442,-391.13903916893827
14443,1316.0066957994695
14444,2673.1209200535827
14445,2646.0189581463083
14446,2292.8359640480344
14447,2018.8038574779366
14448,1484.870742103115
14449,991.4174638110239
14450,752.2326868044012
14451,620.2713584883546
14452,732.1774209684057
14453,1103.8785664168768
14454,1645.3958940175387
14455,1848.4513934306513
14456,1036.640826612436
14457,-240.32793170756406
14458,-1037.9424184996778
14459,-1376.1927386158752
14460,-1341.9206553377662
14461,-1119.9470055187705
14462,-1753.916248413957
14463,-1475.717567013315
14464,-1143.402968597144
14465,-758.2122772713094
14466,233.16854120329032
14467,1427.2768022085008
14468,2862.548856416776
14469,2750.183501288368
14470,2301.451088214787
14471,1666.5503770768833
14472,1161.7041463056414
14473,898.4465449374521
14474,658.5956763173058
14475,564.1438570836474
14476,540.0707515116366
14477,996.578575899523
14478,1475.8252537792443
14479,1554.3908365212496
14480,839.082085035491
14481,-18.942123653594308
14482,-805.7828334005474
14483,-1044.7426109424075
14484,-1337.752089229671
14485,-1204.5185909462052
14486,-1632.8382910271787
14487,-1642.4323778845421
14488,-1275.5821073046088
14489,-724.9623077174589
14490,191.1940732138645
14491,1570.2388853706227
14492,2865.2397993485924
14493,2508.3314562578917
14494,1940.349092814355
14495,1533.2184396579405
14496,1036.5424100242444
14497,709.6685649090773
14498,352.5834947993606
14499,120.01159032484259
14500,104.41484683353141
14501,512.3549628552385
14502,1138.5289095456283
14503,1192.6435992324084
14504,572.6628226586006
14505,-565.4852853502996
14506,-1483.5448632942262
14507,-1364.242141316594
14508,-1627.5402158120007
14509,-1712.8582465174711
14510,-1409.822352445329
14511,-1654.6331296292824
14512,-1586.6724075074317
14513,-727.3346549811042
14514,504.71015886584496
14515,1625.5910659135934
14516,2922.3304861422794
14517,2551.540096551279
14518,2039.1433642783134
14519,1629.4236856395978
14520,1219.5725121282476
14521,757.3912726869363
14522,553.5381581175724
14523,303.7524058997444
14524,293.80444347033256
14525,651.8944612891338
14526,1343.461134222435
14527,1359.3499268077578
14528,534.7137632360127
14529,-1161.8340068108837
14530,-1817.9191354528389
14531,-1944.4372997975497
14532,-2133.2501738715214
14533,-2285.0255404844506
14534,-2402.8690334897997
14535,-2125.9806068637135
14536,-1757.9870281682042
14537,-590.5680975121733
14538,395.1898061197105
14539,1551.9122743671346
14540,2862.7860249811165
14541,2677.707893094341
14542,2184.242290950037
14543,1826.620810407523
14544,1353.7955611170453
14545,1120.9364324468372
14546,815.6821457096547
14547,717.7679972119334
14548,696.9122916164628
14549,1012.1467833482799
14550,1538.6904625918196
14551,1587.4374040418857
14552,701.6187692887347
14553,-611.2236679637621
14554,-1132.7705084969266
14555,-1584.9482105601587
14556,-1876.752188658716
14557,-1753.5327327679488
14558,-2414.9864187607714
14559,-2028.0567875355046
14560,-1628.766312807624
14561,-577.1179667261985
14562,413.0955373231112
14563,1507.1564264580807
14564,2776.839612269034
14565,2448.3386681526326
14566,1882.0020879535414
14567,1606.754959789057
14568,1020.7249132948863
14569,808.9412043157517
14570,480.14493005785374
14571,298.91842850226766
14572,116.431684762456
14573,313.9388580679174
14574,513.1532822932226
14575,364.44638012224834
14576,-865.5375596381623
14577,-2433.6387170028775
14578,-2809.100932030083
14579,-3017.4593328809897
14580,-3194.190679420266
14581,-3296.356380789983
14582,-3314.659652929239
14583,-3287.6293083098712
14584,-3199.261898042643
14585,-2060.0451217389996
14586,-173.40908977323204
14587,1490.177552285553
14588,2769.978141185313
14589,2589.788778110292
14590,2160.467458639796
14591,1557.6794983826026
14592,1039.7033506454145
14593,749.7130507091616
14594,477.23682710030283
14595,414.3046238002724
14596,298.9536234016613
14597,290.6613363334611
14598,415.8543686401722
14599,-405.1512421837643
14600,-2051.823006890421
14601,-3142.6335680508
14602,-3326.4326545842227
14603,-3505.0924393383016
14604,-3546.3229561158523
14605,-3532.4316502703196
14606,-3546.020829455813
14607,-3566.725135792934
14608,-3469.672722590624
14609,-2829.955254683749
14610,-619.4888792504199
14611,1472.133952522605
14612,2615.608220341978
14613,2571.198947079194
14614,2269.5985054968965
14615,1714.4590020750534
14616,1265.1998627067298
14617,810.513949233125
14618,550.9152381735105
14619,568.2536512097903
14620,659.6166364124181
14621,1076.377771489812
14622,1514.6242494840133
14623,1930.7794532326436
14624,1392.3725379533143
14625,-8.798997106946643
14626,-1126.6791407325782
14627,-1890.520712877323
14628,-1766.7960448905596
14629,-1659.0939222048005
14630,-2125.5785327261633
14631,-2233.3695130808574
14632,-1946.4424385379314
14633,-777.1355029831877
14634,186.20299268937254
14635,1506.6812274303388
14636,2770.0820946862755
14637,2606.3304231918505
14638,2045.8196263708726
14639,1642.4736281735682
14640,1160.7500207827297
14641,884.2971865977769
14642,589.7927628386558
14643,426.67844933094426
14644,413.87488551252363
14645,862.6874734823904
14646,1590.4454239076965
14647,1900.6517424038789
14648,1261.7653346133557
14649,248.98344406780205
14650,-427.4814207328732
14651,-1227.746911200043
14652,-1762.8031181623228
14653,-2090.1883992306903
14654,-2401.1422783508815
14655,-2482.0177665642873
14656,-2244.5639884618927
14657,-1064.4361545759966
14658,124.25676591845755
14659,1503.8930249518755
14660,2618.9924229306393
14661,2447.135796427269
14662,1814.1903502265004
14663,1518.6675372392683
14664,971.1907096842746
14665,675.9751882394473
14666,329.63783784863637
14667,236.14838212758258
14668,275.3560048055621
14669,493.7921048424363
14670,1073.7581538359113
14671,1079.8158678749348
14672,126.19124151095492
14673,-1620.593248384519
14674,-2250.408452020245
14675,-2561.5233983620114
14676,-2770.863976940394
14677,-2861.0871804877725
14678,-2914.574124806372
14679,-3006.6270026673906
14680,-2837.4235237378175
14681,-2145.668329166198
14682,-279.1124488025415
14683,1246.6359115906696
14684,2528.6765361436283
14685,2182.699448487349
14686,1609.4415329674382
14687,1141.8157473658684
14688,745.9857688715465
14689,382.8933163990175
14690,180.43226788604227
14691,-19.502344324203634
14692,31.53286620068777
14693,97.37981975889728
14694,263.16748741297033
14695,-866.2405091558394
14696,-2053.3226600575676
14697,-2890.2560218622475
14698,-3055.7761281596227
14699,-3163.8797119635406
14700,-3308.0908535636654
14701,-3379.8521728344604
14702,-3398.8271811579675
14703,-3444.7790969758776
14704,-3409.1736964784104
14705,-2984.0462118300616
14706,-1150.8926828925846
14707,1257.7960152595567
14708,2594.1475908167863
14709,2502.604889814862
14710,2062.008662638832
14711,1763.7117973519416
14712,1272.9006169011473
14713,898.2571652247885
14714,586.2631534146014
14715,463.9512832621614
14716,403.1363389229262
14717,775.8976356192958
14718,1298.9081982324203
14719,1471.1594853552629
14720,148.1530243114953
14721,-2023.3401607510696
14722,-2533.910870721675
14723,-2873.914028033035
14724,-3034.9931408217844
14725,-3067.6388357310916
14726,-3007.269142047911
14727,-2938.495590653333
14728,-2790.5877216379486
14729,-1923.4929184980112
14730,249.46876925986757
14731,1717.0198239621977
14732,2855.3803828046866
14733,2754.0108445116516
14734,2301.0507900559323
14735,1789.8276061546276
14736,1340.4093604976
14737,1050.1281914353044
14738,829.0836549789068
14739,651.8485239644817
14740,603.2519041593143
14741,709.1334054533431
14742,892.0747104427779
14743,604.9926664413035
14744,-723.6403815115802
14745,-2148.4707767868435
14746,-2658.1722844248416
14747,-2958.6442638384756
14748,-3063.935977146548
14749,-3249.9412268387314
14750,-3189.751048809036
14751,-3185.4016067937628
14752,-3143.615934499132
14753,-2358.405198643442
14754,-657.2380342186594
14755,1374.421049433043
14756,2693.756686607547
14757,2570.8384112014523
14758,1997.5462474290518
14759,1750.1380835740438
14760,1252.1263393680458
14761,922.363930596966
14762,582.2373950601267
14763,309.9472375431414
14764,283.86401055513085
14765,392.2107712971606
14766,509.347583881779
14767,-26.42771857724165
14768,-1840.810687365466
14769,-2971.4466045702434
14770,-3236.365073142828
14771,-3387.62258856044
14772,-3396.8498348015196
14773,-3431.939956288564
14774,-3466.5424937646194
14775,-3482.0021080967235
14776,-3404.8557077131863
14777,-3032.1474108304405
14778,-1168.3411612983941
14779,1014.0160980145303
14780,2440.718865415749
14781,2400.8675953282477
14782,1902.186672578466
14783,1436.3097924511007
14784,822.0413996027594
14785,194.0218190994226
14786,-52.317323057291844
14787,-156.60880283501058
14788,-125.15766242197887
14789,595.5895720746504
14790,1377.8782382449358
14791,1632.8213963856165
14792,670.7077197833023
14793,-1619.7115801734708
14794,-2363.9592274079837
14795,-2262.338568196884
14796,-2433.873798955853
14797,-2523.9536512262716
14798,-2761.6465281575342
14799,-2948.7027018152667
14800,-2476.1742095209515
14801,-1663.7357101577493
14802,447.74398084142183
14803,1870.1348657528622
14804,2860.7996421041425
14805,2756.5899696867223
14806,2368.7541652062127
14807,1837.0814397935137
14808,1341.232140009332
14809,996.518169433076
14810,818.9757219122758
14811,716.2615536093554
14812,770.1650913817263
14813,1130.2525393934452
14814,1695.939157229699
14815,1808.669103161909
14816,953.7946142761484
14817,-1071.1841887751898
14818,-1928.8051217767024
14819,-2557.7340222155917
14820,-2781.0091979572885
14821,-2732.387986614699
14822,-2623.895907554043
14823,-2716.3188952583055
14824,-2536.8877219403544
14825,-1501.814257497972
14826,-14.447862120651635
14827,1527.680846766173
14828,2725.16212469762
14829,2386.56420981255
14830,1670.46171739747
14831,1200.7126161711508
14832,599.1855601431131
14833,417.2575925674092
14834,103.36801120211035
14835,-144.7548067350168
14836,-167.34732552893328
14837,247.28013284458402
14838,1029.3125691894788
14839,1203.6419408852155
14840,121.11968057499327
14841,-1434.0571857693412
14842,-2185.824436610339
14843,-2614.9124548374166
14844,-2725.9083390612586
14845,-2520.804186654111
14846,-2375.132479512709
14847,-2323.707566016506
14848,-1875.9090192944948
14849,-194.2743639023965
14850,962.8492012715993
14851,2097.0091880144673
14852,2939.1277070573997
14853,2814.5423865321677
14854,2510.364433836429
14855,2293.840620939462
14856,1918.2632035698346
14857,1499.6951078357656
14858,1104.962092990199
14859,949.7710391349636
14860,946.7791989386196
14861,1371.7874882418882
14862,1855.3262042627775
14863,2056.30204561004
14864,1424.1290167733384
14865,1.9547507845885548
14866,-1114.2801033284336
14867,-1898.1177539287587
14868,-2286.0215647643236
14869,-2182.330225934839
14870,-2448.28845477135
14871,-2347.5516128939867
14872,-1607.8708485567383
14873,-538.392441707504
14874,766.1259086757578
14875,2062.8755099938985
14876,2973.642736561585
14877,2650.967334380785
14878,2068.256231318489
14879,1569.4548205514234
14880,1006.9106154663576
14881,901.1256965348393
14882,811.9441508123949
14883,650.5870290431535
14884,687.2041499467962
14885,1059.9673334557015
14886,1596.4401263774118
14887,1744.8066942714868
14888,1133.492003041887
14889,-137.72140083499232
14890,-929.6831727502328
14891,-1982.34238492872
14892,-2073.2513506302644
14893,-2095.9951479806923
14894,-2443.234901902038
14895,-2387.407937074314
14896,-1555.8385520315446
14897,-393.0637467769737
14898,582.8011943840401
14899,1772.684675064618
14900,2691.4385893164776
14901,2388.2337330797586
14902,1856.687248801947
14903,1558.3270852860996
14904,1023.4552233359811
14905,699.8068460706801
14906,338.0265700679595
14907,107.33967605948762
14908,25.792691339152178
14909,274.7016440101328
14910,460.84630623697046
14911,260.0072609890219
14912,-969.973593746874
14913,-2406.0122604964613
14914,-2839.2455673985028
14915,-3170.2311034103345
14916,-3300.856802560788
14917,-3297.186919940233
14918,-3360.1089269985023
14919,-3349.678819398074
14920,-3269.7780318003897
14921,-2304.670916700498
14922,-120.80201136317956
14923,1456.869507346544
14924,2524.720636005994
14925,2295.3339085364423
14926,1819.329370882181
14927,1364.9752714250762
14928,920.686418191092
14929,392.5474008635704
14930,60.68803835527413
14931,-220.37018454436605
14932,-566.025290623891
14933,-293.75146483627816
14934,-204.82381249279743
14935,-783.6540273364728
14936,-2116.0977360973347
14937,-2730.6568202243593
14938,-3184.7096791093304
14939,-3373.4203004833994
14940,-3425.7387632785453
14941,-3391.4774488449557
14942,-3427.508704436716
14943,-3347.9260011528095
14944,-3058.520269441935
14945,-1978.6992166150765
14946,146.35023006594207
14947,1664.7796631793497
14948,2402.3229436255583
14949,2274.7375630338106
14950,1809.4536500909576
14951,1268.8751385847
14952,734.0081929097299
14953,222.34245386720028
14954,17.245827399424428
14955,-29.898119471315212
14956,-24.18138748699858
14957,531.5040388226868
14958,1284.4642697688291
14959,1645.3377545772075
14960,1230.9986418133633
14961,-933.4995213196679
14962,-2134.0299883715143
14963,-2502.4710253156936
14964,-2567.1429864858
14965,-2593.2587484504324
14966,-2570.397343656253
14967,-2298.2650970142936
14968,-1115.4699751418452
14969,117.96336502372586
14970,1097.8917309845526
14971,2074.048083066733
14972,2857.522602955579
14973,2693.6370175939687
14974,2338.7671532813274
14975,1933.525129934314
14976,1439.2058746500527
14977,1161.2814354577056
14978,935.3996635068083
14979,718.4417460402159
14980,745.8713712250934
14981,1123.7837190444025
14982,1730.220129385431
14983,1960.0680509239821
14984,1347.7493154810934
14985,-56.46185788715684
14986,-1556.0481314402932
14987,-1997.6246325196926
14988,-2212.4354359332706
14989,-1991.5441774040662
14990,-1838.0581670427646
14991,-1513.2275138725574
14992,-1076.8851096285657
14993,-247.84938064916315
14994,753.7502204092897
14995,2205.1522982009296
14996,3009.0035179749666
14997,2726.1605527653032
14998,2142.4730823287996
14999,1616.0273288618137
15000,1225.6941952947946
15001,790.7644494273524
15002,495.0578588551847
15003,474.82444177078014
15004,497.10234484794483
15005,876.0123214191838
15006,1413.2737989743437
15007,1724.078574497494
15008,1094.3044979007398
15009,84.77532020285801
15010,-970.4746824818343
15011,-1489.9237019332852
15012,-2095.3800204583545
15013,-2099.7490227245576
15014,-2263.326120372498
15015,-2148.495766677018
15016,-1839.349618761858
15017,-612.8642883785037
15018,453.4971456963855
15019,1965.4208463608763
15020,2686.927021614427
15021,2283.970884718216
15022,1738.6987707174865
15023,1188.727706364442
15024,631.1461655176548
15025,402.3539177780326
15026,233.2307317210061
15027,256.18932866605854
15028,128.2171496887322
15029,625.5460480550613
15030,1334.3863316077793
15031,1875.7969174552254
15032,1785.372722709233
15033,1317.0418252231998
15034,311.4229640803378
15035,-193.52706487056298
15036,-575.9426074562379
15037,-806.2700668163267
15038,-898.2742986786336
15039,-640.5085307473435
15040,-363.55348710430866
15041,39.3349890943098
15042,821.9853085617885
15043,1987.2713366331484
15044,2661.7914887543593
15045,2369.102594183416
15046,1851.1216599453323
15047,1312.7217095319734
15048,792.5277451857614
15049,456.2200152544499
15050,282.105322193801
15051,200.6496548164127
15052,209.87535432106336
15053,549.8336543617658
15054,1145.300090806506
15055,1577.6596881365183
15056,1279.409710565043
15057,663.3093129048741
15058,-133.3452287217239
15059,-727.1009850352978
15060,-1059.6611555524598
15061,-1818.7224078879594
15062,-1989.2920896205499
15063,-1982.0776547010657
15064,-885.3703397758126
15065,-157.6283388354703
15066,819.0513303869984
15067,2067.016167868358
15068,2582.8142139700253
15069,2243.9430688722514
15070,1665.1034077139766
15071,1188.5204926352353
15072,720.2429382894798
15073,523.5343788234886
15074,291.52945083860567
15075,41.58424183141196
15076,-2.348210879100243
15077,128.47194252771288
15078,350.7729544093128
15079,550.6808293873327
15080,527.9269673308439
15081,-143.9015852896385
15082,-1669.3082984351195
15083,-1939.3893912249598
15084,-2089.862777615553
15085,-2375.665437781378
15086,-2421.525429519896
15087,-2381.647010072805
15088,-1591.0951850073393
15089,-472.90098095530743
15090,840.2920784877124
15091,2060.291268326419
15092,2578.1930897517873
15093,2417.473306065209
15094,2003.5708696460845
15095,1554.5611785659985
15096,996.1675604967362
15097,458.4218811925824
15098,284.7026702232477
15099,123.64665259927057
15100,38.81953402652891
15101,48.4673532898484
15102,306.90266762377337
15103,416.21712455517877
15104,-148.4890013489972
15105,-1323.517618464245
15106,-2487.9498707620505
15107,-2817.91980156553
15108,-3045.809388041386
15109,-3179.2769094993305
15110,-3299.2977493687013
15111,-3350.2941582763838
15112,-3105.967991226436
15113,-1843.9001541386606
15114,402.2336963647072
15115,2041.6580928652709
15116,2638.981072254897
15117,2481.079988728007
15118,1984.222727899664
15119,1516.6566991249324
15120,931.2368904004361
15121,533.5828503576729
15122,263.75364986531855
15123,104.23051445482065
15124,224.7118582894281
15125,832.2396344429418
15126,1622.3979809868924
15127,2000.27768250361
15128,1752.4455356728308
15129,403.0157931495165
15130,-639.8833388963776
15131,-1226.954939894044
15132,-1758.317512629909
15133,-2127.1459518694833
15134,-2225.121678055592
15135,-2072.278194857229
15136,-1618.6364346231642
15137,-473.86960093488534
15138,664.3497647842296
15139,2060.893799091096
15140,2570.6107103410754
15141,2128.3391724345433
15142,1463.1982918228305
15143,871.5371419582206
15144,348.5197453343406
15145,270.66993772508533
15146,26.307275845667093
15147,-35.67251290834098
15148,21.657120596872844
15149,645.4262957940376
15150,1384.2409463454442
15151,1824.5102588903476
15152,1289.3147121708225
15153,217.59876433030155
15154,-1267.3622114663044
15155,-1731.212961796345
15156,-2024.899387786963
15157,-2119.523434907603
15158,-2234.319991917547
15159,-2182.896405800741
15160,-2063.584553428809
15161,-750.1419293255793
15162,441.55592146067397
15163,1958.2634887073698
15164,2494.080418022623
15165,1882.4919720900368
15166,1223.742820701987
15167,782.8321964927412
15168,340.73904079585776
15169,53.06009746407929
15170,-105.76129965086233
15171,-156.49993473615882
15172,-156.54213389372063
15173,427.3568246436457
15174,1190.71923326783
15175,1514.0175324870875
15176,971.6266074177174
15177,-673.7877857594234
15178,-1712.2328294178565
15179,-2368.0831830271595
15180,-2583.2372116404463
15181,-2670.1103291141467
15182,-2739.711221939182
15183,-2697.1777955308257
15184,-2627.846062518442
15185,-2049.5612890073953
15186,-55.74284549186273
15187,1851.2285359711195
15188,2435.2678416737963
15189,2022.1624000383788
15190,1425.2661924045647
15191,1255.6355354149318
15192,697.4942108266636
15193,131.8473538281325
15194,-35.63763199391673
15195,-23.70979111614723
15196,202.3433970435927
15197,645.3764643704245
15198,1499.028245906292
15199,1998.7741609607776
15200,1428.5886794454689
15201,-780.7778418057552
15202,-1485.2959827368627
15203,-1898.0113013626083
15204,-2015.6414291169028
15205,-2056.68356187749
15206,-1943.0806540951185
15207,-1880.3484511750983
15208,-1011.6721575282266
15209,140.89572924210268
15210,1135.150770144465
15211,2256.4247236580445
15212,2685.466555189784
15213,2388.407595985288
15214,1658.5289376870091
15215,1108.5094765973558
15216,709.1945858503358
15217,418.68978012122943
15218,-40.19779319559106
15219,-278.49994810275285
15220,-250.4758923452493
15221,192.8611843377931
15222,1142.7245187069852
15223,1634.6787333928714
15224,1059.0324827026143
15225,-833.4511862234632
15226,-1784.779597926246
15227,-2297.755206841203
15228,-2512.0892788557253
15229,-2708.1128634214133
15230,-2921.0403544210367
15231,-2885.7625006905396
15232,-2717.381974412723
15233,-1870.2774443651385
15234,149.32195333015432
15235,2122.8684243028956
15236,2690.3498304589566
15237,2325.0766269874707
15238,1659.497441366491
15239,1470.6486245869546
15240,1056.7138923183572
15241,684.4592039927843
15242,444.7823087752405
15243,324.10891116295556
15244,270.27975572848084
15245,371.0783836034303
15246,753.1454666633327
15247,592.9194749136526
15248,-639.45309047362
15249,-2311.494445390328
15250,-2902.515558958936
15251,-3079.7287464930714
15252,-3352.482846050781
15253,-3436.112406153152
15254,-3451.425956155301
15255,-3438.339108933408
15256,-3211.983446163234
15257,-1358.3010484095157
15258,889.0709585289211
15259,2197.964906371303
15260,2710.08183349262
15261,2499.214723428036
15262,2089.268762234087
15263,1746.3051197269897
15264,1268.4270857753163
15265,918.2290869763588
15266,650.130813139744
15267,447.85170440354705
15268,367.6625179051487
15269,405.75546113273265
15270,570.3153872632774
15271,618.4755014896491
15272,-904.7794265215748
15273,-2448.444283907849
15274,-3044.719403187031
15275,-3386.986476160987
15276,-3536.5896968150955
15277,-3550.7293050365765
15278,-3506.909694405771
15279,-3492.283851783284
15280,-3447.5175778659827
15281,-3022.314452555743
15282,-579.8269113422537
15283,1830.7873372183217
15284,2434.3172328858705
15285,2188.240715815516
15286,1559.0351357428574
15287,581.9033976526099
15288,180.38462230802884
15289,54.59407642764981
15290,-151.3236434123819
15291,-92.28418649801746
15292,-8.486664035850104
15293,562.8646844190204
15294,1500.0454620315652
15295,2069.124146163871
15296,1463.8449724695724
15297,-1186.2788241513758
15298,-2192.131063281197
15299,-2604.5514310155695
15300,-2879.2300648582436
15301,-3043.6358571715164
15302,-3101.3209321113177
15303,-3096.207704798468
15304,-2908.2387628298625
15305,-1630.3540212987903
15306,619.3304117255553
15307,2339.556080734395
15308,2699.5053468347855
15309,2339.931610370339
15310,1857.1927053787447
15311,1279.9191018308502
15312,840.251630263513
15313,566.1284437970437
15314,359.08618370743454
15315,263.86187698918525
15316,263.97429155217674
15317,752.0953320503509
15318,1615.3027750023828
15319,2067.278411760371
15320,1059.9073555573127
15321,-1442.9848531936482
15322,-2398.8308160088272
15323,-2740.728663271842
15324,-2967.0711801256293
15325,-2979.9620747410568
15326,-2977.251775206245
15327,-3055.319044881155
15328,-3004.6302679588316
15329,-1990.9540228524027
15330,434.220054105552
15331,2211.0835003049438
15332,2644.345903686608
15333,2288.358346299289
15334,1702.1837910882066
15335,1253.1624442168136
15336,869.7273189083555
15337,495.8461801469475
15338,276.38847688894106
15339,136.90736653511794
15340,144.16072750956653
15341,569.7780909041275
15342,1497.4280494128889
15343,1981.1831852021492
15344,978.6169729992976
15345,-1253.969303054771
15346,-2289.8854422142726
15347,-2530.29025208631
15348,-2702.675353461325
15349,-2816.612654298265
15350,-2975.9121894377163
15351,-2988.1985534007467
15352,-2838.635082784487
15353,-1649.172834412084
15354,462.4086714604085
15355,1999.931252271714
15356,2591.0022444128836
15357,2403.3436072362847
15358,1728.6114457249105
15359,1302.2559210121963
15360,828.7644246895339
15361,557.7464857142663
15362,276.4796101200698
15363,75.78491390161997
15364,343.31303856333477
15365,816.7273290691006
15366,1747.9912638227875
15367,2093.8844595489854
15368,1467.3790937987746
15369,-670.0749141195635
15370,-1929.5647272246238
15371,-2439.147035994182
15372,-2613.7761870230734
15373,-2963.411703929901
15374,-3005.669499180302
15375,-3039.892610787674
15376,-2800.5987841841306
15377,-1929.532755753675
15378,226.82875867426833
15379,2078.0349872708985
15380,2582.1693230624637
15381,2078.8998294758385
15382,1434.073485572016
15383,1267.285006133287
15384,799.7473603088032
15385,431.9644772358955
15386,52.38919840143069
15387,-269.6541034967137
15388,-223.36338463266833
15389,318.4525143231198
15390,1209.3167502092545
15391,1567.3110261760926
15392,118.62116051195576
15393,-1787.8948714545013
15394,-2407.8870578298074
15395,-2628.5255751340524
15396,-2836.4496510103763
15397,-3050.8305513577625
15398,-3078.724192779789
15399,-3067.7669462225026
15400,-3012.94344852832
15401,-2299.619203570342
15402,-82.1756032112657
15403,1774.7505807770476
15404,2243.39588726174
15405,1587.6147179469478
15406,667.9205548768526
15407,418.33668711918654
15408,200.6373316759217
15409,-52.35610224638762
15410,-361.10007953757514
15411,-425.7197595077808
15412,-442.3522301676532
15413,-78.04668104871095
15414,471.6957088076068
15415,684.2747586038465
15416,-365.15942751097947
15417,-2254.104388649282
15418,-2987.717441585228
15419,-3145.7478144283364
15420,-3333.8222623374295
15421,-3353.227427624622
15422,-3330.0381186254112
15423,-3325.579173953816
15424,-3247.0009061247792
15425,-1926.7239721280089
15426,396.74551099469727
15427,2019.7118832880722
15428,2432.1297759976005
15429,1965.5083993453636
15430,1445.8481184226632
15431,962.9293037827027
15432,542.3558081799468
15433,264.3113400155836
15434,-24.856241894280117
15435,-175.18064117007225
15436,-279.2882414578786
15437,-306.18488559286914
15438,0.6268479868967844
15439,-459.50439134487993
15440,-1896.1549165382517
15441,-2875.971557913598
15442,-3136.767197070843
15443,-3295.043863772861
15444,-3401.790833864883
15445,-3426.050999558043
15446,-3429.118134412123
15447,-3393.6395087985816
15448,-3367.9866006148827
15449,-2844.304316747714
15450,-318.1952951446689
15451,1854.4079446072224
15452,2408.913043738199
15453,2062.90921301423
15454,1424.8402512022483
15455,387.5811859370815
15456,58.78644819639803
15457,-451.9792108472244
15458,-747.6023334582272
15459,-904.2737409896603
15460,-619.9150442109689
15461,45.5771880155361
15462,1211.1120018292033
15463,1792.1652617052046
15464,234.27021110964773
15465,-2087.0237461751803
15466,-2501.955048601911
15467,-2728.906219859764
15468,-2952.6596263650154
15469,-3000.1806182525406
15470,-3080.775727246041
15471,-3032.753508095109
15472,-2879.584077011007
15473,-2075.431305934874
15474,442.315933000859
15475,2133.783000883547
15476,2332.4543231957587
15477,1855.126242994986
15478,1156.553596108665
15479,432.97282328684526
15480,-5.4294930339899565
15481,-552.9023874554478
15482,-796.6408405903522
15483,-850.231397664019
15484,-804.2290705759806
15485,-4.024317316902199
15486,1025.7912384350411
15487,1545.3441103369025
15488,369.8004623437697
15489,-1737.574268559365
15490,-2567.880715935441
15491,-2866.574736444478
15492,-2978.8828705649134
15493,-3055.1398138843824
15494,-3072.8335073228136
15495,-3018.1681112530055
15496,-2902.2392800560456
15497,-1444.5094730655233
15498,573.4835361080801
15499,2087.502778832675
15500,2401.4663497667657
15501,1838.1278920970672
15502,1190.6362098489606
15503,765.1921469750243
15504,556.2778915739812
15505,213.38819363068095
15506,51.33503726673726
15507,-34.49672938107635
15508,56.554388405441784
15509,819.2303087417658
15510,1679.3020753423893
15511,2128.8866694510534
15512,1827.8534824275575
15513,699.0070618796997
15514,-1070.178229287681
15515,-1852.0479633211212
15516,-2112.9190764239693
15517,-2312.301481248621
15518,-2115.3909163951917
15519,-1937.0228598804044
15520,-1063.266060621909
15521,318.3338613276133
15522,1283.9197180236404
15523,2316.262189681366
15524,2546.973339729493
15525,1988.0599921743406
15526,1350.837170602007
15527,964.4168620986769
15528,560.7898014500736
15529,225.10395808279173
15530,122.9320599697582
15531,17.934857108012523
15532,55.62313269952959
15533,626.0128650628996
15534,1692.7094134153926
15535,2249.680869813506
15536,2167.3772996828748
15537,1514.1818100675728
15538,411.2245153270047
15539,-231.82828641574991
15540,-680.5642031584172
15541,-1071.6553816760434
15542,-1082.1691927947295
15543,-1190.6328904150398
15544,-648.4231536059508
15545,453.6276033000856
15546,1593.801737135428
15547,2437.4191611472424
15548,2656.040042754556
15549,2260.5196947051168
15550,1568.3432241269945
15551,1054.7171252385297
15552,681.5390763878407
15553,403.38027182854535
15554,152.75189119063734
15555,3.8047577297525805
15556,61.657064125639934
15557,581.6601469063753
15558,1487.9302733990978
15559,2055.9185657110725
15560,1997.3501209581716
15561,1275.848698842161
15562,368.52999859982503
15563,-316.77245398342023
15564,-1122.9317850657567
15565,-1991.7024138365643
15566,-2063.9126292200954
15567,-1928.039339271755
15568,-1307.0607705408843
15569,-232.9777629013534
15570,984.1950210569353
15571,2277.7265983571474
15572,2531.253942760332
15573,1890.3959803777004
15574,1226.4183065394645
15575,684.9289703851098
15576,303.6823722385725
15577,169.5919392660553
15578,-70.64458450517637
15579,-186.65955094995724
15580,-217.14561205015826
15581,-67.11225807579636
15582,248.9949204098349
15583,743.1166288636107
15584,958.572209987419
15585,747.2276705283589
15586,-119.38888824276381
15587,-1385.9859037113647
15588,-2031.916725516819
15589,-2447.1888308849143
15590,-2687.235842240881
15591,-2728.5287333604224
15592,-2634.4444438609994
15593,-1107.703742984888
15594,408.9699068871055
15595,1994.3347079237037
15596,2408.6336356576644
15597,1991.7725160847222
15598,1409.7462128626419
15599,1069.1182611364738
15600,757.6622103285973
15601,354.445010766168
15602,196.2247815352265
15603,-45.64336610197991
15604,-314.4215347370586
15605,-235.63169001447494
15606,10.232219992831212
15607,296.9841548482327
15608,224.91907803854193
15609,-305.20175679218244
15610,-1621.5541298728526
15611,-2530.5788299853084
15612,-2817.699724613654
15613,-3090.01074161334
15614,-3232.2697363774196
15615,-3199.0228428022633
15616,-2861.673100930675
15617,-900.2326652352785
15618,393.30462640501503
15619,1778.026883538225
15620,2249.462597518114
15621,1858.0353500698313
15622,1185.0406250193505
15623,933.2935146947486
15624,461.24962680935016
15625,167.87594426703893
15626,-116.14602334536414
15627,-304.94734544957106
15628,-307.47459098645976
15629,284.409873171712
15630,1327.3459893580662
15631,2168.206072185491
15632,1739.7215698709574
15633,72.43782276950745
15634,-1640.6286559142604
15635,-1970.1293901326258
15636,-2301.4284298858174
15637,-2669.31509988747
15638,-2774.312501597455
15639,-2685.434713143281
15640,-2411.1662045776825
15641,-529.0769606351673
15642,1110.0338373401546
15643,2411.5864091183075
15644,2656.7799545743774
15645,2339.951951845688
15646,1673.8317475164502
15647,1115.5529804287057
15648,502.59327705598736
15649,387.7179194375361
15650,160.20797836499506
15651,13.170419074633202
15652,60.02340854574767
15653,548.3795529748327
15654,1570.9164901384615
15655,2160.1828147013834
15656,1999.0685092746066
15657,1170.8623577980477
15658,34.32271551548048
15659,-484.21339570700076
15660,-1369.7132680038183
15661,-2037.2488786176423
15662,-2042.8295848261425
15663,-1764.9500299389833
15664,-695.8277615430562
15665,-9.352957311831162
15666,1286.6640562083717
15667,2199.668016494402
15668,2412.0690794175375
15669,1783.3417098934335
15670,794.9902229026982
15671,819.2917224075429
15672,259.4617568311741
15673,-68.96443559157925
15674,-440.28640260970485
15675,-497.93691562313785
15676,-412.9820956200805
15677,116.995142573519
15678,999.0812799946457
15679,1573.587258599266
15680,1474.7394732146936
15681,890.0635477450154
15682,149.00662650404752
15683,-1067.295079497054
15684,-1687.9170623682805
15685,-1998.0483992501968
15686,-2408.5844305490623
15687,-2198.8129922975636
15688,-1724.1077580124236
15689,-654.6943950295603
15690,321.0380542467959
15691,1373.145202991625
15692,1605.898523269355
15693,845.8929522019115
15694,-37.284141185953544
15695,-567.9606380973327
15696,-1352.7390215465662
15697,-1876.1580064854406
15698,-2186.3131160106223
15699,-2445.1232059441422
15700,-2380.847205111696
15701,-1495.0987602784073
15702,205.11778891689653
15703,1237.8064804093324
15704,810.2277394013204
15705,-582.6145271689089
15706,-1682.4981150716899
15707,-2419.112612318212
15708,-2696.9915972952413
15709,-2911.746313631932
15710,-3012.0477143319936
15711,-2904.386658661129
15712,-2587.7575406783985
15713,-1047.9233802965691
15714,813.3853107255517
15715,1818.460284149155
15716,1986.8432636854823
15717,1485.5273414821186
15718,781.7604174376303
15719,-541.9936453259635
15720,-1061.84082497971
15721,-1766.973244420496
15722,-1774.7242066142526
15723,-2086.2152432227354
15724,-2058.338389177208
15725,-1390.3222219060683
15726,552.7133038384482
15727,1464.5588778307047
15728,476.50559312750914
15729,-1600.1549767525453
15730,-2568.365120425335
15731,-2948.0287896970613
15732,-3167.0955020158344
15733,-3276.9610100484583
15734,-3301.3898396686122
15735,-3277.3374638746227
15736,-3165.526580930212
15737,-2053.1113467184823
15738,563.6250349623913
15739,2124.2028860700157
15740,2399.858576926723
15741,2096.323953620275
15742,1588.4589434152315
15743,1074.3055165636688
15744,528.2881190917377
15745,10.762952321548823
15746,-185.9967000484957
15747,-316.285302680256
15748,-379.2221557534617
15749,-132.97113296766034
15750,351.5416651655614
15751,466.25168647039595
15752,-635.2907958481258
15753,-2214.337022481611
15754,-2883.526230814894
15755,-3107.680098354688
15756,-3306.689680883093
15757,-3394.1278091813606
15758,-3448.2040498664346
15759,-3433.599374024058
15760,-3345.55808203415
15761,-1697.750093804601
15762,831.2084377184733
15763,2359.8449824454538
15764,2660.7750341874475
15765,2362.4483959429895
15766,1738.1175610264243
15767,1383.734440883782
15768,888.278534846149
15769,392.58067986639753
15770,190.81993937267862
15771,-5.572126419762057
15772,-227.94565609807523
15773,-229.63745800471105
15774,52.790189061432
15775,88.32881750399183
15776,-1426.6244791170939
15777,-2661.3940161832866
15778,-3171.2196401795372
15779,-3288.332086809865
15780,-3483.8101442246443
15781,-3502.310816674582
15782,-3521.7349683062507
15783,-3485.578944598418
15784,-3453.711771348804
15785,-2530.7799060032685
15786,304.7227502673055
15787,2191.074206647353
15788,2490.642964836019
15789,2139.3923947012568
15790,1362.1314988606186
15791,726.2846124135289
15792,434.95374053643127
15793,200.4058218861903
15794,156.6092015228234
15795,125.22957968153958
15796,215.10654201439394
15797,774.900370084786
15798,1493.3861158041836
15799,2243.397054726359
15800,2017.0688072319692
15801,-191.71268225973648
15802,-1994.9751118222448
15803,-2507.147217895302
15804,-2416.844826162498
15805,-2477.72488172647
15806,-2721.3227265001974
15807,-2614.9249695439917
15808,-1820.5160939418527
15809,-15.851444002794608
15810,1379.6965142824156
15811,2671.4730566346852
15812,2833.724126419884
15813,2556.4923083091967
15814,1979.964788882585
15815,1463.5603555904795
15816,850.3394129967194
15817,420.1978565331592
15818,134.5138194709417
15819,-6.128237832555541
15820,92.00309418154282
15821,597.8649361991042
15822,1644.4138158191065
15823,2317.8016021026865
15824,1909.181869422442
15825,988.0589559000482
15826,-661.4784046691323
15827,-1698.3788621761123
15828,-2152.7383131867855
15829,-2195.3962728800775
15830,-2532.946944007456
15831,-2516.5483406594567
15832,-1714.8410132811323
15833,-49.52230243453209
15834,1597.047181828855
15835,2740.849068346666
15836,2897.576276013078
15837,2480.9187662821064
15838,1740.9808248139686
15839,1077.8552291035812
15840,431.3513640336273
15841,151.6320779842215
15842,-82.9768495343578
15843,-299.52909733579565
15844,-165.13863294186586
15845,497.77256585512646
15846,1479.5439294559774
15847,2182.353851771398
15848,1734.3711888081787
15849,919.1301895807936
15850,-999.0070841121845
15851,-1957.1515800798454
15852,-2376.546125507116
15853,-2277.578641995467
15854,-2321.1296185847764
15855,-2202.173358666271
15856,-807.9085948935622
15857,402.27366848791434
15858,1474.9469883923352
15859,2516.7710530610902
15860,2570.317027513574
15861,1920.845219934215
15862,1194.3651111440793
15863,397.9725437151307
15864,-94.26370769702316
15865,-457.3955024699558
15866,-946.1852307474261
15867,-1178.6772894307753
15868,-866.3754554422273
15869,36.82463691238763
15870,1123.9918424614834
15871,1624.4124901137525
15872,1082.9317797655856
15873,-540.7642814304014
15874,-2152.0943712628496
15875,-2565.9502599593498
15876,-2611.6018863380764
15877,-2747.237668001667
15878,-2640.4454818156996
15879,-2673.9938370106715
15880,-1802.8606189290817
15881,203.3971015521184
15882,1592.472048683656
15883,2593.9637398468517
15884,2793.882928010004
15885,2595.471882241638
15886,2061.251988526296
15887,1713.777915223598
15888,1289.1726322806458
15889,736.8882923830214
15890,515.0872778655166
15891,356.7976344658076
15892,408.7146044030205
15893,826.8228472322895
15894,1674.5816023414777
15895,2201.571082234703
15896,1669.2604014808053
15897,57.19354971956966
15898,-1409.4854283346735
15899,-1881.3766996334848
15900,-2312.853860811717
15901,-2733.7730211417274
15902,-2806.5444947013007
15903,-2604.1689922662063
15904,-2001.9163723875283
15905,-47.14367609246953
15906,1517.8682070903974
15907,2690.091029778957
15908,2930.745867572611
15909,2613.4107767698674
15910,2043.9466698274707
15911,1612.299410255262
15912,1047.1232530202203
15913,919.4208296729796
15914,541.2580209653422
15915,316.4398640605634
15916,197.06267474805446
15917,259.59577005590654
15918,579.1933887402524
15919,796.1060636351788
15920,559.45067292149
15921,-633.7681136311511
15922,-2288.95497595619
15923,-2900.3677639339116
15924,-3205.836873905569
15925,-3337.122765595839
15926,-3400.6671231655964
15927,-3435.250095032683
15928,-3277.470325355631
15929,-1897.8572607048645
15930,553.8947308333022
15931,1791.0830827154655
15932,1905.4938936158194
15933,1357.7896676661376
15934,732.8172437385142
15935,-490.56041868046975
15936,-872.4999630804344
15937,-1315.390401106783
15938,-1700.0858225881962
15939,-1790.9760854393385
15940,-1829.3595046597318
15941,-1590.3543132620293
15942,-1428.0291009043083
15943,-1159.8994584618667
15944,-1005.9861370805286
15945,-1664.9064162405662
15946,-2279.3591001053624
15947,-2965.3010464135905
15948,-3225.9049851463274
15949,-3271.3857783036074
15950,-3365.9137543091338
15951,-3330.7549912262525
15952,-3100.2514866966726
15953,-1347.1600635863495
15954,699.4430170189669
15955,2106.9166091035777
15956,2286.292711929458
15957,1947.475582834152
15958,1320.228970417371
15959,546.8294628084066
15960,-276.345881989984
15961,-1058.6331654882545
15962,-1204.6704459699577
15963,-1339.95053941352
15964,-1153.523119418804
15965,-29.224125466819302
15966,1138.4984552588937
15967,2004.8410833494193
15968,1938.8931684742108
15969,1297.0894785572564
15970,-252.81109468252737
15971,-1214.7670569695742
15972,-1657.9744243661787
15973,-2045.0707456493449
15974,-2042.6659675413991
15975,-2049.6151063715993
15976,-1488.8316735045
15977,-632.2042539452763
15978,759.2211883192422
15979,1780.476431312002
15980,1919.6197109596146
15981,974.2991396793398
15982,-371.7918274622391
15983,-1004.9157185508303
15984,-1789.3471470733284
15985,-2302.2539999325654
15986,-2663.4189405963584
15987,-2802.2142655591633
15988,-2672.1201476281085
15989,-1569.6935312300052
15990,649.9906293561982
15991,1413.995941308145
15992,1031.2211641552308
15993,-562.7614578684385
15994,-1856.1865860373891
15995,-2473.5257922099736
15996,-2756.9490296608005
15997,-2944.6915112580764
15998,-3067.4698201154847
15999,-3081.9416640833456
16000,-2635.0940559451938
16001,-634.7957226748896
16002,1147.7873180786705
16003,2059.986858233131
16004,2260.0341067605063
16005,1535.0371049543073
16006,370.8885188376829
16007,-553.1350555099796
16008,-1448.6358006212952
16009,-1885.8474893935418
16010,-1999.8802459039807
16011,-1818.7615515928253
16012,-1924.299836818226
16013,-959.6876936097652
16014,678.2643094242475
16015,1365.9208907533352
16016,1159.1317603351258
16017,425.16043397674076
16018,-700.9231832158687
16019,-1553.5731444049572
16020,-1947.8083142579048
16021,-2087.068762546185
16022,-2377.0399080602697
16023,-2384.527706497563
16024,-2044.8872315160984
16025,-1058.049374207311
16026,631.9675528473613
16027,1609.4748322576106
16028,1884.2052080211843
16029,1188.6003691457458
16030,649.3645712399738
16031,-84.54471062308664
16032,-446.08974419886107
16033,-842.6201540234139
16034,-787.2373150348661
16035,-1060.4261338142746
16036,-721.3298264988537
16037,261.79659372680567
16038,1602.4989661653574
16039,2227.780226803953
16040,2168.337619618129
16041,1085.0827996956032
16042,-1142.6869268963733
16043,-2015.1726073681398
16044,-2311.036391047508
16045,-2519.0770679770085
16046,-2452.324584018528
16047,-2022.1110873293942
16048,-1187.1220004778718
16049,810.2710439161128
16050,2121.186595893331
16051,2755.572108594614
16052,3000.5163140674426
16053,2832.033266024383
16054,2409.996785436342
16055,2068.425930960577
16056,1650.7172186284142
16057,1196.486843529369
16058,873.7381014146073
16059,591.4671691844478
16060,648.3369385283906
16061,974.6914215548824
16062,1856.416011223518
16063,2337.2683185136243
16064,2247.4304864661367
16065,1775.7013758200428
16066,839.6211225182954
16067,296.7264367693713
16068,-240.3207973398459
16069,-1224.8325947199555
16070,-1268.3929315352943
16071,-965.1437845656582
16072,-317.22480328653717
16073,212.04833054390105
16074,732.5519880799449
16075,1461.5757761822147
16076,1399.719797333975
16077,774.6757525627835
16078,275.0626990933307
16079,-292.79463731602834
16080,-827.9831720818638
16081,-1445.243623704354
16082,-1754.3504637082601
16083,-1905.2648561426022
16084,-1662.822215513626
16085,-1207.6191969661065
16086,-398.55083217326853
16087,159.40066200572423
16088,972.9132571944376
16089,643.7305309619755
16090,204.14826457241628
16091,-106.56968486257855
16092,-353.36622693758676
16093,-527.4382222268949
16094,-1136.220151387767
16095,-902.8470123120702
16096,-178.7309790472859
16097,610.4523712006528
16098,1570.3126364176444
16099,2299.080805329176
16100,2467.730466993973
16101,2064.5562725333907
16102,1358.3389097500765
16103,892.277652903163
16104,254.80908199827604
16105,-387.28664761212576
16106,-766.7020219527365
16107,-991.5308535045593
16108,-1119.05933391583
16109,-1138.877549261038
16110,-828.1690830751836
16111,-400.4190244341633
16112,-493.5580504949615
16113,-1020.7244851824495
16114,-1414.8388782050592
16115,-2347.8431809809454
16116,-2779.896965201501
16117,-3086.7336029570356
16118,-3203.6050310642663
16119,-3038.532597291048
16120,-2162.611281371006
16121,-197.2911206271275
16122,1268.1149148475038
16123,2280.73080223578
16124,2453.7991893908984
16125,2015.076125948673
16126,1453.5077582558738
16127,1122.733102801606
16128,648.2087624237078
16129,182.6788231667038
16130,141.67500786701603
16131,145.5159032791404
16132,344.3391463343752
16133,954.1209428293611
16134,1821.8106011967889
16135,2421.329852344972
16136,2618.5789328824426
16137,2188.5054179077074
16138,943.1080510111212
16139,-152.42395754678216
16140,-901.8480113401287
16141,-1424.3422044119066
16142,-1714.4152723821583
16143,-1238.4316313931022
16144,-241.18047456111785
16145,1043.662680861382
16146,1943.0424938914257
16147,2533.6675185525896
16148,2531.5300987912165
16149,1872.6265721765267
16150,1017.3681058674298
16151,692.7642197038215
16152,134.5863685113008
16153,-164.7213423923183
16154,-372.4456240029659
16155,-546.9110744021224
16156,-441.8202206628869
16157,169.19868982661492
16158,1531.072384410403
16159,2283.0285587580943
16160,2276.167791054639
16161,1793.232762601176
16162,1076.2593244440145
16163,320.33771758663033
16164,44.14445103446196
16165,-449.2771282145076
16166,-567.8051629839462
16167,-430.26130121713345
16168,228.86959993531278
16169,923.2160222493209
16170,1981.3323462405458
16171,2512.5218653644342
16172,2406.84482610601
16173,1646.8961223446504
16174,624.6426437027604
16175,-15.85339273709667
16176,-627.8746580140362
16177,-1330.8929979622865
16178,-2070.4329501124625
16179,-2118.607413849381
16180,-2000.9911459252576
16181,-1167.42944427523
16182,364.47325255142675
16183,1298.8166603708064
16184,1434.0309934585227
16185,614.6630915583037
16186,-782.0309429464317
16187,-1489.5477731069418
16188,-2104.9980190500014
16189,-2547.4417526090087
16190,-2676.007710556394
16191,-2556.6444557043556
16192,-2119.2464493281414
16193,-109.87370298314008
16194,1864.28498382213
16195,2527.107507522662
16196,2619.3206742659077
16197,2335.30655702664
16198,1615.6391501350488
16199,1082.0092656441116
16200,320.0499465576263
16201,-155.66491840140358
16202,-567.3579208760497
16203,-602.694027162771
16204,-587.4938546033088
16205,15.035488304001708
16206,1023.3706679870237
16207,1747.3325030906421
16208,1675.779569615574
16209,280.36578103292436
16210,-1433.1646753595128
16211,-2223.018132863103
16212,-2537.0515961761257
16213,-2664.3642263042548
16214,-2811.3574679488306
16215,-2886.2177707503315
16216,-2848.1383774247333
16217,-1753.8192570264018
16218,493.54512521157
16219,1834.2724254674827
16220,1899.2735627042007
16221,1346.3515608510204
16222,586.2991628058084
16223,60.82307916528926
16224,-648.8884172022352
16225,-1105.8700296156953
16226,-1049.93760741402
16227,-1230.1484607520165
16228,-991.5744918587302
16229,182.063324806553
16230,1361.369821092893
16231,2103.6511133829777
16232,1706.4710100733137
16233,-242.70716507521968
16234,-1993.2164526017218
16235,-2542.2573841281987
16236,-2779.9520128759605
16237,-2833.3284128445935
16238,-2898.3810224307595
16239,-2894.7098651713904
16240,-2149.808259811857
16241,389.8686317026844
16242,2130.216076613617
16243,2504.121507889923
16244,2694.0824083415314
16245,2289.853744941162
16246,1609.8115828789093
16247,1184.7016341667754
16248,374.2864465993366
16249,-191.00341951676947
16250,-638.5500128898358
16251,-865.5273857148946
16252,-681.9929560763283
16253,-115.0683927124459
16254,399.23995345849164
16255,999.9841602563172
16256,1139.8139980480732
16257,-62.63648618274601
16258,-1776.223157069201
16259,-2685.019106139816
16260,-2978.981850478214
16261,-3107.5051984652414
16262,-3169.431759330936
16263,-3030.0536679370502
16264,-2311.7161609083487
16265,81.3578730588084
16266,1702.5017882521229
16267,2463.0420450256197
16268,2549.245556001502
16269,1971.7947794483616
16270,1423.0030705468741
16271,733.3424490508891
16272,-199.53092727037594
16273,-629.6070539598882
16274,-986.6432357012487
16275,-995.9759195038449
16276,-919.5672124685628
16277,-649.7795072084015
16278,-361.31277745172133
16279,100.99540346352227
16280,74.90492969939385
16281,-1244.7455575371073
16282,-2711.362605006263
16283,-3137.729490468761
16284,-3277.492948216929
16285,-3268.269864160436
16286,-3284.8566559197407
16287,-3271.1255232991616
16288,-2627.769214531199
16289,-382.40097287033296
16290,1584.8204354660254
16291,2316.9976077142373
16292,2554.830176956617
16293,2256.5244228044785
16294,1427.5828897440467
16295,922.5590747759229
16296,536.2324372525394
16297,127.3907144954508
16298,-272.60067873686046
16299,-299.3316991995293
16300,-99.86604554449681
16301,688.8045626654988
16302,1730.242637706562
16303,2366.605432229346
16304,2473.5623743218125
16305,1210.4247833170803
16306,-726.6341906500107
16307,-1691.649565698086
16308,-2081.662616501814
16309,-2398.536362858115
16310,-2342.526746248985
16311,-1785.4649835746834
16312,-496.75050445424205
16313,1059.8818779639735
16314,2361.717334920719
16315,2790.340742786723
16316,2949.992658536277
16317,2447.392346710002
16318,1480.048057179551
16319,962.6343963446698
16320,460.4560810601731
16321,181.10335450671502
16322,-152.51277058769534
16323,-349.07390675247643
16324,-253.9221167279781
16325,142.8084571291048
16326,1294.0754607079052
16327,2036.6135169040008
16328,1932.321710612752
16329,985.9002919464109
16330,-836.6954104446872
16331,-1789.157583936608
16332,-2096.71949172544
16333,-2152.3807672753755
16334,-2314.9528466411184
16335,-2064.2937596888933
16336,-684.4429543075597
16337,342.74623479096243
16338,1823.8540703279166
16339,2509.4195168935444
16340,2470.9779527874584
16341,1873.9119364096405
16342,1049.3642358409772
16343,613.0628505002028
16344,-13.009678647828455
16345,-317.2373035583329
16346,-470.9796385883485
16347,-435.87439951596474
16348,-270.49692311918807
16349,476.9560724900539
16350,1737.5759406709883
16351,2374.9271456241204
16352,2325.3619963849096
16353,1463.5447422061688
16354,-158.04882429016922
16355,-1463.3006201375606
16356,-1862.176718368988
16357,-1870.207113674111
16358,-2121.4929848515585
16359,-2005.5253470412295
16360,-535.9471934112618
16361,891.7958696792637
16362,2323.8068996094794
16363,2762.586278629499
16364,2958.030671310592
16365,2461.014661605237
16366,1855.7465762538611
16367,1189.1851627083124
16368,446.4909741558846
16369,64.06278948471726
16370,-217.6499364862143
16371,-366.3207793764197
16372,-280.9077924530369
16373,361.33101289090223
16374,1505.9073508716965
16375,2186.633731195071
16376,2131.563632856665
16377,1156.7051087316977
16378,-890.2314525536754
16379,-1967.135400316202
16380,-2191.7330413387976
16381,-2489.018323724021
16382,-2417.702953941011
16383,-2121.2211626154167
16384,-779.2364985090593
16385,722.8466161391356
16386,2119.523519849492
16387,2606.1855915462857
16388,2718.0254326424183
16389,2039.0867336491647
16390,1230.6285774744701
16391,388.7206459552234
16392,-115.85919564911367
16393,-469.935791919293
16394,-715.1495512493607
16395,-754.9225500941712
16396,-678.1021752675475
16397,279.4662064489946
16398,1393.346966629353
16399,2162.242339990974
16400,2314.4739208819065
16401,1946.8438298645005
16402,808.0914816704739
16403,-215.6996632998244
16404,-1532.2083564048185
16405,-2022.4999685063276
16406,-2199.5001666423536
16407,-2131.670412019812
16408,-970.8652015632318
16409,492.59469526413386
16410,1922.3385399939132
16411,2562.6586504216457
16412,2634.106725950911
16413,2182.762423925008
16414,1457.8654238447186
16415,1106.49264365024
16416,500.08590190860764
16417,-36.39880766212627
16418,-545.3073756019893
16419,-676.5091137291511
16420,-970.4351517128725
16421,-832.3687462629799
16422,-231.86615634349315
16423,420.9766067295438
16424,761.7922458902135
16425,-173.47602845413132
16426,-1701.5527081056157
16427,-2298.6602208371446
16428,-2543.091929219061
16429,-2709.6678809893715
16430,-2913.788501800137
16431,-2766.873559492162
16432,-1893.4702214542472
16433,-243.89473363037138
16434,1445.7379802599078
16435,2081.2891623252226
16436,2114.2259676117274
16437,1740.6301087256356
16438,1259.3932093309966
16439,888.9778348922115
16440,703.0435048116753
16441,160.02337963281144
16442,-20.237519537277137
16443,49.366110663620795
16444,-21.611304029611276
16445,47.92552260689392
16446,112.43023418023832
16447,403.99479702275016
16448,583.901812788055
16449,-366.820085231402
16450,-1393.7049859049512
16451,-1988.3417507448726
16452,-2496.5421977274623
16453,-2517.9730096486214
16454,-2372.622928509451
16455,-2348.657678575643
16456,-1818.3105070952142
16457,-149.42095923766232
16458,1283.3013389667813
16459,1819.1641694936372
16460,1797.2070692888892
16461,1613.7819471656776
16462,1081.8202082553603
16463,298.9026248930554
16464,-677.6640926310502
16465,-1567.9925240408486
16466,-1992.6240893693184
16467,-2219.631556435449
16468,-2279.003585906202
16469,-1977.881492380417
16470,-463.8430553103799
16471,1067.3820323697346
16472,1853.8245998906125
16473,908.5357511254127
16474,-1014.2266372627906
16475,-1644.8703969184467
16476,-1940.1477525503444
16477,-2129.9658691885534
16478,-2027.0094837118243
16479,-1843.6677170850164
16480,-887.929743782597
16481,938.5267148641925
16482,1889.9075404230698
16483,2348.6793739597388
16484,2572.9913198832946
16485,2279.5621509699063
16486,1476.1244009852421
16487,830.8171863945151
16488,124.86766055642141
16489,-569.344374287868
16490,-888.9807111747155
16491,-1291.81185700766
16492,-1460.1166139376703
16493,-1325.3802004722133
16494,-354.83076410642
16495,989.1794265544002
16496,1664.8730307906533
16497,1553.537364598431
16498,900.8809324638577
16499,260.72458112499146
16500,-436.7289734451813
16501,-638.6210438884325
16502,-403.34464050251466
16503,-128.6163564802633
16504,230.62920421607
16505,756.0824131588504
16506,1242.8791548100528
16507,1652.783410199689
16508,1992.3687401884376
16509,1745.1869922545825
16510,886.2971560135503
16511,101.48963271955417
16512,-1192.4045905060964
16513,-1755.8935175686895
16514,-1951.9908173609792
16515,-2061.8131638491755
16516,-2046.4222270734363
16517,-1501.7231506212092
16518,-561.5021138385135
16519,925.3799229831732
16520,1698.0882099428795
16521,1278.5535051141574
16522,578.3986933680612
16523,-600.2471551550248
16524,-1279.946689981505
16525,-1281.725564753363
16526,-897.0805230282002
16527,-526.2054035312816
16528,373.8136316685887
16529,1344.2841281021133
16530,1998.2140892756747
16531,2378.1595279601856
16532,2667.4002170358253
16533,2462.7038932008436
16534,2001.4727168101133
16535,1400.0297110974943
16536,444.47343738818967
16537,-162.06674283758562
16538,-798.9095517202971
16539,-973.7884333424555
16540,-976.9577474618094
16541,-866.2613472681257
16542,147.68840703740864
16543,1441.9404149504921
16544,1846.897338898768
16545,1386.7083272443988
16546,658.8463316457617
16547,45.86917250528863
16548,-332.2908564248678
16549,-479.0811687809357
16550,-595.5428344759597
16551,-351.1529722721152
16552,396.37467079271727
16553,1403.9797635177997
16554,2057.3171391451833
16555,2428.0937667243556
16556,2598.956851860078
16557,2360.9776162382095
16558,1702.6618523739098
16559,768.1542922781507
16560,104.62771596224428
16561,-426.305979292031
16562,-703.1301023077832
16563,-930.0224848807806
16564,-1082.5087534708216
16565,-1088.2478573680853
16566,-894.2415315731834
16567,-505.0045541673665
16568,-131.6005885678316
16569,-121.58043500684767
16570,-765.4941641676061
16571,-1477.2225098295944
16572,-2119.8818548313257
16573,-2296.784117691654
16574,-1924.4443346415158
16575,-1773.8495928714167
16576,-411.48816064861035
16577,261.62603394404334
16578,1657.825259865029
16579,2297.790755066114
16580,2699.994674346968
16581,2518.9113117862894
16582,1862.556435243345
16583,1415.7896760777949
16584,699.0042058379709
16585,143.93268457151413
16586,-70.42273612136788
16587,-387.38058949186245
16588,-627.3314504297707
16589,-500.45692194061587
16590,-61.44190856537011
16591,458.714917372375
16592,655.0970096105617
16593,195.74682349915958
16594,-1539.6503446133524
16595,-2368.8067720789845
16596,-2698.5444199287867
16597,-2621.80871174849
16598,-2460.615929109989
16599,-2490.51625780906
16600,-1341.2159890402233
16601,383.4088485776406
16602,1734.1961013099667
16603,2201.356466147917
16604,2504.671215574931
16605,2237.0308747253207
16606,1639.6555126816695
16607,996.7746990254566
16608,352.63108786477346
16609,-226.81634335810296
16610,-626.3427433493565
16611,-899.1508413223324
16612,-1102.7028354459912
16613,-1127.1139519512458
16614,-853.8575063153359
16615,-711.2357500896883
16616,-910.2651111769499
16617,-1816.2358633853028
16618,-2536.139109644548
16619,-2981.38561333095
16620,-3108.986380918606
16621,-3186.30160327036
16622,-3019.219680081625
16623,-2865.0084361377244
16624,-2014.9398036546122
16625,-311.7152012131242
16626,1200.7377932979114
16627,1908.6998214450757
16628,2213.1782172190674
16629,1956.8455812921634
16630,1332.7653820587204
16631,763.3319041829449
16632,250.77153347155672
16633,-524.9221184409819
16634,-950.4532290108251
16635,-1001.8051581385154
16636,-1237.8355091771375
16637,-1096.0780888113527
16638,-227.62310239704854
16639,1195.6851443026633
16640,1926.2618157597835
16641,1635.1415416430655
16642,552.5662342607668
16643,-562.9465748253035
16644,-566.2420471276287
16645,-992.6774941844614
16646,-1199.4765671165314
16647,-677.3640888610756
16648,172.51393897024522
16649,1360.4222196202097
16650,2045.7101500200758
16651,2458.8434687293534
16652,2621.723238738938
16653,2331.58355966255
16654,1739.6891080727216
16655,939.6213019311992
16656,428.0036928390092
16657,-92.7468453876011
16658,-475.8477533223885
16659,-657.3485017359369
16660,-574.1660011436686
16661,-462.28025780953635
16662,402.59363719201826
16663,1501.2496229703697
16664,2009.0751084443593
16665,1457.954368272599
16666,228.81283144590003
16667,-387.3815171936384
16668,-517.9545021685891
16669,-546.1382120895904
16670,-673.1887481747373
16671,-579.8115134917844
16672,108.97858866195457
16673,1262.9093246146076
16674,2267.1794962730246
16675,2709.3203309786545
16676,2898.434378334052
16677,2689.159732879505
16678,2221.7743344816017
16679,1725.220096317451
16680,1040.4774873717004
16681,600.7153726205058
16682,151.99785656612283
16683,-82.28915466812784
16684,-130.95751958370062
16685,-62.46875575060615
16686,617.2728422476823
16687,1716.399164319259
16688,2029.0717695121236
16689,1152.0976336927192
16690,-156.85435694104882
16691,-941.9986338634753
16692,-1304.3887656838463
16693,-1747.6138866259848
16694,-1645.4624086953445
16695,-1184.8971452688006
16696,-549.9953650194774
16697,781.7339565713983
16698,2230.677011502274
16699,2622.4378340521243
16700,2856.225466705868
16701,2608.151894849082
16702,1953.4796821311827
16703,1086.0271263587651
16704,684.5931975430636
16705,188.07428267162678
16706,-192.73362246457515
16707,-332.5986887417533
16708,-455.8828638051883
16709,-343.53941087957605
16710,205.4504074105852
16711,1399.9343985687347
16712,1788.6972342294737
16713,971.2046456966729
16714,-227.576755788137
16715,-1175.3438813537919
16716,-1247.93581165228
16717,-1685.7665996315181
16718,-1887.929158266622
16719,-1186.8700438926808
16720,-168.74759924601938
16721,1414.9003321508806
16722,2251.4595092867444
16723,2570.058522935464
16724,2841.743232711438
16725,2612.8918123568005
16726,1982.9895636561107
16727,1429.253614018799
16728,652.8474536459954
16729,57.335663577565214
16730,-86.74461387806662
16731,-224.36960641494227
16732,-416.9824116056205
16733,-224.94829255945402
16734,458.900578110702
16735,1590.8185574598806
16736,2035.819518681522
16737,1728.3669977410505
16738,776.4161704130671
16739,-161.99157766743588
16740,-403.45370970981617
16741,-434.0681545172655
16742,-580.9238643694337
16743,-360.0984363537277
16744,142.43133494170942
16745,1155.7042525037002
16746,2022.5177399225886
16747,2379.084119140779
16748,2575.8320381828776
16749,2242.4076953427016
16750,1710.9460704670087
16751,1065.2634330073327
16752,299.7141449815103
16753,-119.05088137769204
16754,-383.188999903596
16755,-453.7885414361361
16756,-510.9418808605193
16757,-528.7011517211016
16758,-329.02796254768066
16759,-39.892171174237205
16760,360.8735727429214
16761,513.9554409345907
16762,-146.52321154141845
16763,-1630.318748351124
16764,-2594.571674353934
16765,-2579.4458989478317
16766,-2880.250516564604
16767,-2853.4355686668773
16768,-2226.0194897848046
16769,-270.24202910380893
16770,1348.553293804755
16771,1870.3450101715707
16772,2140.348778278553
16773,1768.267316405616
16774,1069.0748392450519
16775,692.1573561109826
16776,-141.2798482399766
16777,-675.0716052252463
16778,-918.5551980685983
16779,-1093.3136849866405
16780,-1432.9143703304283
16781,-1525.7362053821885
16782,-1359.9710166580262
16783,-1403.222251855053
16784,-1312.9428477497686
16785,-2025.2665271367068
16786,-2751.7586006133643
16787,-3064.0995180952805
16788,-3173.502805367346
16789,-3163.795864751752
16790,-3177.6020578884827
16791,-3103.8934900370637
16792,-2630.0274013802878
16793,-359.74601807339855
16794,1375.7068451675093
16795,1949.3824627871015
16796,2407.10220639941
16797,2171.044192606027
16798,1579.8830711545986
16799,1091.9777085851897
16800,433.95550246198803
16801,-388.23980051056446
16802,-786.1845745544459
16803,-1349.9694278370293
16804,-1217.3529679062626
16805,-824.2094429846501
16806,-155.42449453704583
16807,1074.474374639768
16808,1755.9199216470815
16809,515.306959132086
16810,-1416.2096344071092
16811,-2528.666237365941
16812,-2714.5894920847413
16813,-2781.631004561996
16814,-2859.187938948642
16815,-2799.528139738196
16816,-2211.258145517872
16817,221.1406414474854
16818,1729.5566986310384
16819,2233.7044468380645
16820,2431.4018406892346
16821,2101.9792062649412
16822,1117.63260631292
16823,189.0793612642768
16824,-947.1280850883401
16825,-1641.7619183983015
16826,-2030.125610205619
16827,-2367.3074877993545
16828,-2607.7282657865017
16829,-2308.281160293359
16830,-1301.6003268941406
16831,498.72061077349207
16832,1124.0445732487178
16833,-700.0220344491014
16834,-2165.417490717456
16835,-2663.849110523376
16836,-2929.564222505534
16837,-2922.716726097285
16838,-2920.688195567764
16839,-2800.9246630405128
16840,-1850.3546265061163
16841,572.4907614772712
16842,1801.6250265884723
16843,2201.0476964331983
16844,2478.175624382162
16845,2160.7793823589045
16846,1662.084228971476
16847,1348.4424483652015
16848,810.9614422661964
16849,216.33526443857022
16850,-253.22181658357067
16851,-379.7392273534228
16852,-578.6951070493928
16853,-475.6120188584175
16854,335.29760304724437
16855,1423.2130858078385
16856,1910.3026903944947
16857,1745.5474411300256
16858,1062.1758536488692
16859,462.4036544337955
16860,7.936173566624703
16861,34.44865471066579
16862,-158.18370466470952
16863,-45.68983656828836
16864,410.0357898541558
16865,974.6207020370503
16866,1502.702128473006
16867,1783.5410290010898
16868,2087.950632602839
16869,1560.8049665569124
16870,826.0550154465512
16871,261.83507665579924
16872,-133.35525913513533
16873,-674.0967790723087
16874,-1122.5465382476782
16875,-1369.0136818163987
16876,-1338.8436382059006
16877,-998.6369179482421
16878,-322.6749087018644
16879,1075.1167798516997
16880,1789.336314722782
16881,1746.718050549494
16882,1213.557600400532
16883,492.1105854613996
16884,-74.21834880970343
16885,-138.12913712687265
16886,-77.50134915620778
16887,106.16092828483823
16888,610.3101702041531
16889,1456.374100906029
16890,1897.3750190691862
16891,2143.7432383183145
16892,2386.006647732037
16893,2147.7046791774133
16894,1632.2834046193345
16895,1032.655298160676
16896,377.91446184820705
16897,-122.55843089844475
16898,-571.6316640276362
16899,-897.624578886322
16900,-1079.5077143572248
16901,-886.4103236252703
16902,-114.88560561280886
16903,1236.8501892235051
16904,1862.2518053892895
16905,1835.7009616765085
16906,1186.4722648275078
16907,400.72901220209314
16908,-191.08697502530873
16909,-444.3236475970745
16910,-412.18997426465694
16911,-261.50415471539
16912,240.58339131448136
16913,1178.5403701802302
16914,1793.1066460141894
16915,2116.7811104750563
16916,2283.3660225027033
16917,1955.933103650024
16918,1283.2842800256901
16919,682.1033735926832
16920,149.60452498667928
16921,-415.2890986103058
16922,-906.9953197116098
16923,-1057.3215956101578
16924,-1162.3991644990965
16925,-1189.5509293973387
16926,-961.2335659285686
16927,-506.6027294537509
16928,-18.605155832471723
16929,408.84963927602706
16930,124.9629534060694
16931,-407.15607645452087
16932,-796.2791914266581
16933,-794.3821328982951
16934,-700.7015560662472
16935,-469.9414592159087
16936,72.6299561626893
16937,1045.3836221270928
16938,1827.2164019376528
16939,2219.1160340524266
16940,2482.3063771839716
16941,2270.92324365482
16942,1701.190731626277
16943,1287.5664207260702
16944,477.1675766742946
16945,-322.80635297497463
16946,-875.2624478515359
16947,-1129.738616629538
16948,-1227.3499124699154
16949,-1152.229516575902
16950,-1170.32537705898
16951,-848.8052152820051
16952,-267.55140752158763
16953,-285.68175381003846
16954,-886.8093129196045
16955,-1961.659897667422
16956,-2379.6485636120124
16957,-2198.848809025086
16958,-2004.3247195223987
16959,-1652.485987332113
16960,-546.4443072251163
16961,721.7694346833911
16962,1581.6554631301071
16963,2213.6521068789493
16964,2393.3206677750973
16965,2248.9830410068453
16966,1797.5142684832397
16967,1274.2136939370653
16968,715.789859953822
16969,-51.82545293800578
16970,-517.1242145605905
16971,-829.5212225693485
16972,-776.5041259969605
16973,-546.950388651196
16974,378.77937527583333
16975,1595.0160613756086
16976,2340.456286118195
16977,2092.5219269982126
16978,731.5769385885021
16979,-286.22256332980646
16980,-693.441063946623
16981,-821.1483641201064
16982,-809.060537831546
16983,-517.5887398075515
16984,252.5486402293728
16985,1595.92945014234
16986,2341.9862700410445
16987,2701.158207258139
16988,2892.843305862591
16989,2731.5893119392445
16990,2151.826570957356
16991,1719.4994334427984
16992,1018.0592552534944
16993,370.5807056843681
16994,-212.12957114270534
16995,-524.6563617140237
16996,-561.8531635173129
16997,-418.1875267656253
16998,283.6932079122148
16999,1511.428082803046
17000,2044.782036133351
17001,1663.3538022260936
17002,819.9488925484485
17003,-151.5435608369287
17004,-894.05937878766
17005,-1114.9246940994053
17006,-1352.8571442967639
17007,-1534.7960823390806
17008,-484.7676692858345
17009,439.8810630445704
17010,1621.6730021092133
17011,2040.5560939641541
17012,2118.446136270491
17013,1668.0853954802294
17014,906.6896738441839
17015,373.8655488861029
17016,-641.1651337362294
17017,-1286.0879613410912
17018,-1827.3750410314092
17019,-2103.9623055671423
17020,-2344.13028851702
17021,-2556.113285601288
17022,-1821.681441743957
17023,48.682769671326184
17024,738.7814545956091
17025,11.253164386350107
17026,-1141.618982406546
17027,-2091.140676640028
17028,-2452.7392339552584
17029,-2621.112781745429
17030,-2678.0404160835046
17031,-2500.199442780881
17032,-1379.2099176043887
17033,983.6660423068694
17034,1702.72853133086
17035,2031.591851448409
17036,2362.520836993372
17037,2234.8830511506376
17038,1467.2038034034374
17039,692.7001500090754
17040,-1089.1524900078057
17041,-1913.7357101944435
17042,-2348.342269402844
17043,-2565.0645705038637
17044,-2707.2417586941
17045,-2796.340487420543
17046,-1988.4210871539947
17047,249.19583227758486
17048,1076.982091266598
17049,741.3278282910569
17050,-965.782508612992
17051,-1784.9802705597292
17052,-2376.1094649969073
17053,-2508.6652322445057
17054,-2485.008864657706
17055,-2142.122953734922
17056,-1506.5749634968993
17057,303.57571212340605
17058,962.2187620245315
17059,1309.9171033957857
17060,1668.9011911176908
17061,1342.534760913194
17062,332.63364354464636
17063,-867.7325206002195
17064,-1502.1778901384882
17065,-2212.5737470717017
17066,-2537.2204612526084
17067,-2776.8929759400567
17068,-2832.3383078454617
17069,-2512.5552805657717
17070,-1194.7561448994163
17071,816.2021563641549
17072,1711.3413705663324
17073,1653.2225625838296
17074,820.7761489716135
17075,54.738103577536194
17076,-19.613906503418832
17077,-297.7369141131947
17078,-99.97017952599728
17079,336.65875259877566
17080,867.4192852856427
17081,1745.544358888509
17082,2167.972105696525
17083,2462.6298974507904
17084,2636.117128800419
17085,2499.1580659434517
17086,2133.4255429608043
17087,1829.2039528894525
17088,1003.7620870198273
17089,149.49404522652065
17090,-720.459790682101
17091,-1024.1136604581168
17092,-1510.7907123910643
17093,-1561.2317545994079
17094,-1322.903203814074
17095,-774.6478859088677
17096,-433.44931070240995
17097,-315.2147112475285
17098,-1188.985423319673
17099,-2091.008466545304
17100,-2591.8071851148707
17101,-2820.918980189795
17102,-3069.4390272727674
17103,-2991.586175840342
17104,-2199.863484680905
17105,-333.6001689005966
17106,565.9091470194284
17107,1051.1603397976999
17108,1350.3475052048855
17109,1203.8449611086635
17110,275.25371339346566
17111,-515.022462116123
17112,-1222.0996209746897
17113,-2213.9760026166105
17114,-2538.9017251068494
17115,-2811.604862215471
17116,-3081.9062571878467
17117,-3106.227066221443
17118,-2971.343193319188
17119,-2448.8437686096036
17120,-2173.682867324755
17121,-2446.172775216542
17122,-2698.4259254099643
17123,-2822.6328390990366
17124,-3143.239705243436
17125,-3184.801294989335
17126,-2941.2502906832124
17127,-2557.174468665105
17128,-2117.600442849018
17129,-890.7799243097406
17130,701.4900313955613
17131,1195.7982004777589
17132,1519.1224207829732
17133,1258.8946604977061
17134,345.44562541690266
17135,-1221.2893659573547
17136,-2454.4836063236676
17137,-3110.9907691189183
17138,-3433.0129625700147
17139,-3561.381292946954
17140,-3567.4284406262204
17141,-3392.426278784432
17142,-1988.378966122071
17143,242.1853540115172
17144,1172.15777873247
17145,1294.942374533618
17146,892.0842313338215
17147,23.825016181744864
17148,-1056.0326566081114
17149,-1442.5193511873945
17150,-1701.133617956317
17151,-1426.6666597032834
17152,-201.45588674941428
17153,1179.268958557243
17154,2001.700705644722
17155,2339.299743228942
17156,2554.017177333838
17157,2364.0684870607924
17158,1935.295387697795
17159,1336.2258964080565
17160,473.597908101465
17161,-327.63800812852185
17162,-875.2501579537715
17163,-909.5330775238172
17164,-735.4216251881694
17165,-356.4078734380312
17166,463.02929514036157
17167,1770.8101559351785
17168,2393.759321964313
17169,2475.226564196654
17170,1565.6830344258415
17171,610.1670327856693
17172,14.017699196576487
17173,-190.16945088698435
17174,-240.31120555113483
17175,94.40576084746677
17176,889.8249753556773
17177,1683.8747680423462
17178,2332.3478931935956
17179,2612.026171082264
17180,2786.5590985948797
17181,2563.458405840411
17182,1864.1475662157106
17183,1384.0969489459658
17184,594.6625521607443
17185,-66.95426038211954
17186,-525.8691269660693
17187,-766.4798616643993
17188,-757.8253685769638
17189,-515.3539463458386
17190,172.71896677765605
17191,1389.8270294903086
17192,2049.427742070395
17193,1529.5748087763118
17194,432.2456070296969
17195,-523.3433032630339
17196,-913.4075472360726
17197,-1101.7544477884205
17198,-874.5010085385529
17199,-727.2959109979528
17200,-27.79612373307966
17201,1389.1664281048354
17202,2501.644710798937
17203,2827.9843677298395
17204,3031.5505343019627
17205,2837.351704050968
17206,2237.7880354023678
17207,1803.202024882361
17208,1208.952660393145
17209,422.51770984679547
17210,-74.49557120727894
17211,-389.955086194687
17212,-409.04457560565515
17213,-275.826199460065
17214,582.7450848697606
17215,1836.3464927775992
17216,2359.3150055436913
17217,1866.2611501029087
17218,759.2383138501802
17219,-267.770059395388
17220,-575.8587456928319
17221,-610.5943368701014
17222,-672.4841617862338
17223,-419.5841501907439
17224,106.22087522405894
17225,1440.1817325724885
17226,2320.176594704044
17227,2713.0714387480775
17228,2962.453364552843
17229,2681.412092778685
17230,1965.7083070590704
17231,1329.4042241482903
17232,570.3042827090293
17233,170.09299022285578
17234,-360.6596661596016
17235,-578.6148850187255
17236,-629.9248123800968
17237,-554.8813123483253
17238,42.03648738911647
17239,1316.726026087476
17240,2028.005910248184
17241,1760.658046351558
17242,771.3071162329287
17243,56.76063191841961
17244,-501.4091448548669
17245,-642.2970426413843
17246,-493.0690692952817
17247,-159.1218125350967
17248,645.614479431946
17249,1680.1382541147038
17250,2267.6554659688313
17251,2537.812209702134
17252,2673.0857018165043
17253,2493.1721578726747
17254,1840.2234790091659
17255,1403.153711341196
17256,682.0285280919339
17257,468.580742624711
17258,-134.75801838170491
17259,-324.66181467243905
17260,-387.14599776741187
17261,-472.65253209162586
17262,-246.50820088419923
17263,175.89212977415332
17264,806.988378434947
17265,664.0249531410705
17266,-284.5062655002903
17267,-1689.0120453428742
17268,-2088.9385199538774
17269,-2040.7025580283405
17270,-2150.5998869725804
17271,-1882.8424645780271
17272,-399.66012077974136
17273,963.6945610221192
17274,1747.202108135858
17275,2175.142177372575
17276,2349.3940399406524
17277,2120.1338568942583
17278,1573.8674930594907
17279,923.0729691410697
17280,405.53762772492064
17281,-264.6164119316768
17282,-723.1986169816267
17283,-1123.391267108219
17284,-1241.4963355563978
17285,-1252.7830361143301
17286,-1000.1194153561378
17287,-588.5225468548683
17288,-34.28458590496899
17289,209.8942404438055
17290,-309.7704009239724
17291,-1436.3172820080954
17292,-1686.2983845240512
17293,-1669.0680027723502
17294,-857.2966261342619
17295,-414.7598802796737
17296,466.5771809175078
17297,1178.6030190406354
17298,1928.308429882173
17299,2380.994233608483
17300,2656.6212369991595
17301,2539.759925312425
17302,2078.969336804728
17303,1600.5791817012696
17304,691.117609171103
17305,-91.11771199685032
17306,-516.0120520122904
17307,-841.5891026067269
17308,-908.843577141973
17309,-804.9072620625152
17310,88.97811498508312
17311,1438.177472867749
17312,2135.7170230849156
17313,2220.5990733876533
17314,1650.0615100365485
17315,717.2880297990491
17316,153.64679774815008
17317,87.98956958789519
17318,-4.0855969605256774
17319,82.41742411703282
17320,499.88344838847536
17321,1390.331842463834
17322,2123.7269867194977
17323,2429.948654570664
17324,2619.0546378668146
17325,2228.8201054022966
17326,1530.5170151862244
17327,1116.4510383812462
17328,598.2575290241159
17329,14.084092264543813
17330,-373.9579517882181
17331,-566.2488580407708
17332,-566.2799551349975
17333,-488.015589603295
17334,128.87290562644415
17335,1373.1055530008512
17336,2018.0650628320477
17337,1836.5208029064634
17338,939.301234943462
17339,53.76411441381681
17340,-339.32965807472397
17341,-651.0839457450741
17342,-839.3955908058282
17343,-285.21665334874274
17344,330.2086180868101
17345,1314.210684424281
17346,2056.3918501616276
17347,2277.6479566153985
17348,2468.7798392643545
17349,2169.720568161634
17350,1244.490233547089
17351,745.0214084069597
17352,50.74374269678804
17353,-410.9127828164295
17354,-1141.5256009328496
17355,-1337.0077532580237
17356,-1735.643775350555
17357,-2002.485030081905
17358,-863.4630790951014
17359,415.2205589191671
17360,1240.6353220890742
17361,1330.0744626558107
17362,212.55185944504842
17363,-1305.1832022501058
17364,-2026.7682639545699
17365,-1986.852741127255
17366,-1924.3231966055425
17367,-1691.5662286993272
17368,-334.60116848054037
17369,1270.056590019139
17370,2253.1421918745573
17371,2523.7525126576293
17372,2724.567873061427
17373,2572.7881712663734
17374,2095.2651956148666
17375,1586.8199201623142
17376,789.1200514601586
17377,-161.7312253989368
17378,-596.8868680247032
17379,-877.8918894546656
17380,-922.2066447393347
17381,-818.3163417851875
17382,200.3639268588234
17383,1446.6464517066918
17384,2070.8449497983884
17385,1584.3827343238154
17386,169.89758436535107
17387,-1629.2750529028315
17388,-1923.1777283069976
17389,-1900.3545017182385
17390,-1870.5010952626735
17391,-1620.1585263314996
17392,-372.0351331051222
17393,1059.4213564161132
17394,1932.5312232303033
17395,2296.8058583974394
17396,2590.937888781243
17397,2499.7685487313147
17398,1797.987042281982
17399,985.1975281426006
17400,201.83505702764404
17401,-524.2411282519024
17402,-1299.1273190255015
17403,-1796.3936069305457
17404,-1840.535625891353
17405,-1457.3891142286932
17406,-799.3265105194819
17407,-224.379065220592
17408,308.197881597475
17409,222.73987355805275
17410,-655.0361594887714
17411,-1461.2071474321626
17412,-2147.078036055109
17413,-2271.3309611246063
17414,-2534.1263406345497
17415,-2507.9501742169373
17416,-1367.9891623292929
17417,859.3065985293495
17418,2012.2390678673362
17419,2211.9179294302858
17420,2229.51941548747
17421,2256.844971967984
17422,1740.3279757748558
17423,967.8666137692945
17424,199.44240024084996
17425,-1406.603637176409
17426,-2049.572034641363
17427,-2587.8803410222913
17428,-3004.827308830868
17429,-3125.648446849141
17430,-3032.653961714254
17431,-2478.5756942684857
17432,-1959.370860035037
17433,-1941.3840230002857
17434,-2405.6027978078305
17435,-2901.4928778014496
17436,-3309.678325286347
17437,-3428.219894657233
17438,-3419.9050531952075
17439,-3464.213879175787
17440,-3262.9923740933377
17441,-2343.005337891843
17442,-527.8272804439388
17443,204.6923736927311
17444,852.7050790199994
17445,658.72968981354
17446,0.7710218917320049
17447,-272.7372269535828
17448,-646.1615688647872
17449,-1819.5016922518494
17450,-2740.5597623837175
17451,-2861.46902908266
17452,-3117.3934012009167
17453,-3179.098871882326
17454,-2967.7230906997315
17455,-2430.998032676349
17456,-2004.6214842838626
17457,-2214.4336513957396
17458,-2553.809944463414
17459,-2924.1896110871508
17460,-3096.1600561382293
17461,-3226.3493929520346
17462,-3226.6641728390646
17463,-3241.109250240961
17464,-2836.183226119201
17465,-736.561033478852
17466,912.8159930646573
17467,1342.8842309284717
17468,1662.0273142347323
17469,1471.8348833121859
17470,945.1787951445027
17471,-176.61529887205847
17472,-1485.956769908325
17473,-2518.8039062845783
17474,-2979.172471876418
17475,-3140.268505219166
17476,-3249.1522778453464
17477,-3141.9701573015327
17478,-2352.5963745548775
17479,-1017.3078210592862
17480,78.44611924578652
17481,-310.1457065104555
17482,-1818.773507722241
17483,-2590.7240527677177
17484,-2768.169690717055
17485,-2814.6848060880093
17486,-2800.499996920929
17487,-2683.3459273734484
17488,-1511.3375504512796
17489,477.96640637414725
17490,1696.7954537183757
17491,1993.5339004505158
17492,2212.124793059444
17493,2194.0376229302865
17494,1744.2125118023525
17495,1499.9823657273128
17496,1001.1718390246509
17497,180.36431063181502
17498,-788.6776824828368
17499,-818.3164653188903
17500,-1168.2662887281217
17501,-874.1882233308247
17502,395.1064920622156
17503,1714.8024378030511
17504,2333.6505986514944
17505,2334.011056111948
17506,1293.0299424143996
17507,-73.55887512234546
17508,-318.5575601996377
17509,-342.343532713992
17510,-220.4445944783393
17511,-81.09726418282139
17512,647.4282794410065
17513,1774.856899660708
17514,2411.7408907516237
17515,2702.5856871142137
17516,2900.0203352279163
17517,2774.418177753954
17518,2358.1518221309116
17519,1921.819850740099
17520,1317.5640933130435
17521,801.1181255455232
17522,86.50516594494061
17523,-123.96033730541957
17524,-225.66893623059508
17525,-27.933742194207532
17526,774.9782383856556
17527,1891.2185817711706
17528,2649.612365292799
17529,2468.659705876048
17530,1378.8656656628136
17531,412.2335181766026
17532,59.35376232539223
17533,58.27975535465289
17534,91.84033776681132
17535,243.5289939467621
17536,785.4772457765569
17537,1973.1876916364872
17538,2598.689944365845
17539,2851.930791562212
17540,2991.2343199623137
17541,2745.80852352521
17542,2009.8300766069844
17543,1376.1176537860097
17544,868.5011821628007
17545,511.41145627716605
17546,33.683006581985225
17547,-158.03397413714788
17548,-275.8572196750288
17549,-202.41119621071388
17550,375.86625662997767
17551,1351.117022153339
17552,2353.009322985921
17553,2237.959571084483
17554,1429.775813283601
17555,883.8235766544681
17556,553.140440861678
17557,472.8246592687922
17558,484.20363894238824
17559,614.5948111500593
17560,1078.7160856476949
17561,1967.383022417709
17562,2504.3834618022743
17563,2801.814756372585
17564,3002.9991141762666
17565,2775.2385754233596
17566,2140.5165894981533
17567,1436.8872854573224
17568,855.4845230425777
17569,544.9635754487492
17570,171.17657457571525
17571,-93.72764278385235
17572,-149.32057114301784
17573,-67.83667194694557
17574,481.89892049966875
17575,1583.6545282075317
17576,2300.5391992542823
17577,2318.2710223194795
17578,1520.5511907122432
17579,822.633329610582
17580,343.5404440079993
17581,238.76763398686194
17582,141.92661205695674
17583,164.29839676925866
17584,371.0891966118987
17585,1496.0854366605843
17586,2224.9374567573436
17587,2588.877459186411
17588,2810.5964247712513
17589,2561.7888781722954
17590,1927.3862436494476
17591,1478.6474585049937
17592,850.3479044244408
17593,536.5642418194781
17594,91.07305325629784
17595,-215.69140665401068
17596,-354.21704254620835
17597,-397.2061983486045
17598,-81.67471433758917
17599,286.7521769525023
17600,784.1544115560434
17601,1156.7994096186583
17602,710.6255333372574
17603,-118.39466634470472
17604,-671.4720239944461
17605,-1121.5370288896088
17606,-1184.4898053864774
17607,-995.6630969846685
17608,-291.9591952010511
17609,671.5993994316156
17610,1900.9240978210007
17611,2131.871905334442
17612,2320.933220976814
17613,2181.071641609624
17614,1720.1537380821514
17615,1007.2925430564039
17616,85.21595635634424
17617,-572.3546689146546
17618,-1157.7124377890245
17619,-1387.3925087415366
17620,-1589.611323137489
17621,-1778.4955774973134
17622,-1679.6017966633
17623,-1261.1126481370472
17624,-692.8365184687727
17625,-921.5552839809833
17626,-2010.6258834544628
17627,-2806.9017034628196
17628,-2963.692489016601
17629,-2930.3718194585213
17630,-2614.703401834373
17631,-2683.9029029152
17632,-1460.6107045911021
17633,512.6151048018662
17634,1709.7043832402564
17635,2113.535364303964
17636,2344.153974074097
17637,2281.0936935629597
17638,1961.451789846835
17639,1783.5054123755272
17640,1065.4188536887114
17641,337.6794162826325
17642,-450.66597959433363
17643,-830.7065050675144
17644,-880.2356590783945
17645,-508.6117214898874
17646,564.6618698984726
17647,1605.0440844704715
17648,2134.0430487736116
17649,2155.367322004016
17650,891.3176114195622
17651,-412.4466625283198
17652,-760.4838800391917
17653,-852.9867272740709
17654,-954.8600618421888
17655,-515.3215344125911
17656,184.62484022678436
17657,1324.934222771987
17658,2256.9574071326847
17659,2554.7889197971067
17660,2779.6407448067976
17661,2661.0994410398384
17662,1958.5237785251477
17663,1353.7924184055364
17664,687.4316520568958
17665,238.83949948121008
17666,-264.8492379100143
17667,-806.7771567822152
17668,-843.1522358177832
17669,-792.8320746839967
17670,19.097291902449975
17671,1378.0646085762896
17672,2395.910953653158
17673,2458.4566315351644
17674,1679.5999786695575
17675,659.9598694300682
17676,104.74936188487567
17677,-177.00203259414286
17678,-172.03551208334545
17679,34.553801028136334
17680,599.7885564088671
17681,1719.4722763994523
17682,2243.127289201671
17683,2468.0669387105086
17684,2626.164218529105
17685,2322.2550809704394
17686,1500.4571337204104
17687,901.8821045380149
17688,313.01912454951014
17689,-82.84182943818402
17690,-690.7777316165434
17691,-921.3729437895852
17692,-1102.1548949829587
17693,-962.3147606588061
17694,-189.4428358544383
17695,1134.7927130134758
17696,1953.1477449024835
17697,1815.6514063349932
17698,876.8142956888985
17699,-110.15146292817701
17700,-498.65515252851344
17701,-683.600575499241
17702,-733.8182695846245
17703,-381.3688188262873
17704,326.10931869313316
17705,1548.900150709939
17706,1970.8043537759227
17707,2233.328798072886
17708,2308.2778046556427
17709,1877.6122323054565
17710,925.5387478923728
17711,330.7687539610531
17712,-653.6631950708089
17713,-1905.4036695117438
17714,-2389.7351981423453
17715,-2924.5338825286467
17716,-3108.472735161952
17717,-2959.3374812252623
17718,-1815.154020147422
17719,-42.17746777335617
17720,1086.8046810662158
17721,1124.6347929486572
17722,523.3010639186464
17723,-577.4841854572983
17724,-1419.870702839927
17725,-1606.943259810445
17726,-1609.045352093812
17727,-1674.7042167684122
17728,-678.2566189777989
17729,495.90426622280063
17730,1396.565134023598
17731,1773.8224245876265
17732,2158.384256713389
17733,1987.1968915864315
17734,1239.4058109924076
17735,819.2423947527349
17736,121.52910761800322
17737,-364.4882663096512
17738,-1154.2325130608624
17739,-1441.2185766669902
17740,-1579.3088731519902
17741,-1310.459624214205
17742,7.336843099856111
17743,1341.708367222083
17744,2074.796052557699
17745,1860.9873433674325
17746,380.60195559543104
17747,-876.4367649025223
17748,-1261.9723855396755
17749,-1476.0711759831481
17750,-1918.646637547188
17751,-1903.2223958836125
17752,-470.8668524097391
17753,1123.7625886428286
17754,2145.073094691692
17755,2456.038807230342
17756,2656.3820920283197
17757,2490.6692564391037
17758,1870.288490944096
17759,1350.6857595922888
17760,277.1492046977878
17761,-378.3610636566739
17762,-1023.8766894128447
17763,-1291.9719955837616
17764,-1566.599556219047
17765,-1457.6400628973329
17766,-1186.0860309784036
17767,-628.5813343729792
17768,299.12850405839606
17769,167.55987969928472
17770,-1014.3980216852962
17771,-2436.3558259224255
17772,-2933.322110547844
17773,-2977.1807037200033
17774,-2937.7636370672267
17775,-2875.2578015414924
17776,-1606.85764110651
17777,648.8992709670048
17778,2068.9211705546945
17779,2363.2426804179822
17780,2613.6076897875723
17781,2444.122351740032
17782,2020.5707580379665
17783,1591.2825193083481
17784,666.8353035244402
17785,-103.76191826787792
17786,-1218.1325545805544
17787,-2090.021693950661
17788,-2458.0571565593164
17789,-2565.324638741592
17790,-2342.9286739932554
17791,-1817.293424486258
17792,-620.8993372379759
17793,-366.837726320084
17794,-1872.5514580518143
17795,-2946.9858198205993
17796,-3162.792136300306
17797,-3181.392763238229
17798,-3256.4649706788905
17799,-3326.327717830261
17800,-3297.0774625254962
17801,-2073.058725897701
17802,493.36130806111044
17803,875.2869375237203
17804,1354.7614016062967
17805,1111.649266516475
17806,129.58327711202807
17807,-180.3132505792526
17808,-1487.2203421378674
17809,-2425.7668591967486
17810,-2989.3846919885523
17811,-3314.1310529034977
17812,-3382.999952498817
17813,-3190.298914452806
17814,-2170.7623042296477
17815,-666.5677491990232
17816,680.8120672656387
17817,604.0647039433288
17818,-1713.299736220115
17819,-2842.494850509965
17820,-3065.5074247839916
17821,-3119.1017171383355
17822,-3157.977268907262
17823,-3171.6624842858964
17824,-2483.7679494217055
17825,-127.73333469729732
17826,1494.331290645475
17827,1930.0948962586804
17828,2221.338749501726
17829,2097.1959898314226
17830,1513.9010980142411
17831,903.9933618060359
17832,-415.7174520937338
17833,-1631.2567076570535
17834,-2555.710956712001
17835,-2902.6586588304885
17836,-2944.748499710722
17837,-2908.2174075644125
17838,-2612.8433251793813
17839,-1058.7827106538912
17840,236.6358388028275
17841,482.9425812397374
17842,-1563.756324758755
17843,-2800.3057437679354
17844,-3112.262266775786
17845,-3096.5548108924645
17846,-3137.5597531561425
17847,-3056.46578210498
17848,-2506.453629701871
17849,109.03134906220961
17850,1436.7810136239102
17851,1893.645087202389
17852,2025.8422638337465
17853,1532.1512217006066
17854,381.4021884682629
17855,-741.1586857981878
17856,-1160.8177821572756
17857,-1654.73928175686
17858,-1806.947158840383
17859,-1984.9176027439705
17860,-2151.6942929079805
17861,-2292.8196638163017
17862,-2046.8409375145459
17863,-1284.4557637208982
17864,-297.0135874047172
17865,-1283.3193147659217
17866,-2359.0950364430664
17867,-3083.1958807796386
17868,-3262.559182519759
17869,-3263.9913109285803
17870,-3252.4709041777255
17871,-3252.324114684263
17872,-2241.023636017612
17873,157.82301259267814
17874,1703.3496407771452
17875,2237.8742165185568
17876,2556.9924540041234
17877,2398.311126634317
17878,2070.240228357765
17879,1616.4318748765631
17880,1032.7109282586457
17881,258.2569620320965
17882,-194.41501867817277
17883,-440.4322322887847
17884,-521.0298179579847
17885,-527.0342317431058
17886,-19.10209206846281
17887,784.6439658450215
17888,1655.384560478008
17889,1875.9077960726636
17890,1007.9904024694565
17891,-471.47138023085125
17892,-1009.7735361595936
17893,-971.6656313006914
17894,-866.474121904171
17895,-799.7987644355409
17896,-164.61763417742569
17897,1069.887522033956
17898,2155.6835238639446
17899,2525.1246423578414
17900,2648.8911360594307
17901,2481.8041186327223
17902,2112.494436035742
17903,1647.9991567334118
17904,675.9395427131034
17905,14.099492316859454
17906,-423.1901683953198
17907,-765.1325722024458
17908,-774.7074061718822
17909,-661.0017816444281
17910,-196.1751377118658
17911,836.2856831109154
17912,1744.7374818672808
17913,1817.8831245242463
17914,653.057526180958
17915,-518.8289384371894
17916,-1427.6392094805135
17917,-1475.1294748653797
17918,-1975.6343784910644
17919,-1471.9173290188949
17920,-374.76380369816275
17921,999.6610820631817
17922,2271.902262480053
17923,2613.82853549877
17924,2877.9120920020305
17925,2738.052665968585
17926,2335.0489095408166
17927,1900.9086461004736
17928,1261.9163497382378
17929,394.65323209460564
17930,-168.4673663889107
17931,-368.5202304234435
17932,-429.48319799060255
17933,-399.96713154781537
17934,-110.8045107321133
17935,364.7477376650537
17936,1042.6841867925673
17937,1208.8008650358001
17938,427.76079843369774
17939,-583.2448513267259
17940,-1279.8021947336542
17941,-1608.1754783586534
17942,-2163.82779020506
17943,-2006.6949587890242
17944,-661.9194944825521
17945,668.0299097280085
17946,2195.6415828727336
17947,2655.31542072782
17948,2931.9333660672255
17949,2802.583931671624
17950,2322.3819409605026
17951,1782.5861621227677
17952,955.2493395830442
17953,-108.19718445026743
17954,-612.484146602842
17955,-809.8903179044773
17956,-834.1670404567983
17957,-955.4870001681423
17958,-757.1912255290408
17959,-372.42129475018976
17960,108.85635975212708
17961,169.65150564166802
17962,-810.6106158028559
17963,-2132.644737678057
17964,-2406.639798491374
17965,-2046.9405373952472
17966,-2305.1919826256367
17967,-2276.2335050404595
17968,-1070.2387785433052
17969,642.6181533496589
17970,2096.517874620075
17971,2653.2022293425844
17972,2884.82408815134
17973,2775.2293596173226
17974,2519.0454027453097
17975,1967.158720642692
17976,1121.6901273840529
17977,101.93208658889594
17978,-300.9833441550875
17979,-679.8521928439765
17980,-755.7709255333782
17981,-744.8967253320268
17982,-231.4419280289857
17983,700.6436268564332
17984,1600.2352463428308
17985,1781.49184153424
17986,644.8169632317581
17987,-419.7910484093724
17988,-1249.4168746598102
17989,-1290.6851360814046
17990,-1352.848505558749
17991,-1200.2074308797771
17992,-393.0907133189134
17993,1012.8802970036257
17994,2348.3866937993853
17995,2806.353173756671
17996,3007.6754665305166
17997,2861.9709287480523
17998,2502.8227941901723
17999,1909.608684897319
18000,1067.5755786695418
18001,235.9136220222041
18002,-375.7215493554375
18003,-636.4247084470996
18004,-777.0243211395941
18005,-735.3253837653886
18006,-252.3546468726295
18007,478.08560813199733
18008,1244.8980369223764
18009,1675.253078576584
18010,776.7411668419039
18011,-213.31297221726606
18012,-908.9106421214171
18013,-1188.4012896172692
18014,-1142.240569056043
18015,-1080.3173424095141
18016,-293.7434028318538
18017,868.6755467176882
18018,2206.1435923735817
18019,2630.000650943545
18020,2824.9364287857493
18021,2543.115825962575
18022,1658.178240951682
18023,753.2441197270937
18024,207.91893045980547
18025,-192.2378414919642
18026,-693.4132583158748
18027,-1252.1123490107445
18028,-1490.1782436664566
18029,-1512.476143508035
18030,-1424.7491145063798
18031,-1205.7303777656136
18032,-925.513460594414
18033,-1701.525106898196
18034,-2715.609531065943
18035,-3281.112325868415
18036,-3415.0627513050854
18037,-3197.3646086853073
18038,-3195.7254606435513
18039,-3076.5670264267887
18040,-1817.2956197644673
18041,-12.199095589186438
18042,1800.5887958791961
18043,2401.2292632243157
18044,2746.1024504710645
18045,2499.6991762740167
18046,2108.4177512097353
18047,1353.860920260492
18048,468.8257706499519
18049,-524.2194544729416
18050,-1193.34303620529
18051,-1437.4899570422547
18052,-1484.8633509109611
18053,-1415.567466695217
18054,-602.5020483156374
18055,728.2761684501036
18056,1678.2750686371814
18057,1986.5140526851674
18058,898.2184719540433
18059,-612.9964519498965
18060,-1710.5073127909207
18061,-1941.5990560621585
18062,-1359.6465896176744
18063,-1068.891269757604
18064,-269.91743318177276
18065,1136.561661201674
18066,2232.0914861672795
18067,2542.2596178466692
18068,2841.205501629876
18069,2611.563863122171
18070,2098.241067575462
18071,1481.8785169703624
18072,500.644340400542
18073,-215.3532704752117
18074,-1125.23814002862
18075,-1797.46816527413
18076,-2038.1276918191807
18077,-2085.5948322427894
18078,-1256.728952081089
18079,-211.55134859241002
18080,909.2495543326525
18081,1312.070934114637
18082,557.3982676662473
18083,-644.3043127242124
18084,-1351.3236914440133
18085,-1315.587752981059
18086,-976.4123444300525
18087,-903.109216721019
18088,-107.43234681082959
18089,1018.0480859868779
18090,1700.9792082042372
18091,2199.920090646131
18092,2537.132849431984
18093,2379.5725527861
18094,1924.0283827747278
18095,1130.96947122234
18096,109.21606246960229
18097,-669.8435471174301
18098,-1508.8639972639785
18099,-2086.543889721422
18100,-2246.303544814189
18101,-2177.137247645182
18102,-1973.303249753193
18103,-913.7562246588693
18104,-74.2331520315995
18105,543.123951666801
18106,-270.2827089278618
18107,-1382.4896289059952
18108,-1897.9289176714624
18109,-2126.9360243245674
18110,-2257.277918645196
18111,-2044.6175449046234
18112,-682.3770029673369
18113,744.3803657215535
18114,1627.0542707610077
18115,1948.7273097138188
18116,2214.0948691248864
18117,2136.0974622747717
18118,1601.5949263411965
18119,670.6615630143286
18120,-167.74726644879829
18121,-1720.3439214460554
18122,-2458.2797182615
18123,-2676.7490228948845
18124,-2952.8426992598456
18125,-3169.622327067441
18126,-2882.9755222239323
18127,-2559.094609826213
18128,-2321.5760507400805
18129,-1706.5155730550068
18130,-1618.8810471949796
18131,-1551.3480192866748
18132,-1911.396783011208
18133,-2115.6384913305496
18134,-2096.7763234097006
18135,-2111.3795982231504
18136,-1866.22384699325
18137,-1199.2486847308646
18138,373.816666659443
18139,702.1864452344049
18140,990.5245180452923
18141,499.19664180846564
18142,-70.11061639268542
18143,-983.2513678635072
18144,-2302.4487874229853
18145,-3147.9104490972363
18146,-3582.5004901308844
18147,-3906.194198059419
18148,-3972.603095131312
18149,-3904.386322836885
18150,-3483.336950666772
18151,-2444.243610952626
18152,-1594.0507980156874
18153,-926.4672980701686
18154,-1667.242666469855
18155,-2248.841529166413
18156,-2801.014825453549
18157,-2903.8631928868826
18158,-3058.460782221492
18159,-3148.277404233551
18160,-2689.1730417449
18161,-97.50133950478897
18162,1211.986982379333
18163,1889.0957607596238
18164,2150.9189619541316
18165,1905.7869820853348
18166,1457.4257707212075
18167,841.9496519594519
18168,-297.67270614809786
18169,-1945.0334643876213
18170,-2645.9788654603226
18171,-3094.9106272343092
18172,-3113.048333069134
18173,-2949.8217607023066
18174,-1708.8271522522102
18175,277.0404524313533
18176,1190.3329166239903
18177,1251.9244369613239
18178,-312.45544801695985
18179,-1372.0046462334237
18180,-2453.649577002428
18181,-2181.374926305243
18182,-1981.9217793912042
18183,-2027.6930352985808
18184,-725.7660446291997
18185,1078.4150998154887
18186,1726.5581228205417
18187,2265.0823704809554
18188,2496.5112119005844
18189,2270.364199663498
18190,1343.7496894783642
18191,249.8961597362201
18192,-725.3352807404555
18193,-1426.1547208443562
18194,-1850.2691033434849
18195,-2119.862003237641
18196,-2177.620749024804
18197,-1759.9514115326779
18198,-212.56944388624984
18199,1277.2340132369916
18200,2003.384541524839
18201,1984.3189606477035
18202,1089.5398872681326
18203,-340.95989631722557
18204,-1265.9797215218834
18205,-1329.5300086861878
18206,-1380.9766833919368
18207,-925.2029603059572
18208,-79.97101871794132
18209,853.7484597315475
18210,1487.48801918629
18211,1957.0100492951285
18212,2333.588530356968
18213,2018.2621657061666
18214,908.5135971728982
18215,-430.51994323019403
18216,-1329.9210383391294
18217,-1957.13291999582
18218,-2583.8068204002357
18219,-2848.0122436079605
18220,-3030.8975478629172
18221,-2957.0223225883433
18222,-1866.5829695303535
18223,509.29608406684014
18224,1562.3414352505972
18225,1621.272100252881
18226,642.5989940506886
18227,-971.9576207451141
18228,-2012.1234630522267
18229,-2320.3298831141446
18230,-2164.8305800853186
18231,-1893.3534535238632
18232,-955.1412183643758
18233,805.692436416514
18234,1990.3239538818834
18235,2459.5809446758153
18236,2723.563101447818
18237,2547.923607347732
18238,1984.1595449028853
18239,1215.925939901499
18240,356.8308890057624
18241,-608.9077277178343
18242,-1557.7996822089594
18243,-1865.1485463536758
18244,-1936.707616020228
18245,-1752.857117976907
18246,-207.75031442786596
18247,1372.1903284197292
18248,2069.238577480415
18249,2080.3986255766195
18250,889.375521510653
18251,-595.1595607979348
18252,-1567.525148346099
18253,-1857.724301773002
18254,-1873.2345856680415
18255,-1991.7788653567425
18256,-647.1842903032369
18257,704.6535392633558
18258,1681.401531579401
18259,2096.4080144781246
18260,2469.1050577579167
18261,2182.933129287425
18262,1507.5177925449723
18263,1027.081340466883
18264,75.13200066322506
18265,-830.2064837806189
18266,-1568.512572544114
18267,-2001.7116115473584
18268,-2093.8915063435916
18269,-2021.294395090694
18270,-1937.627091791099
18271,-1317.266001264938
18272,-94.53055615721377
18273,378.7730017492621
18274,-301.95234688700543
18275,-1421.9817712253334
18276,-2481.5166819768738
18277,-2678.5299986209034
18278,-2919.278296600588
18279,-2950.9777067399464
18280,-2576.6923076146227
18281,-687.8896059949273
18282,1109.9348884011308
18283,2043.3494933447548
18284,2320.0095019537493
18285,2151.0617809514956
18286,1590.8147417844752
18287,834.2739384321411
18288,-470.7644257051539
18289,-1417.926792548545
18290,-1969.8078642285795
18291,-2170.951857090003
18292,-2323.0793176404704
18293,-2436.43066791156
18294,-2206.886272762642
18295,-1853.902557896993
18296,-1494.968560748832
18297,-1430.227600736358
18298,-2146.460047985467
18299,-2793.510111214182
18300,-3115.8741230217356
18301,-3301.6513185191116
18302,-3230.838453545725
18303,-3310.0584022838825
18304,-3079.796042000076
18305,-1006.7811554616015
18306,1372.719127385422
18307,2052.1194155461703
18308,2414.7433459761573
18309,2253.0894239055874
18310,1840.3863094075323
18311,1057.1578986160614
18312,-219.33965682159197
18313,-1204.6365533547819
18314,-1677.3971952653806
18315,-1612.4375156296987
18316,-2008.7961471900903
18317,-1567.1538446376912
18318,35.82425026420679
18319,1380.8537671651904
18320,1996.9626658156951
18321,2084.9567289268434
18322,596.7022534326161
18323,-1086.7304130041962
18324,-2089.283344993513
18325,-2215.9798965832183
18326,-2182.8937221481056
18327,-2230.1622721218114
18328,-1145.3827757632826
18329,299.6006892786773
18330,2041.4451772457874
18331,2677.725466087576
18332,2956.3487395748107
18333,2839.3888506394433
18334,2339.77878803733
18335,1827.0409290717616
18336,1277.2646239308706
18337,477.38576159515276
18338,-13.651316148623039
18339,-255.62504668769924
18340,-279.76644263626895
18341,-29.582346697541162
18342,874.1265896045944
18343,1928.8890479878476
18344,2494.0671118510686
18345,2556.320902286094
18346,1458.768763583936
18347,-163.93084508566355
18348,-570.2027587491234
18349,-697.6233530778431
18350,-680.276815271745
18351,-695.3197626097462
18352,-311.632469641805
18353,972.1360495870127
18354,2461.71917996843
18355,3079.582756358093
18356,3327.6793148764878
18357,3204.1148732271417
18358,2713.9245775631844
